0.00000000e+00 5.77820186e-03 -1.32146478e-01 5.66707514e-02
0.00000000e+00 1.23470044e-03 -2.06275970e-01 -1.66553271e-03
0.00000000e+00 3.32790427e-03 -1.26872495e-01 6.60039037e-02
0.00000000e+00 4.71390318e-03 2.62383282e-01 3.96637525e-03
0.00000000e+00 6.28580200e-03 -1.33095577e-01 1.04145318e-01
0.00000000e+00 1.39297983e-02 -1.40621319e-01 1.21398158e-01
0.00000000e+00 1.01589728e-02 -1.67124853e-01 1.31065607e-01
0.00000000e+00 4.23285225e-03 -2.25952148e-01 1.50866434e-02
0.00000000e+00 6.48766058e-03 -1.08340077e-01 9.11154598e-02
0.00000000e+00 8.55447259e-03 -1.45077050e-01 1.31735623e-01
0.00000000e+00 -2.90506845e-03 1.39075801e-01 -2.14800034e-02
0.00000000e+00 -6.65534008e-03 9.96481329e-02 -8.63812491e-02
0.00000000e+00 6.24756049e-03 -1.46842942e-01 6.73960596e-02
0.00000000e+00 1.86930336e-02 2.57634491e-01 6.77546952e-03
0.00000000e+00 4.00236994e-03 -1.50404662e-01 4.65971641e-02
0.00000000e+00 7.61435134e-03 7.97948003e-01 1.69547703e-02
0.00000000e+00 -7.81719387e-03 1.27330139e-01 -8.09067637e-02
0.00000000e+00 1.66785624e-02 -3.14911008e-01 -2.64686979e-02
0.00000000e+00 4.06631036e-03 -1.66045576e-01 5.92049472e-02
0.00000000e+00 9.22627375e-03 -1.46679133e-01 8.95855874e-02
0.00000000e+00 3.73397343e-04 1.81252987e-03 -3.98684770e-01
0.00000000e+00 4.68870159e-04 1.98031157e-01 -1.92539915e-02
0.00000000e+00 -7.96319265e-03 1.13189742e-01 -9.69906896e-02
0.00000000e+00 -8.14894307e-03 1.39159501e-01 -1.24747634e-01
0.00000000e+00 -2.11077742e-02 -3.34217280e-01 1.37330480e-02
0.00000000e+00 -3.07443850e-02 -2.90273368e-01 -1.20704453e-02
0.00000000e+00 -5.78506850e-03 1.46298185e-01 -4.95047793e-02
0.00000000e+00 -5.63905516e-04 1.50588512e-01 -1.83367301e-02
0.00000000e+00 1.12769380e-02 -1.40935779e-01 1.24477766e-01
0.00000000e+00 -2.62414268e-03 1.26018092e-01 -8.89140815e-02
0.00000000e+00 2.79001147e-02 -1.47905558e-01 -4.79080388e-03
0.00000000e+00 7.68363522e-03 -1.42350554e-01 7.93012083e-02
0.00000000e+00 -4.84287590e-01 -2.09915966e-01 2.37189829e-02
0.00000000e+00 -1.28699765e-02 -2.78067499e-01 1.30107841e-02
0.00000000e+00 6.07042527e-03 -1.62023008e-01 8.67001712e-02
0.00000000e+00 4.23610630e-03 -1.33533746e-01 5.95471039e-02
0.00000000e+00 -9.97833721e-03 1.18235476e-01 -9.49301422e-02
0.00000000e+00 -6.65780297e-03 1.35263309e-01 -9.17685032e-02
0.00000000e+00 -3.60016711e-04 -2.01262012e-01 -3.07580782e-03
0.00000000e+00 -6.43613981e-03 1.44765437e-01 -6.36959374e-02
0.00000000e+00 2.83717667e-03 -1.69428796e-01 2.57781297e-02
0.00000000e+00 -1.70139391e-02 -3.14349562e-01 -5.16179949e-03
0.00000000e+00 -1.02152126e-02 1.10100798e-01 -9.07793045e-02
0.00000000e+00 8.80029574e-02 3.37926686e-01 2.16194335e-02
0.00000000e+00 3.74998129e-03 -1.46328971e-01 8.77764076e-02
0.00000000e+00 1.10633932e-02 -1.37506306e-01 1.33404970e-01
0.00000000e+00 8.40505958e-03 -1.51070416e-01 1.03469007e-01
0.00000000e+00 -2.75104819e-03 1.64622083e-01 -7.83630367e-03
0.00000000e+00 7.28366838e-04 1.57188624e-01 -4.62120660e-02
0.00000000e+00 4.11005598e-03 -1.62281811e-01 6.92668781e-02
0.00000000e+00 -7.43028382e-03 1.09527193e-01 -9.65223536e-02
0.00000000e+00 -7.92296231e-03 1.38196766e-01 -1.00064591e-01
0.00000000e+00 -5.39307389e-03 1.39904946e-01 -3.06043327e-02
0.00000000e+00 1.13363285e-03 -1.42893896e-01 4.32105884e-02
0.00000000e+00 1.60288699e-02 2.55839378e-01 2.13111639e-02
0.00000000e+00 -4.87447623e-03 1.74523801e-01 -6.15460053e-02
0.00000000e+00 5.44473017e-03 -1.55568331e-01 4.39790860e-02
0.00000000e+00 1.35164252e-02 -1.04986370e-01 8.44299421e-02
0.00000000e+00 1.28542557e-02 -1.44278139e-01 1.31749406e-01
0.00000000e+00 -6.35598041e-03 1.31667316e-01 -1.21463060e-01
0.00000000e+00 2.75908597e-03 -1.92989841e-01 8.66648629e-02
0.00000000e+00 6.83722645e-03 -1.72975644e-01 8.60367939e-02
0.00000000e+00 6.16829656e-03 -1.62889212e-01 4.46861833e-02
0.00000000e+00 -6.90627983e-03 1.69333547e-01 -4.19818871e-02
0.00000000e+00 -7.99886417e-03 1.57591537e-01 -5.21796905e-02
0.00000000e+00 5.00164169e-04 -1.98268786e-01 9.83365718e-03
0.00000000e+00 -3.34301312e-03 1.54968396e-01 -3.90180424e-02
0.00000000e+00 -1.46004709e-03 2.26411998e-01 -6.46478124e-03
0.00000000e+00 -1.47003504e-02 1.29739448e-01 -1.18499219e-01
0.00000000e+00 -4.11690632e-03 1.54199094e-01 -2.68655233e-02
0.00000000e+00 -1.02552911e-02 1.53132275e-01 -1.30827397e-01
0.00000000e+00 -1.25886872e-03 1.40149653e-01 -1.55322433e-01
0.00000000e+00 -2.80672242e-03 -3.52808237e-01 7.33541558e-03
0.00000000e+00 -6.00262405e-03 1.30588412e-01 -6.91652521e-02
0.00000000e+00 -7.27734948e-03 1.61831424e-01 -7.73079693e-02
0.00000000e+00 -4.92933486e-03 1.80290624e-01 -3.89660150e-02
0.00000000e+00 -9.76466388e-03 1.58292294e-01 -1.01160496e-01
0.00000000e+00 -9.05775186e-03 1.19752176e-01 -1.09036647e-01
0.00000000e+00 -5.04549593e-03 1.41712964e-01 -6.22153059e-02
0.00000000e+00 -1.19156353e-02 1.18305929e-01 -1.02540724e-01
0.00000000e+00 5.76961925e-03 -1.64269492e-01 9.03823897e-02
0.00000000e+00 -2.20820103e-02 -3.46954525e-01 1.64043084e-02
0.00000000e+00 6.14797790e-03 -1.25811160e-01 9.96440724e-02
0.00000000e+00 9.42083774e-04 -3.00418854e-01 2.61314102e-02
0.00000000e+00 7.67941307e-03 -1.32060647e-01 9.03231874e-02
0.00000000e+00 -5.44874044e-03 1.82080507e-01 -5.88898659e-02
0.00000000e+00 6.65036077e-03 -2.53240675e-01 -4.32584733e-02
0.00000000e+00 7.79532362e-03 -1.57358840e-01 1.00229934e-01
0.00000000e+00 2.80934433e-03 -1.52915776e-01 3.85616682e-02
0.00000000e+00 4.32178192e-03 -1.42283261e-01 6.97802156e-02
0.00000000e+00 -7.49411900e-03 1.69320032e-01 -7.87485614e-02
0.00000000e+00 -2.09100847e-03 -5.22949219e-01 2.09152810e-02
0.00000000e+00 -3.92475398e-03 1.79033950e-01 -4.57368530e-02
0.00000000e+00 9.92747676e-03 -1.21440731e-01 9.27491486e-02
0.00000000e+00 7.21709291e-03 -1.54241160e-01 9.36993062e-02
0.00000000e+00 -1.01420516e-02 1.34135842e-01 -8.84046778e-02
0.00000000e+00 -6.18852628e-03 1.70936137e-01 -5.18427566e-02
0.00000000e+00 4.92061069e-03 -1.52224258e-01 1.37271345e-01
0.00000000e+00 1.07800672e-02 -1.70431837e-01 1.04167014e-01
0.00000000e+00 3.77776362e-02 2.42680669e-01 3.39539163e-02
0.00000000e+00 8.64685047e-03 -1.55299127e-01 9.47536007e-02
0.00000000e+00 7.36753689e-03 -1.54810414e-01 9.99339819e-02
0.00000000e+00 2.64588118e-01 -2.21609578e-01 -4.30185348e-02
0.00000000e+00 -3.97882890e-03 1.58290952e-01 -5.97257428e-02
0.00000000e+00 -2.99970689e-03 1.63331911e-01 -3.58524434e-02
0.00000000e+00 6.23475155e-03 -1.31836861e-01 4.12745103e-02
0.00000000e+00 7.16015929e-03 -1.65837035e-01 6.25594333e-02
0.00000000e+00 -1.29872430e-02 1.06197536e-01 -7.93989450e-02
0.00000000e+00 -1.88222283e-03 2.70006776e-01 -1.31720304e-01
0.00000000e+00 -1.36509968e-03 -3.24156024e-02 1.36241698e+00
0.00000000e+00 6.50711684e-03 -1.53808430e-01 1.19715407e-01
0.00000000e+00 -1.07389865e-02 1.43699318e-01 -1.19409129e-01
0.00000000e+00 -4.47112368e-03 1.89502656e-01 -7.20556974e-02
0.00000000e+00 4.08559255e-02 3.89799505e-01 -2.41858121e-02
0.00000000e+00 -3.67320189e-03 1.47629306e-01 -3.93647626e-02
0.00000000e+00 7.69101316e-04 -2.09042013e-01 2.16162764e-02
0.00000000e+00 9.22111049e-03 -1.72938198e-01 4.42798361e-02
0.00000000e+00 4.95498907e-03 -1.54065803e-01 4.97223809e-02
0.00000000e+00 6.47962745e-03 -9.69563723e-02 8.70238990e-02
0.00000000e+00 -4.54193773e-03 1.15531035e-01 -8.36708769e-02
0.00000000e+00 -1.28985243e-02 1.63063616e-01 -8.75691772e-02
0.00000000e+00 9.46676824e-03 -1.35754123e-01 1.33830145e-01
0.00000000e+00 7.60579947e-04 1.92712396e-01 -3.87687050e-03
0.00000000e+00 1.49865607e-02 -1.15095980e-01 8.68274197e-02
0.00000000e+00 -1.50829945e-02 1.17805928e-01 -9.26899835e-02
0.00000000e+00 5.02596423e-03 -1.65892273e-01 4.30646539e-02
0.00000000e+00 2.38393014e-03 -1.86490059e-01 3.74054946e-02
0.00000000e+00 -1.37082781e-04 -1.94322020e-01 8.41316208e-03
0.00000000e+00 -7.12899771e-03 2.34912232e-01 -3.57419774e-02
0.00000000e+00 -7.35521503e-03 1.08688392e-01 -9.11680460e-02
0.00000000e+00 -1.94636104e-03 1.39364436e-01 -2.70959139e-02
0.00000000e+00 -7.33856810e-03 1.50903523e-01 -9.63683724e-02
0.00000000e+00 1.12408716e-02 -1.30898863e-01 1.14563480e-01
0.00000000e+00 -2.50824611e-04 2.11461738e-01 -5.78868873e-02
0.00000000e+00 1.26948981e-02 -1.26609221e-01 1.00552879e-01
0.00000000e+00 -1.96537171e-02 1.40802413e-01 -1.01054102e-01
0.00000000e+00 8.54276121e-04 5.30017436e-01 2.44902959e-03
0.00000000e+00 1.17730061e-02 -1.05548695e-01 8.82922262e-02
0.00000000e+00 2.22422760e-02 1.04638505e+00 -1.29937661e+00
0.00000000e+00 -2.17962191e-02 -2.96917707e-01 1.43339327e-02
0.00000000e+00 -1.88315995e-02 -2.65539706e-01 -2.66321041e-02
0.00000000e+00 -6.47435039e-02 -4.65663552e-01 -1.80942640e-02
0.00000000e+00 5.03704607e-01 9.52388868e-02 -4.11319472e-02
0.00000000e+00 1.21578528e-02 -1.41180947e-01 1.20209053e-01
0.00000000e+00 1.00421654e-02 1.94662601e-01 -1.27748340e-01
0.00000000e+00 2.58523166e-01 -3.40362824e-02 -2.64171690e-01
0.00000000e+00 2.89267991e-02 2.70412058e-01 2.08662660e-03
0.00000000e+00 -6.39049476e-03 1.54203624e-01 -1.50981143e-01
0.00000000e+00 1.87693890e-02 2.29193956e-01 3.17997835e-03
0.00000000e+00 -4.83675394e-03 3.96929793e-02 -6.13826036e-01
0.00000000e+00 -1.81435468e-03 1.87119961e-01 -1.50498068e-02
0.00000000e+00 6.27956819e-03 -1.33110538e-01 5.34119457e-02
0.00000000e+00 -1.39199914e-02 -8.72774888e-03 -4.58947271e-01
0.00000000e+00 2.02204864e-02 3.68519932e-01 5.55361016e-03
0.00000000e+00 -2.71769334e-03 1.80725470e-01 -2.86969636e-02
0.00000000e+00 -2.46869004e-05 2.05015659e-01 -9.19672661e-03
0.00000000e+00 2.25754213e-02 3.14558208e-01 2.72119325e-03
0.00000000e+00 3.96934245e-03 2.67291158e-01 7.13786809e-03
0.00000000e+00 9.81707498e-03 -1.70520738e-01 8.33448693e-02
0.00000000e+00 -5.23953512e-03 1.65122643e-01 -7.63059407e-02
0.00000000e+00 -5.00753801e-03 1.36454031e-01 -8.07021186e-02
0.00000000e+00 -6.80692121e-03 1.63670287e-01 -8.48056152e-02
0.00000000e+00 4.32501405e-01 -5.22268653e-01 3.24050374e-02
0.00000000e+00 -4.51637758e-03 1.31628186e-01 -5.78184091e-02
0.00000000e+00 -3.67885712e-03 1.41209707e-01 -4.19510268e-02
0.00000000e+00 -5.82192047e-03 1.20903984e-01 -8.50737318e-02
0.00000000e+00 2.52603274e-03 -1.71987370e-01 4.35528979e-02
0.00000000e+00 6.79537933e-03 -1.36132434e-01 9.46185067e-02
0.00000000e+00 -5.97223686e-03 1.67069182e-01 -6.26265332e-02
0.00000000e+00 5.03516709e-03 -1.39694452e-01 4.76777181e-02
0.00000000e+00 3.67355123e-02 2.04777345e-02 -1.20985918e-01
0.00000000e+00 -2.23692646e-03 -1.93773612e-01 2.72223093e-02
0.00000000e+00 -1.16805006e-02 -2.57052481e-01 -8.39435123e-03
0.00000000e+00 -4.72470466e-03 1.84147745e-01 1.28827989e-02
0.00000000e+00 2.52177636e-03 -1.62273407e-01 1.62612349e-02
0.00000000e+00 9.42737702e-03 -1.30529538e-01 8.09485465e-02
0.00000000e+00 -8.94621294e-03 1.38062373e-01 -7.52586126e-02
0.00000000e+00 -9.33488540e-04 1.79705694e-01 -1.22771719e-02
0.00000000e+00 -6.28628070e-03 1.30475730e-01 -9.81799215e-02
0.00000000e+00 -1.35377925e-02 -3.74561697e-01 6.68180129e-03
0.00000000e+00 1.59288179e-02 -1.42647475e-01 1.13038868e-01
0.00000000e+00 1.19212326e-02 -1.18632451e-01 9.14870054e-02
0.00000000e+00 1.90592613e-02 3.50087523e-01 1.23267155e-03
0.00000000e+00 -1.04468428e-02 1.59368753e-01 -1.31072655e-01
0.00000000e+00 1.82641260e-02 3.76707345e-01 -3.96662718e-03
0.00000000e+00 5.62935788e-03 -1.60577491e-01 5.87359108e-02
0.00000000e+00 -9.94416978e-03 1.67995378e-01 -7.32469782e-02
0.00000000e+00 2.48072116e-04 -1.89871788e-01 -1.11101312e-04
0.00000000e+00 -4.87043848e-03 1.09915234e-01 -1.04120336e-01
0.00000000e+00 1.06364796e-02 -1.43282115e-01 1.29017755e-01
0.00000000e+00 1.05945197e-04 9.63726044e-02 -1.08992264e-01
0.00000000e+00 8.49705469e-03 -1.52410090e-01 1.27341345e-01
0.00000000e+00 1.23131424e-02 -1.26372665e-01 1.21785082e-01
0.00000000e+00 -1.50673725e-02 -3.07731301e-01 -7.15349764e-02
0.00000000e+00 6.71923067e-03 -1.32679150e-01 3.73177417e-02
0.00000000e+00 9.01757565e-04 2.07460195e-01 1.57093781e-03
0.00000000e+00 9.07020271e-03 3.97821128e-01 -1.37753319e-02
0.00000000e+00 2.43515358e-03 -1.52048752e-01 3.75971384e-02
0.00000000e+00 4.81037423e-03 2.04671681e-01 2.65031606e-01
0.00000000e+00 -4.83181188e-03 1.52233258e-01 -5.27166650e-02
0.00000000e+00 -1.14122145e-02 1.36822760e-01 -1.09459177e-01
0.00000000e+00 1.20638190e-02 -1.70972332e-01 1.29810363e-01
0.00000000e+00 -9.90351103e-03 1.14229649e-01 -8.45560730e-02
0.00000000e+00 -1.22218151e-02 1.20778017e-01 -1.01959914e-01
0.00000000e+00 -1.07277483e-02 3.37874562e-01 -1.02457954e-02
0.00000000e+00 1.14709488e-03 -1.61608174e-01 3.15434709e-02
0.00000000e+00 5.41413808e-03 -1.41098127e-01 3.74897495e-02
0.00000000e+00 -4.30385303e-03 2.27089718e-01 -2.06010621e-02
0.00000000e+00 -1.87238336e-01 3.64813916e-02 1.91597551e-01
0.00000000e+00 5.84505824e-03 -1.16437331e-01 9.15620178e-02
0.00000000e+00 -5.27746603e-03 2.24239856e-01 -1.67724844e-02
0.00000000e+00 -5.78003330e-03 1.59824759e-01 -7.98125342e-02
0.00000000e+00 -7.19178049e-03 2.80828655e-01 2.57077720e-03
0.00000000e+00 -5.84154623e-03 1.38516575e-01 -5.78603931e-02
0.00000000e+00 3.66285513e-03 -1.36151791e-01 6.52733594e-02
0.00000000e+00 1.42696295e-02 -1.09574184e-01 8.31886008e-02
0.00000000e+00 -1.14207587e-03 -2.61956930e-01 2.93459394e-03
0.00000000e+00 3.11790197e-03 1.95811331e-01 -4.70057782e-03
0.00000000e+00 1.14596477e-02 -1.42090842e-01 9.33044031e-02
0.00000000e+00 1.32805388e-02 3.81110340e-01 -4.18359321e-03
0.00000000e+00 -2.38005654e-03 1.73725232e-01 -2.18237806e-02
0.00000000e+00 -7.70652878e-06 2.36223310e-01 -3.53264064e-02
0.00000000e+00 4.92530391e-02 1.03035390e-01 1.21732700e+00
0.00000000e+00 1.12728970e-02 -1.57133564e-01 9.13933814e-02
0.00000000e+00 1.51278777e-02 2.92021066e-01 -6.57211663e-03
0.00000000e+00 1.00800041e-02 -1.33638039e-01 1.30543828e-01
0.00000000e+00 6.26407505e-04 -1.85658589e-01 1.64594017e-02
0.00000000e+00 -6.46936416e-04 2.02662021e-01 -2.13093162e-02
0.00000000e+00 -1.86360150e-04 -1.86208129e-01 3.28972377e-02
0.00000000e+00 -1.02806268e-02 1.56362131e-01 -1.00493588e-01
0.00000000e+00 2.59755622e-03 1.85136780e-01 5.52889099e-03
0.00000000e+00 -3.36152390e-02 -2.62468338e-01 2.60814846e-01
0.00000000e+00 1.46256164e-02 -1.13123342e-01 8.56925175e-02
0.00000000e+00 -3.15041794e-03 1.55378863e-01 -2.85495780e-02
0.00000000e+00 7.20750540e-03 1.41502041e-02 -3.55143338e-01
0.00000000e+00 -5.11221308e-03 1.43011123e-01 -3.66603024e-02
0.00000000e+00 3.54050333e-03 -1.71364889e-01 4.20402847e-02
0.00000000e+00 -8.84122774e-03 1.24693312e-01 -8.55158269e-02
0.00000000e+00 -6.43329136e-03 1.13116555e-01 -9.18481573e-02
0.00000000e+00 -7.02521484e-03 1.75667942e-01 -3.55066024e-02
0.00000000e+00 -7.84256146e-04 -8.42334852e-02 9.58855916e-03
0.00000000e+00 7.99826346e-03 -1.39710799e-01 7.79661611e-02
0.00000000e+00 3.37219494e-03 -1.53049752e-01 4.85123992e-02
0.00000000e+00 -4.76649357e-03 1.48812816e-01 -4.88535538e-02
0.00000000e+00 -4.16853605e-03 1.85934529e-01 -2.06484310e-02
0.00000000e+00 1.02686593e-02 -1.67092443e-01 1.13004662e-01
0.00000000e+00 1.36000393e-02 -2.47321963e-01 -3.67990299e-03
0.00000000e+00 6.19797874e-03 -1.15075268e-01 9.12008286e-02
0.00000000e+00 6.27110433e-03 -1.60679698e-01 5.48312142e-02
0.00000000e+00 9.14943404e-03 -1.09546788e-01 9.33455303e-02
0.00000000e+00 -3.42173548e-03 1.24371879e-01 -9.49362367e-02
0.00000000e+00 6.41792873e-03 -1.43163428e-01 4.51304130e-02
0.00000000e+00 -4.44524642e-03 1.60137534e-01 -8.04961398e-02
0.00000000e+00 2.86264275e-03 -1.27161190e-01 1.45159915e-01
0.00000000e+00 -1.07942838e-02 1.11901820e-01 -9.13727805e-02
0.00000000e+00 -3.33841564e-03 1.53571159e-01 -2.48402376e-02
0.00000000e+00 6.06010808e-03 -1.16705790e-01 8.30265582e-02
0.00000000e+00 -9.97401476e-02 3.53865147e-01 2.78467357e-01
0.00000000e+00 1.03651304e-02 -1.05823182e-01 7.36077502e-02
0.00000000e+00 8.26955773e-03 -1.22608773e-01 9.27101970e-02
0.00000000e+00 6.07821252e-03 -1.64119571e-01 7.08342344e-02
0.00000000e+00 -7.03793811e-03 1.64796904e-01 -8.85540619e-02
0.00000000e+00 1.06363567e-02 -1.26798555e-01 1.08668245e-01
0.00000000e+00 -1.02122761e-02 -2.52682269e-01 3.03900111e-02
0.00000000e+00 -9.85492580e-03 1.35402903e-01 -1.19757630e-01
0.00000000e+00 1.64247456e-03 -1.57831539e-03 8.06897879e-01
0.00000000e+00 -1.28487719e-03 2.00011536e-01 -3.54210916e-03
0.00000000e+00 7.32755242e-03 -1.40979365e-01 7.47429132e-02
0.00000000e+00 -5.80870034e-03 -5.28980903e-02 3.91920745e-01
0.00000000e+00 -1.22656319e-02 1.14257574e-01 -9.99543741e-02
0.00000000e+00 6.37776824e-03 -1.52992696e-01 1.01522788e-01
0.00000000e+00 4.89385845e-03 -1.67050272e-01 2.50233244e-02
0.00000000e+00 1.10378722e-02 -1.29240856e-01 8.87111276e-02
0.00000000e+00 6.23061089e-03 -1.52838930e-01 5.39317541e-02
0.00000000e+00 -7.43876351e-03 1.30447924e-01 -6.28913119e-02
0.00000000e+00 -6.92974031e-03 1.01176657e-01 -1.00712396e-01
0.00000000e+00 -5.83263161e-03 1.29386157e-01 -6.89644292e-02
0.00000000e+00 -1.47408759e-02 9.15410146e-02 -6.74716085e-02
0.00000000e+00 -5.35667734e-03 1.63852125e-01 -7.57894889e-02
0.00000000e+00 4.50763945e-03 1.70912221e-01 5.84096089e-03
0.00000000e+00 9.00032744e-03 -1.30486771e-01 1.32055908e-01
0.00000000e+00 -1.74346380e-02 1.33080065e-01 -1.24183074e-01
0.00000000e+00 -7.25757936e-03 1.57587945e-01 -1.27386048e-01
0.00000000e+00 -5.02416864e-04 2.08446622e-01 -2.03455582e-01
0.00000000e+00 1.62525233e-02 3.31118494e-01 -8.07115901e-03
0.00000000e+00 9.00030136e-03 -1.22530326e-01 1.07668959e-01
0.00000000e+00 -2.49989214e-04 -5.34192380e-03 -2.53719687e-01
0.00000000e+00 -4.72272717e-04 -9.06928033e-02 -7.22425133e-02
0.00000000e+00 -1.20078837e-02 1.28855929e-01 -1.11774728e-01
0.00000000e+00 -9.63622238e-03 1.67201474e-01 -9.86255854e-02
0.00000000e+00 -5.68487681e-03 1.65897116e-01 -4.41745147e-02
0.00000000e+00 -7.27700070e-03 -3.56102675e-01 -1.97893642e-02
0.00000000e+00 8.00173543e-03 -1.43375233e-01 9.98304859e-02
0.00000000e+00 1.99694503e-02 -1.14290282e-01 8.72667655e-02
0.00000000e+00 2.90493015e-03 -7.00464286e-03 2.40412548e-01
0.00000000e+00 -1.34009654e-02 1.32735148e-01 -1.19457312e-01
0.00000000e+00 -2.50561419e-03 1.69878706e-01 -4.96334806e-02
0.00000000e+00 4.55181580e-03 1.73931599e-01 -2.34611128e-02
0.00000000e+00 8.07745557e-04 -1.80716261e-01 1.00478661e-04
0.00000000e+00 8.90881475e-03 -1.36900187e-01 1.37037650e-01
0.00000000e+00 8.18657689e-03 -1.87800527e-01 5.78797907e-02
0.00000000e+00 -1.53804114e-02 -2.34702989e-01 3.25447358e-02
0.00000000e+00 -5.91558451e-03 1.42615065e-01 -6.47363141e-02
0.00000000e+00 6.92320231e-04 1.78092360e-01 -1.56649854e-02
0.00000000e+00 6.65128743e-03 -1.52659565e-01 7.57665932e-02
0.00000000e+00 6.34042313e-03 -1.09612264e-01 1.10161386e-01
0.00000000e+00 2.36241017e-02 3.69245619e-01 4.01206873e-03
0.00000000e+00 -9.06402897e-03 1.37966141e-01 -1.31645933e-01
0.00000000e+00 -4.93699266e-03 1.62472010e-01 -5.06776273e-02
0.00000000e+00 1.34161822e-02 1.66569818e-02 -2.67582893e-01
0.00000000e+00 1.27792044e-03 -2.02127665e-01 9.68805514e-03
0.00000000e+00 3.82900704e-03 -1.76837295e-01 4.92257550e-02
0.00000000e+00 -1.27103215e-03 -1.59588724e-01 4.54218909e-02
0.00000000e+00 -2.56085000e-03 -2.75829285e-01 -2.48322133e-02
0.00000000e+00 4.97751636e-03 -1.37708023e-01 5.83486259e-02
0.00000000e+00 -3.82341683e-01 -6.23546779e-01 -6.22172594e-01
0.00000000e+00 1.43187931e-02 -1.10486493e-01 8.71922672e-02
0.00000000e+00 -1.09101064e-03 -2.31815264e-01 -1.25077609e-02
0.00000000e+00 -7.36453058e-03 2.08001733e-01 -1.98491123e-02
0.00000000e+00 -8.55255127e-03 1.18756339e-01 -8.92688408e-02
0.00000000e+00 -7.14815315e-03 1.65305600e-01 -7.18170106e-02
0.00000000e+00 -6.63999096e-03 1.43823743e-01 -4.88983691e-02
0.00000000e+00 3.31067876e-03 -1.47708789e-01 8.82402584e-02
0.00000000e+00 6.46701595e-03 -1.54558912e-01 8.54782760e-02
0.00000000e+00 -1.94518582e-03 1.90772399e-01 -1.50951408e-02
0.00000000e+00 3.41297798e-02 -1.58718690e-01 -3.26606035e-02
0.00000000e+00 5.50151570e-03 -3.98364723e-01 1.51740750e-02
0.00000000e+00 3.11370735e-04 -1.21291943e-01 1.39434934e-01
0.00000000e+00 -7.05244718e-03 1.29410073e-01 -9.61448401e-02
0.00000000e+00 -1.78455859e-02 -2.64676571e-01 2.78273248e-03
0.00000000e+00 3.72415362e-03 -1.82517707e-01 1.64715238e-02
0.00000000e+00 -5.94380544e-03 1.65396512e-01 -5.60223907e-02
0.00000000e+00 6.94235507e-03 -1.40901491e-01 8.95383880e-02
0.00000000e+00 4.84688580e-03 4.34983730e-01 2.35091858e-02
0.00000000e+00 -9.62094218e-03 1.00736663e-01 -7.90409222e-02
0.00000000e+00 -5.50037017e-03 1.43967837e-01 -7.45423287e-02
0.00000000e+00 1.30367614e-02 -1.60650894e-01 1.04688607e-01
0.00000000e+00 -6.89427182e-03 1.51536882e-01 -7.05113485e-02
0.00000000e+00 -5.27269393e-03 1.42782763e-01 -6.81998804e-02
0.00000000e+00 -6.54254761e-03 1.56468570e-01 -8.96572396e-02
0.00000000e+00 -2.51094392e-03 1.22799940e-01 -1.04569361e-01
0.00000000e+00 1.30607458e-02 3.71703804e-01 1.17605720e-02
0.00000000e+00 -3.49184722e-02 -3.61923695e-01 -1.03742909e+00
0.00000000e+00 -1.07427258e-02 1.35029480e-01 -9.69156325e-02
0.00000000e+00 -1.94215565e-03 1.77144140e-01 -1.96276214e-02
0.00000000e+00 2.11959239e-03 1.94900542e-01 3.84127791e-03
0.00000000e+00 3.76846176e-03 -1.32088080e-01 5.89132868e-02
0.00000000e+00 5.66458935e-03 -1.44978285e-01 6.06215633e-02
0.00000000e+00 1.72567205e-03 1.79021373e-01 -1.57331824e-02
0.00000000e+00 -4.02797712e-03 1.76122352e-01 -3.38482521e-02
0.00000000e+00 -8.00948497e-03 1.24332882e-01 -1.17474340e-01
0.00000000e+00 6.63346471e-03 3.62992108e-01 -4.37768809e-02
0.00000000e+00 1.34569490e-02 3.30239683e-01 1.45210223e-02
0.00000000e+00 -1.04925130e-02 1.29171833e-01 -1.16106488e-01
0.00000000e+00 1.34358034e-02 -1.31388962e-01 1.17396437e-01
0.00000000e+00 3.26181427e-02 4.02696431e-01 -4.29840386e-01
0.00000000e+00 -2.84863752e-03 -1.94828779e-01 6.92546321e-03
0.00000000e+00 2.50730384e-03 -1.71657637e-01 3.48493755e-02
0.00000000e+00 1.90583281e-02 -1.38267919e-01 1.02475956e-01
0.00000000e+00 4.21629800e-03 -1.83506459e-01 5.87492995e-02
0.00000000e+00 5.35041234e-03 -1.86863244e-01 1.22522935e-02
0.00000000e+00 4.21689823e-03 -1.77353635e-01 4.93152738e-02
0.00000000e+00 3.48363159e-04 1.94930092e-01 -8.04085582e-02
0.00000000e+00 -7.26004178e-03 1.25511304e-01 -1.16394855e-01
0.00000000e+00 -1.42443134e-02 1.38323173e-01 -1.21598855e-01
0.00000000e+00 -4.77244612e-03 2.19218865e-01 -5.50281107e-02
0.00000000e+00 3.89116304e-03 -1.02974594e-01 1.02396026e-01
0.00000000e+00 -3.25319320e-02 -3.95173460e-01 1.24829458e-02
0.00000000e+00 4.39098570e-03 -1.80339977e-01 5.22029661e-02
0.00000000e+00 -7.10100960e-03 1.81848526e-01 -8.06121975e-02
0.00000000e+00 -1.09546212e-02 1.21405758e-01 -1.05645992e-01
0.00000000e+00 -9.21333954e-03 1.26611248e-01 -1.07113190e-01
0.00000000e+00 -1.10863883e-03 1.73767507e-01 -1.28663909e-02
0.00000000e+00 1.12277847e-02 -1.17960729e-01 9.05760229e-02
0.00000000e+00 -1.09729031e-02 1.19089976e-01 -1.05321378e-01
0.00000000e+00 -1.10617820e-02 -3.13407928e-02 4.00944591e-01
0.00000000e+00 -5.50774485e-03 1.31868035e-01 -8.15247670e-02
0.00000000e+00 -1.82187057e-03 -7.08125252e-03 -3.02341819e-01
0.00000000e+00 -6.11114781e-03 1.36974260e-01 -1.08283408e-01
0.00000000e+00 1.04001574e-02 -1.28947228e-01 9.64380503e-02
0.00000000e+00 -6.48334203e-03 -2.37367630e-01 2.33994890e-03
0.00000000e+00 4.57090046e-03 2.24910572e-01 2.33506151e-02
0.00000000e+00 9.74003412e-03 -1.53206706e-01 1.14752650e-01
0.00000000e+00 -7.48321973e-03 1.15962796e-01 -8.60954821e-02
0.00000000e+00 -4.71490808e-03 1.11875847e-01 -9.05730203e-02
0.00000000e+00 -2.84397174e-02 2.62198150e-01 2.52908505e-02
0.00000000e+00 8.33879167e-05 1.50645092e-01 -4.39070612e-02
0.00000000e+00 -7.23351818e-03 1.40979394e-01 -1.30329385e-01
0.00000000e+00 -1.14700008e-04 2.01952890e-01 -1.86801888e-02
0.00000000e+00 2.15342343e-02 2.31594399e-01 2.33555154e-04
0.00000000e+00 -6.24807039e-03 1.67305008e-01 -2.89949197e-02
0.00000000e+00 -5.99353760e-03 1.77320883e-01 -4.63050976e-02
0.00000000e+00 9.57218814e-04 6.83540246e-03 3.07040513e-01
0.00000000e+00 -7.07440916e-03 1.51552111e-01 -1.23645946e-01
0.00000000e+00 -1.37147270e-02 1.52386397e-01 -1.43709570e-01
0.00000000e+00 -9.24426876e-03 1.66458383e-01 -1.05093509e-01
0.00000000e+00 -6.04650518e-03 1.48732349e-01 -4.36416455e-02
0.00000000e+00 -9.97225102e-03 1.34448647e-01 -1.33092910e-01
0.00000000e+00 -2.38247594e-05 -2.11292297e-01 3.55118862e-03
0.00000000e+00 -2.04893411e-03 -1.92924425e-01 1.56977642e-02
0.00000000e+00 -4.65472229e-03 1.62055075e-01 -5.73997721e-02
0.00000000e+00 -1.04028890e-02 1.34814426e-01 -1.14738807e-01
0.00000000e+00 6.46036491e-03 -1.28928050e-01 1.26474455e-01
0.00000000e+00 -2.07161903e-03 1.39217809e-01 -5.43978475e-02
0.00000000e+00 -3.77477007e-03 1.44798040e-01 -4.72243279e-02
0.00000000e+00 -1.39996372e-02 1.45568430e-01 -1.10639758e-01
0.00000000e+00 6.63084025e-03 -1.23436399e-01 8.93243924e-02
0.00000000e+00 -2.79420870e-03 -2.04936311e-01 1.42812487e-02
0.00000000e+00 -6.46380987e-03 1.21698909e-01 -7.73195103e-02
0.00000000e+00 3.91552923e-03 -1.48158252e-01 6.03611805e-02
0.00000000e+00 2.29851175e-02 4.20580298e-01 1.57246608e-02
0.00000000e+00 1.56566557e-02 8.34785104e-01 2.76328146e-01
0.00000000e+00 -1.64374877e-02 1.48100555e-01 -1.21781185e-01
0.00000000e+00 -1.52705023e-02 1.50181651e-01 -1.14996932e-01
0.00000000e+00 -3.40817240e-03 -2.06185311e-01 -6.64310902e-02
0.00000000e+00 4.67311824e-03 -1.39934346e-01 4.96690422e-02
0.00000000e+00 4.20013592e-02 2.53538787e-01 -4.93765064e-02
0.00000000e+00 -5.51091786e-03 1.81636125e-01 -5.06809242e-02
0.00000000e+00 -3.72249424e-03 2.07438037e-01 -2.00048578e-03
0.00000000e+00 -4.46956791e-03 1.38556570e-01 -4.88389656e-02
0.00000000e+00 -9.47105978e-03 1.25354156e-01 -1.13063395e-01
0.00000000e+00 -1.61918066e-02 1.27572566e-01 -1.00978114e-01
0.00000000e+00 4.60732868e-03 -1.38997063e-01 6.59723058e-02
0.00000000e+00 1.23645691e-02 -1.36565387e-01 9.85532776e-02
0.00000000e+00 1.35598425e-02 -1.15898065e-01 9.04981941e-02
0.00000000e+00 9.09109879e-03 -1.20353147e-01 8.46479386e-02
0.00000000e+00 -3.41517897e-03 1.59861222e-01 -7.23354071e-02
0.00000000e+00 -3.99086811e-03 -1.90090641e-01 2.53297179e-03
0.00000000e+00 1.54839400e-02 -1.14965156e-01 9.64335278e-02
0.00000000e+00 -4.85737761e-03 2.87837535e-01 -3.91628556e-02
0.00000000e+00 -1.37527259e-02 1.38710514e-01 -1.24386169e-01
0.00000000e+00 -9.65822022e-03 1.12317160e-01 -9.56828371e-02
0.00000000e+00 -8.26275535e-03 1.73681617e-01 -4.25113142e-02
0.00000000e+00 -9.91836265e-02 -4.93616879e-01 3.46766382e-01
0.00000000e+00 4.04329784e-02 -3.50627005e-01 -3.07985414e-02
0.00000000e+00 2.38918699e-03 2.04490244e-01 -3.35969264e-03
0.00000000e+00 2.82762968e-03 -1.26528352e-01 4.61654775e-02
0.00000000e+00 1.66961923e-02 3.35433304e-01 1.27736516e-02
0.00000000e+00 -6.67340262e-03 -2.39562750e-01 3.29255126e-03
0.00000000e+00 1.81169417e-02 2.72968918e-01 3.42171229e-02
0.00000000e+00 2.14942545e-03 1.99425459e-01 -9.99396550e-04
0.00000000e+00 -7.81212654e-03 1.33017197e-01 -7.57891610e-02
0.00000000e+00 -1.89165201e-03 -2.24720731e-01 1.55643141e-02
0.00000000e+00 -3.54991630e-02 -3.53314996e-01 -4.66355123e-02
0.00000000e+00 8.03716294e-03 3.95296186e-01 -2.00580712e-02
0.00000000e+00 1.27887987e-02 -1.30855128e-01 1.17990285e-01
0.00000000e+00 3.78886797e-03 -1.70478895e-01 3.48376147e-02
0.00000000e+00 2.22521322e-03 -2.58599401e-01 2.87468894e-03
0.00000000e+00 6.87497808e-03 -1.67338833e-01 1.00870384e-02
0.00000000e+00 4.91945975e-05 -1.55480549e-01 3.16255614e-02
0.00000000e+00 1.08717317e-02 -1.35248706e-01 1.16626821e-01
0.00000000e+00 5.72834350e-02 -9.38636541e-01 -1.05409157e+00
0.00000000e+00 -5.62705100e-03 1.63302481e-01 -7.81466663e-02
0.00000000e+00 -4.51342901e-04 1.35563284e-01 -2.98743676e-02
0.00000000e+00 1.19037833e-02 -1.19260930e-01 9.52339843e-02
0.00000000e+00 -1.14308009e-02 1.51804283e-01 -1.38403878e-01
0.00000000e+00 3.34758637e-03 -1.87515527e-01 5.05358018e-02
0.00000000e+00 4.80382377e-03 1.40731245e-01 -1.45616516e-01
0.00000000e+00 7.72045692e-03 -1.62815347e-01 9.51490104e-02
0.00000000e+00 2.53005861e-03 -1.48394972e-01 4.72168401e-02
0.00000000e+00 8.06260854e-04 1.72163844e-01 -5.50168054e-03
0.00000000e+00 1.64759960e-02 -1.15481377e-01 9.24169123e-02
0.00000000e+00 5.86589007e-03 -2.17008889e-01 3.36955227e-02
0.00000000e+00 -3.37864202e-03 1.75731435e-01 -3.04505564e-02
0.00000000e+00 7.20445300e-03 -1.42792761e-01 7.37353936e-02
0.00000000e+00 -8.08619661e-04 2.07608864e-01 -2.56856158e-02
0.00000000e+00 8.70200526e-03 -1.45417526e-01 1.16515584e-01
0.00000000e+00 8.32282763e-04 -2.16427252e-01 -8.62900354e-03
0.00000000e+00 8.29570740e-03 -1.58052921e-01 7.31985196e-02
0.00000000e+00 1.37496646e-02 -1.33668751e-01 1.12736754e-01
0.00000000e+00 -5.09437127e-03 1.71575636e-01 -5.19653223e-02
0.00000000e+00 -1.85654615e-03 -1.72250360e-01 2.53861994e-02
0.00000000e+00 -3.33039416e-03 1.56978950e-01 -2.42711753e-02
0.00000000e+00 -3.01001186e-04 -2.03221366e-01 1.65870935e-02
0.00000000e+00 5.92006929e-03 -1.27716884e-01 8.12855214e-02
0.00000000e+00 -2.35773265e-01 -6.52363718e-01 -2.20094964e-01
0.00000000e+00 -3.89978872e-03 1.72973335e-01 -4.91007492e-02
0.00000000e+00 8.21244065e-03 -1.60308167e-01 7.63283223e-02
0.00000000e+00 1.17727984e-02 -1.50533110e-01 1.21257901e-01
0.00000000e+00 1.21305184e-02 -1.95458606e-01 9.59742889e-02
0.00000000e+00 1.35814743e-02 -1.30637646e-01 1.15386128e-01
0.00000000e+00 -9.30547062e-03 1.37822688e-01 -8.50189328e-02
0.00000000e+00 -9.43968073e-03 1.11650415e-01 -9.45780054e-02
0.00000000e+00 2.33234718e-01 -9.29637328e-02 -3.67206940e-03
0.00000000e+00 1.89806800e-04 4.38606255e-02 5.69537520e-01
0.00000000e+00 -9.99524631e-03 1.45057589e-01 -1.33137152e-01
0.00000000e+00 -6.44866563e-03 1.30715445e-01 -5.84296994e-02
0.00000000e+00 1.43264439e-02 -1.21954843e-01 1.01954773e-01
0.00000000e+00 -1.71744764e-01 2.17110485e-01 -5.47769573e-03
0.00000000e+00 -1.58286542e-02 1.45825401e-01 -1.26961961e-01
0.00000000e+00 -1.33133419e-02 1.27238095e-01 -1.18973322e-01
0.00000000e+00 -2.14606281e-02 -3.52451026e-01 1.96793489e-02
0.00000000e+00 -3.02878059e-02 -2.70406932e-01 -1.02397576e-02
0.00000000e+00 7.35155307e-03 -1.38511553e-01 1.08259007e-01
0.00000000e+00 1.24037731e-02 -1.43149748e-01 9.96273085e-02
0.00000000e+00 -1.28822140e-02 1.39201686e-01 -1.10301964e-01
0.00000000e+00 1.28505600e-03 1.92584932e-01 -1.19237835e-03
0.00000000e+00 1.09831868e-02 -1.15731828e-01 8.51523355e-02
0.00000000e+00 4.80143074e-03 -1.52056783e-01 2.73920670e-02
0.00000000e+00 -1.65104698e-02 -3.09818357e-01 1.84123870e-02
0.00000000e+00 -3.18335108e-02 -3.29899013e-01 -1.06580006e-02
0.00000000e+00 -6.11983007e-03 1.84006423e-01 -5.08739874e-02
0.00000000e+00 -7.48709496e-03 1.15240388e-01 -1.00900821e-01
0.00000000e+00 9.94724222e-03 -1.39862880e-01 1.01190142e-01
0.00000000e+00 -5.91197424e-03 1.48634985e-01 -3.88226062e-02
0.00000000e+00 -4.54291375e-03 1.57171234e-01 -6.21147081e-02
0.00000000e+00 -1.09362919e-02 1.56612635e-01 -1.15578726e-01
0.00000000e+00 -2.90858950e-02 -2.86445260e-01 2.45741308e-02
0.00000000e+00 1.29173184e-03 -1.55994788e-01 5.12759909e-02
0.00000000e+00 5.37425978e-03 -1.42229736e-01 4.65053096e-02
0.00000000e+00 -1.37730017e-02 1.38964906e-01 -1.05749153e-01
0.00000000e+00 -9.24897101e-03 1.35739833e-01 -1.23795584e-01
0.00000000e+00 3.16320732e-03 -1.33840188e-01 4.35480773e-02
0.00000000e+00 4.98724636e-03 -1.81881696e-01 6.71367720e-02
0.00000000e+00 7.05808494e-03 -1.09823465e-01 9.69106331e-02
0.00000000e+00 1.47143370e-02 -1.14897937e-01 1.02460802e-01
0.00000000e+00 -3.85883357e-03 1.72961384e-01 -4.32880782e-02
0.00000000e+00 4.26373538e-03 1.48626445e-02 3.73591334e-01
0.00000000e+00 -7.14281201e-03 1.28933668e-01 -9.47395265e-02
0.00000000e+00 -9.12399963e-03 1.16334438e-01 -9.98653099e-02
0.00000000e+00 8.40135012e-03 -1.72528267e-01 5.74665330e-02
0.00000000e+00 -3.52024194e-03 1.56101301e-01 -2.18534041e-02
0.00000000e+00 -4.09050379e-03 1.35099649e-01 -6.79996014e-02
0.00000000e+00 -5.36869047e-03 1.50105819e-01 -3.17089371e-02
0.00000000e+00 9.58946347e-03 3.31970513e-01 -1.59929153e-02
0.00000000e+00 -7.16173672e-04 1.54159859e-01 1.03239976e-01
0.00000000e+00 -3.82877071e-03 1.30391508e-01 -5.87782077e-02
0.00000000e+00 -7.40490202e-03 1.39016271e-01 -9.62793306e-02
0.00000000e+00 -1.23692648e-02 2.04811692e-01 -1.61176268e-03
0.00000000e+00 3.66541464e-03 2.09808290e-01 -2.76610032e-02
0.00000000e+00 -1.20358262e-03 1.59570917e-01 -2.67523415e-02
0.00000000e+00 2.89633800e-03 -1.69488102e-01 4.57649119e-02
0.00000000e+00 3.69431393e-04 -1.70200482e-01 -1.63479410e-02
0.00000000e+00 6.70604454e-03 -1.04383253e-01 8.64046216e-02
0.00000000e+00 3.38849388e-02 4.45896462e-02 -5.37712686e-02
0.00000000e+00 5.95239224e-03 -1.35175690e-01 1.37269676e-01
0.00000000e+00 -1.24764889e-02 1.20242998e-01 -9.20102671e-02
0.00000000e+00 -5.43973991e-04 -2.69735605e-01 9.31313634e-03
0.00000000e+00 -3.50924022e-03 1.28522202e-01 -8.08799714e-02
0.00000000e+00 1.88102820e-06 -1.89587653e-01 1.98940951e-02
0.00000000e+00 -1.21009517e-02 -2.80607194e-01 1.91704221e-02
0.00000000e+00 -1.51798560e-03 1.84093952e-01 -1.13703525e-02
0.00000000e+00 -2.54166517e-02 -3.10872465e-01 -1.53286820e-02
0.00000000e+00 8.88192153e-04 6.42600209e-02 -7.17467512e-04
0.00000000e+00 -2.06111767e-03 2.83606425e-02 8.08744788e-01
0.00000000e+00 -5.96206868e-03 1.65618092e-01 -7.16103911e-02
0.00000000e+00 1.30962664e-02 -1.40041649e-01 1.12934105e-01
0.00000000e+00 -1.05254841e-03 -1.53087662e-03 -3.23177725e-01
0.00000000e+00 2.57086921e-02 1.08692922e-01 -2.85109311e-01
0.00000000e+00 1.35083180e-02 -1.11550942e-01 8.59337151e-02
0.00000000e+00 -7.55106146e-03 1.32856220e-01 -9.40252766e-02
0.00000000e+00 1.14842243e-02 -1.29155189e-01 1.12765349e-01
0.00000000e+00 -5.97570557e-04 1.87915489e-01 -1.24597335e-02
0.00000000e+00 4.24172217e-03 2.18880817e-01 -1.45506915e-02
0.00000000e+00 -1.47687073e-03 -1.63919881e-01 1.65036991e-02
0.00000000e+00 5.96567383e-03 -1.71129555e-01 7.11401552e-02
0.00000000e+00 1.84549100e-03 1.90104350e-01 8.83955508e-04
0.00000000e+00 -4.43950994e-03 1.47665694e-01 -5.77573404e-02
0.00000000e+00 -5.01840701e-03 -2.02353776e-01 2.04089195e-01
0.00000000e+00 -8.25317763e-03 1.83057725e-01 -7.38434047e-02
0.00000000e+00 -5.13005164e-03 1.43609941e-01 -3.73973511e-02
0.00000000e+00 1.69344302e-02 -3.43147397e-01 2.87326556e-02
0.00000000e+00 -2.84973276e-03 2.04985827e-01 -6.97571877e-03
0.00000000e+00 1.33310379e-02 -1.09696232e-01 9.99734178e-02
0.00000000e+00 -1.11684725e-02 1.63746685e-01 -1.30055338e-01
0.00000000e+00 1.92886463e-03 -2.68197745e-01 1.53955752e-02
0.00000000e+00 7.72545254e-03 -1.70127898e-01 5.02318405e-02
0.00000000e+00 7.57117011e-03 -1.52366057e-01 7.29237199e-02
0.00000000e+00 -1.22923311e-02 1.98493600e-01 -4.13414054e-02
0.00000000e+00 -7.58090231e-04 1.85811162e-01 -1.34892557e-02
0.00000000e+00 7.47235725e-03 -1.39787987e-01 1.01937994e-01
0.00000000e+00 -1.29560791e-02 -3.27125996e-01 5.15175657e-03
0.00000000e+00 -3.15452321e-03 1.50643781e-01 -4.77360822e-02
0.00000000e+00 -1.19253797e-02 1.13891795e-01 -9.48612466e-02
0.00000000e+00 -4.70043439e-03 1.46834210e-01 -3.44045609e-02
0.00000000e+00 -8.77462700e-03 -4.71734345e-01 1.21343471e-02
0.00000000e+00 1.47439860e-05 1.80555969e-01 1.81859322e-02
0.00000000e+00 6.41604094e-03 -1.20216958e-01 6.59614131e-02
0.00000000e+00 -6.97200606e-03 1.46369353e-01 -1.23951152e-01
0.00000000e+00 -7.31536653e-03 -3.76319557e-01 -1.46107674e+00
0.00000000e+00 -1.42030874e-02 1.18278682e-01 -1.06621824e-01
0.00000000e+00 -1.96833769e-03 1.95730433e-01 -1.05964188e-02
0.00000000e+00 -1.99624021e-02 1.56752065e-01 -1.31067902e-01
0.00000000e+00 -1.02934777e-03 -9.33460817e-02 1.10531668e-03
0.00000000e+00 -1.18421507e-03 -1.85139790e-01 1.44170839e-02
0.00000000e+00 1.18013462e-02 -1.36851922e-01 1.30276039e-01
0.00000000e+00 -1.28239868e-02 3.29549462e-01 7.31695667e-02
0.00000000e+00 -3.26771289e-03 1.80768490e-01 -3.30551863e-02
0.00000000e+00 7.70393619e-03 -1.03944235e-01 8.55220035e-02
0.00000000e+00 1.54356670e-03 1.90777496e-01 -1.44421477e-02
0.00000000e+00 6.69519277e-03 -1.47840172e-01 1.10545419e-01
0.00000000e+00 3.11870012e-03 -1.48809224e-01 4.28230315e-02
0.00000000e+00 9.39959008e-03 -1.48975015e-01 1.18436597e-01
0.00000000e+00 5.37862116e-03 -1.41429946e-01 1.18970074e-01
0.00000000e+00 6.10014517e-03 -1.47408262e-01 2.78883539e-02
0.00000000e+00 -1.36087080e-02 9.78052393e-02 -6.96970522e-02
0.00000000e+00 1.98229449e-03 -2.42179930e-01 5.05620195e-03
0.00000000e+00 -2.32476555e-02 -3.63146424e-01 6.96754642e-03
0.00000000e+00 -5.03983162e-03 1.48213208e-01 -5.02646156e-02
0.00000000e+00 -4.96784132e-03 1.32195383e-01 -7.09853992e-02
0.00000000e+00 2.20602145e-03 -1.85914487e-01 3.93826105e-02
0.00000000e+00 2.48374194e-02 2.00973287e-01 3.92538123e-02
0.00000000e+00 4.50089714e-03 5.27076349e-02 -6.79704696e-02
0.00000000e+00 -1.25827817e-02 1.21996276e-01 -1.06047884e-01
0.00000000e+00 2.32777512e-03 1.82510674e-01 -2.06413530e-02
0.00000000e+00 6.38536457e-03 -1.45475909e-01 4.94196080e-02
0.00000000e+00 -5.70929609e-03 1.84297621e-01 -3.03751249e-02
0.00000000e+00 5.38566569e-03 -1.16912887e-01 9.14670303e-02
0.00000000e+00 -5.91689814e-03 1.46574527e-01 -5.93216717e-02
0.00000000e+00 -4.49325936e-03 1.46559373e-01 -3.80583592e-02
0.00000000e+00 -1.75488293e-02 -2.16462299e-01 -6.29743794e-03
0.00000000e+00 9.51303728e-03 -1.40546024e-01 1.11637242e-01
0.00000000e+00 9.49922483e-03 -1.32411450e-01 1.05226308e-01
0.00000000e+00 -8.36690329e-03 1.15721069e-01 -9.52519029e-02
0.00000000e+00 4.37328732e-03 -1.45418867e-01 5.03370762e-02
0.00000000e+00 -9.52176936e-03 1.76321372e-01 -1.62707433e-01
0.00000000e+00 7.77713722e-03 2.68908024e-01 1.80618372e-02
0.00000000e+00 1.02224089e-02 -1.45644948e-01 1.00881904e-01
0.00000000e+00 1.40274623e-02 -1.02683872e-01 7.82378539e-02
0.00000000e+00 3.40093829e-04 1.93547294e-01 -1.75840948e-02
0.00000000e+00 -7.14558968e-03 1.14751406e-01 -8.82405564e-02
0.00000000e+00 5.25994765e-05 -2.41098106e-01 1.65001392e-01
0.00000000e+00 -5.02614584e-03 1.57703817e-01 -4.12399247e-02
0.00000000e+00 4.99550160e-03 -1.58055454e-01 6.32380098e-02
0.00000000e+00 1.04443941e-04 -1.84318945e-01 1.50931552e-02
0.00000000e+00 7.10446201e-03 -1.19034864e-01 1.22219048e-01
0.00000000e+00 4.43817861e-03 -1.44192114e-01 7.56231919e-02
0.00000000e+00 4.34690248e-03 -1.36249393e-01 4.01877277e-02
0.00000000e+00 7.38072116e-03 -1.24259897e-01 1.04563393e-01
0.00000000e+00 7.50729814e-04 1.58966795e-01 -4.92952904e-03
0.00000000e+00 -2.07141396e-02 1.19526699e-01 -8.99707228e-02
0.00000000e+00 8.83606635e-03 -1.63552135e-01 1.05908573e-01
0.00000000e+00 3.52001353e-03 -1.63826898e-01 3.28258835e-02
0.00000000e+00 -2.39044381e-03 1.66600540e-01 -2.56771967e-02
0.00000000e+00 -1.01233665e-02 1.46567196e-01 -1.10064678e-01
0.00000000e+00 1.29517198e-01 4.02736217e-01 4.92862344e-01
0.00000000e+00 4.57286695e-03 6.70344606e-02 -4.71400142e-01
0.00000000e+00 6.32432569e-03 -1.58000603e-01 4.13296707e-02
0.00000000e+00 2.03263424e-02 2.61797130e-01 4.79447357e-02
0.00000000e+00 -1.62902921e-02 -2.38740221e-01 4.12756428e-02
0.00000000e+00 -7.86802825e-03 1.39180213e-01 -1.30112350e-01
0.00000000e+00 5.10480301e-03 -1.58194199e-01 7.77469203e-02
0.00000000e+00 -9.19781532e-03 1.28087416e-01 -6.06126487e-02
0.00000000e+00 -1.55341299e-02 1.63667992e-01 -1.37268856e-01
0.00000000e+00 3.65206487e-02 3.04162681e-01 -4.11877245e-01
0.00000000e+00 9.91753023e-03 -1.18290536e-01 9.84778181e-02
0.00000000e+00 1.01699028e-02 -2.39037082e-01 3.30552757e-02
0.00000000e+00 6.58060005e-03 -1.29779860e-01 1.31492272e-01
0.00000000e+00 2.73445947e-03 2.09424034e-01 4.73866984e-03
0.00000000e+00 9.97995585e-03 -1.10942669e-01 1.08752519e-01
0.00000000e+00 -2.58371630e-03 1.85360134e-01 -5.10349683e-02
0.00000000e+00 5.83725516e-03 -1.39074937e-01 3.93985622e-02
0.00000000e+00 -4.35960712e-04 1.97555289e-01 -1.16961291e-02
0.00000000e+00 1.22003723e-02 -1.03099987e-01 8.48019570e-02
0.00000000e+00 -1.26042562e-02 -2.31520697e-01 1.45374257e-02
0.00000000e+00 6.16939086e-03 -1.61081150e-01 1.60255820e-01
0.00000000e+00 -2.29926175e-03 1.65440843e-01 -1.59677751e-02
0.00000000e+00 2.28430866e-03 1.94997862e-01 -3.48555087e-03
0.00000000e+00 2.94485409e-03 -1.36207938e-01 4.71039712e-02
0.00000000e+00 6.63393550e-03 -1.20301060e-01 9.34749246e-02
0.00000000e+00 4.74095956e-04 1.89400256e-01 -1.32467328e-02
0.00000000e+00 3.47877368e-02 4.37205523e-01 2.52509192e-02
0.00000000e+00 -6.29305141e-03 1.42415479e-01 -1.43162891e-01
0.00000000e+00 -1.14901401e-02 1.00202240e-01 -7.53825307e-02
0.00000000e+00 -3.32713360e-03 1.72742128e-01 -1.28857382e-02
0.00000000e+00 6.85566477e-03 -1.24832436e-01 8.74703825e-02
0.00000000e+00 -1.60762703e-03 1.82229236e-01 -5.31864390e-02
0.00000000e+00 -6.65153097e-03 1.44355923e-01 -4.46863733e-02
0.00000000e+00 2.83250189e-03 1.80784702e-01 -4.80550295e-03
0.00000000e+00 -1.89007504e-03 1.66832253e-01 -1.83569446e-01
0.00000000e+00 4.72806720e-03 -1.60807669e-01 4.39743549e-02
0.00000000e+00 1.92457158e-02 3.23390961e-01 -1.81026924e-02
0.00000000e+00 -2.29186937e-03 1.46274790e-01 -2.15591453e-02
0.00000000e+00 -9.01164766e-03 9.96939093e-02 -8.47597718e-02
0.00000000e+00 -1.37315420e-02 1.06320903e-01 -8.20431560e-02
0.00000000e+00 -1.01285866e-02 1.00820519e-01 -9.33678076e-02
0.00000000e+00 -1.03751349e-03 -1.85389906e-01 2.27839904e-04
0.00000000e+00 6.52341451e-03 -1.70624927e-01 9.97503102e-02
0.00000000e+00 5.66328969e-03 -1.20454073e-01 9.97329205e-02
0.00000000e+00 4.91948472e-03 -1.56144947e-02 6.46123648e-01
0.00000000e+00 -1.56984583e-03 1.63371041e-01 -4.24260311e-02
0.00000000e+00 2.51383346e-04 1.87340945e-01 -6.60598790e-03
0.00000000e+00 -8.56855419e-03 1.39359027e-01 -1.39055714e-01
0.00000000e+00 -4.59821010e-03 -2.36354202e-01 2.57488135e-02
0.00000000e+00 -2.87525579e-02 -6.49061441e-01 4.74533111e-01
0.00000000e+00 1.36208162e-02 -1.41421124e-01 1.12686493e-01
0.00000000e+00 9.74241458e-03 -9.24990624e-02 6.62970766e-02
0.00000000e+00 1.07979961e-02 -1.30535185e-01 9.38401222e-02
0.00000000e+00 1.23056844e-02 -1.37913838e-01 1.12663753e-01
0.00000000e+00 -2.87205027e-03 -2.07623884e-01 4.61917138e-04
0.00000000e+00 3.82084027e-03 -1.52345940e-01 6.55132532e-02
0.00000000e+00 -9.12426505e-03 1.26244515e-01 -1.00993328e-01
0.00000000e+00 1.06829042e-02 -1.08697914e-01 9.39811841e-02
0.00000000e+00 -1.39057143e-02 1.26515508e-01 -1.11051381e-01
0.00000000e+00 -1.21327478e-03 -1.80374339e-01 9.62787122e-03
0.00000000e+00 1.26824072e-02 -1.39761746e-01 1.17046744e-01
0.00000000e+00 5.56719629e-03 -1.37701645e-01 5.58851287e-02
0.00000000e+00 -9.58126504e-03 1.36982784e-01 -7.85855502e-02
0.00000000e+00 8.14356375e-03 -1.71356618e-01 6.73894510e-02
0.00000000e+00 8.55978765e-03 -1.57755166e-01 8.60324129e-02
0.00000000e+00 -5.19296667e-03 1.38001725e-01 -5.87246977e-02
0.00000000e+00 1.53125729e-03 1.96465909e-01 -1.18854018e-02
0.00000000e+00 4.13073506e-03 -1.64874762e-01 6.60489798e-02
0.00000000e+00 -8.91514309e-03 1.15535960e-01 -9.82554033e-02
0.00000000e+00 -5.19407541e-03 1.01139605e-01 -9.05083045e-02
0.00000000e+00 -7.88437109e-03 1.21957459e-01 -9.67386439e-02
0.00000000e+00 5.46424603e-03 -1.68320462e-01 2.39094701e-02
0.00000000e+00 -3.15188011e-03 1.38314620e-01 -3.78316529e-02
0.00000000e+00 -5.74252009e-03 1.74144581e-01 -2.88016070e-02
0.00000000e+00 -7.35070277e-03 1.65137932e-01 -6.01740219e-02
0.00000000e+00 2.21400317e-02 3.95244658e-01 1.74284764e-02
0.00000000e+00 7.90979830e-05 5.02408802e-05 4.24112529e-01
0.00000000e+00 1.33727840e-03 -3.64194423e-01 1.62497908e-02
0.00000000e+00 -1.36574684e-02 1.19039379e-01 -8.63440260e-02
0.00000000e+00 1.29909795e-02 3.48134041e-01 -6.99579855e-03
0.00000000e+00 1.39206871e-02 2.86133558e-01 1.74802057e-02
0.00000000e+00 -4.45976714e-03 1.32327497e-01 -7.58054703e-02
0.00000000e+00 3.39288940e-03 -1.79868549e-01 1.49005419e-02
0.00000000e+00 -5.72200445e-03 1.21668525e-01 -8.09455216e-02
0.00000000e+00 1.12172822e-03 -1.83923841e-01 1.60483755e-02
0.00000000e+00 2.90202582e-03 -1.87481910e-01 1.33182611e-02
0.00000000e+00 1.78936701e-02 -1.23305164e-01 1.00805670e-01
0.00000000e+00 1.86104346e-02 3.27085108e-01 4.80733206e-03
0.00000000e+00 -5.90919424e-03 1.43050253e-01 -4.28659916e-02
0.00000000e+00 -2.12139457e-01 -8.07904541e-01 -3.10100943e-01
0.00000000e+00 -2.08290899e-03 -2.30184540e-01 7.27294758e-03
0.00000000e+00 -7.60258175e-03 1.44273683e-01 -3.39308083e-02
0.00000000e+00 4.78836615e-03 -1.62375391e-01 3.85770127e-02
0.00000000e+00 6.71012606e-03 -1.71911702e-01 8.43644142e-02
0.00000000e+00 -1.04619814e-02 1.22789241e-01 -1.06622942e-01
0.00000000e+00 -3.27946479e-03 1.60345674e-01 -4.01893705e-02
0.00000000e+00 7.85674062e-03 -1.61860794e-01 8.76217857e-02
0.00000000e+00 7.37514347e-03 -1.30749911e-01 1.12466194e-01
0.00000000e+00 -1.09330965e-02 1.25500217e-01 -9.04577821e-02
0.00000000e+00 -2.75230557e-02 -3.16923529e-01 3.09315789e-02
0.00000000e+00 -1.83244969e-03 2.06965730e-01 -3.32722417e-03
0.00000000e+00 2.37584207e-03 -1.94262549e-01 1.77280102e-02
0.00000000e+00 -8.82370770e-03 1.04959384e-01 -9.52057615e-02
0.00000000e+00 -2.80812792e-02 -3.89691591e-01 9.06056259e-03
0.00000000e+00 -1.56081736e-03 -2.08945751e-01 1.06746063e-03
0.00000000e+00 2.66936491e-03 -1.55842766e-01 6.09001182e-02
0.00000000e+00 -3.75918951e-03 1.50472417e-01 -2.66204868e-02
0.00000000e+00 -1.71654988e-02 1.48659289e-01 -1.07314639e-01
0.00000000e+00 -1.36799645e-02 1.33794159e-01 -1.06758848e-01
0.00000000e+00 -2.73852609e-03 2.76736170e-01 -1.36099132e-02
0.00000000e+00 3.41488384e-02 3.55040073e-01 -5.41995326e-03
0.00000000e+00 -9.86462343e-04 -3.52527830e-03 -4.17103678e-01
0.00000000e+00 4.68472936e-05 2.01109931e-01 -1.00381915e-02
0.00000000e+00 4.96824645e-03 -1.40214413e-01 4.03614640e-02
0.00000000e+00 -5.63498680e-03 1.44052818e-01 -5.16097583e-02
0.00000000e+00 1.14341872e-03 3.45509320e-01 -2.64230110e-02
0.00000000e+00 -3.22605745e-04 -1.67062029e-01 2.24199966e-02
0.00000000e+00 5.78790857e-03 -1.18855625e-01 8.38666782e-02
0.00000000e+00 1.92151070e-02 1.31725669e-01 5.06645679e-01
0.00000000e+00 -7.55856419e-03 1.27237916e-01 -7.54013807e-02
0.00000000e+00 -4.76596784e-03 1.46617174e-01 -3.74413580e-02
0.00000000e+00 6.82611717e-03 -1.73509747e-01 4.40262966e-02
0.00000000e+00 1.00754481e-02 -1.37849882e-01 1.33804113e-01
0.00000000e+00 2.41042450e-01 3.46939862e-01 -2.37078648e-02
0.00000000e+00 1.12868017e-02 -1.56600773e-01 6.73410147e-02
0.00000000e+00 -5.25473803e-03 1.34442747e-01 -7.40944818e-02
0.00000000e+00 1.33979731e-04 2.06558198e-01 -3.07070394e-03
0.00000000e+00 -1.03350477e-02 1.51592433e-01 -6.62602931e-02
0.00000000e+00 1.13542927e-02 -1.04331411e-01 9.16209072e-02
0.00000000e+00 -3.80925741e-03 1.53149828e-01 -2.71055438e-02
0.00000000e+00 2.78114644e-03 2.79890567e-01 -3.54595222e-02
0.00000000e+00 1.03516104e-02 -1.18536010e-01 8.92700478e-02
0.00000000e+00 4.36853035e-04 1.47474304e-01 -8.36402085e-03
0.00000000e+00 -4.83920425e-03 1.72087997e-01 -5.53628728e-02
0.00000000e+00 -3.66353849e-03 1.41715229e-01 -3.91092002e-02
0.00000000e+00 4.44287062e-03 -1.32848546e-01 4.14101630e-02
0.00000000e+00 1.15867872e-02 2.94982165e-01 -1.66738108e-02
0.00000000e+00 4.62493487e-03 -1.77570120e-01 4.25103419e-02
0.00000000e+00 4.80028279e-02 3.81896168e-01 5.51252067e-02
0.00000000e+00 6.11022627e-03 -1.22217081e-01 1.13917410e-01
0.00000000e+00 -5.58251329e-03 1.11530207e-01 -9.65296850e-02
0.00000000e+00 -1.03807505e-02 1.22754768e-01 -1.00472875e-01
0.00000000e+00 1.17040146e-02 -1.46153465e-01 1.19693361e-01
0.00000000e+00 -1.12268573e-03 1.86940789e-01 -6.21636584e-03
0.00000000e+00 -7.23189954e-03 1.32174164e-01 -9.11542177e-02
0.00000000e+00 1.10356510e-02 -1.45720139e-01 1.22197106e-01
0.00000000e+00 -1.40388636e-03 -1.76683292e-01 5.59747685e-04
0.00000000e+00 -3.49639803e-02 -3.68112922e-01 -1.91459935e-02
0.00000000e+00 -6.16352726e-03 1.71021014e-01 -5.12310229e-02
0.00000000e+00 5.57627948e-03 -1.36008754e-01 3.85192893e-02
0.00000000e+00 -1.02942036e-02 1.42557636e-01 -7.60352686e-02
0.00000000e+00 4.07393463e-03 -1.42831117e-01 5.21472953e-02
0.00000000e+00 7.63454288e-03 -1.28989428e-01 8.87175053e-02
0.00000000e+00 3.32743954e-03 1.87572941e-01 1.36607245e-03
0.00000000e+00 -8.00996087e-03 1.45688668e-01 -1.16696917e-01
0.00000000e+00 -4.26721666e-03 1.99151546e-01 1.29398517e-02
0.00000000e+00 -2.56919377e-02 -2.90632874e-01 -1.70297585e-02
0.00000000e+00 -8.73968937e-03 1.18640542e-01 -1.04540080e-01
0.00000000e+00 -1.62048358e-02 -3.27314287e-01 4.14242409e-03
0.00000000e+00 -5.77225303e-03 1.40399411e-01 -9.33779851e-02
0.00000000e+00 -8.39781389e-03 1.36910364e-01 -9.15861800e-02
0.00000000e+00 1.39784277e-03 2.75935531e-01 -7.58785987e-03
0.00000000e+00 -8.01198464e-03 1.78652495e-01 -5.10106124e-02
0.00000000e+00 -4.86192666e-03 1.68888897e-01 -5.67648560e-02
0.00000000e+00 -3.07253213e-03 2.28020832e-01 -2.04326585e-01
0.00000000e+00 -1.08588906e-02 1.59786209e-01 -1.17936835e-01
0.00000000e+00 -1.21124508e-02 1.29113033e-01 -1.17466502e-01
0.00000000e+00 5.78310387e-03 -1.75908536e-01 5.51082790e-02
0.00000000e+00 2.91854958e-03 -1.86102360e-01 1.89695961e-03
0.00000000e+00 1.01552168e-02 -1.71979651e-01 5.54590523e-02
0.00000000e+00 7.79532921e-03 -1.65243149e-01 5.65624610e-02
0.00000000e+00 -2.94519984e-03 1.51409000e-01 -6.40949458e-02
0.00000000e+00 -5.04687708e-03 2.28975058e-01 1.45563968e-02
0.00000000e+00 4.22680285e-03 -1.60892874e-01 2.58225501e-02
0.00000000e+00 -3.89417517e-03 1.69895157e-01 1.86282396e-02
0.00000000e+00 -4.59828600e-03 1.70559749e-01 -4.21883427e-02
0.00000000e+00 -1.01678551e-03 -2.19333053e-01 2.04379261e-02
0.00000000e+00 -2.95059592e-03 -2.72902608e-01 2.77870446e-02
0.00000000e+00 -7.30564073e-03 2.77595162e-01 -2.41559278e-02
0.00000000e+00 3.04228626e-03 -1.84856847e-01 4.73540975e-03
0.00000000e+00 -5.31967916e-03 1.35020480e-01 -4.36284691e-02
0.00000000e+00 -7.03164004e-03 -1.24400214e-03 -1.75204253e+00
0.00000000e+00 2.35203933e-03 2.94052929e-01 -1.66055992e-01
0.00000000e+00 -3.15856516e-01 1.97447032e-01 2.78463274e-01
0.00000000e+00 -1.69482734e-02 1.35684803e-01 -1.01933174e-01
0.00000000e+00 2.65805284e-03 -1.43971294e-01 3.87014374e-02
0.00000000e+00 8.62221001e-04 1.91673145e-01 -1.31334262e-02
0.00000000e+00 5.22399647e-03 -1.62134305e-01 5.18558174e-02
0.00000000e+00 1.76237183e-04 2.33669713e-01 -1.37706166e-02
0.00000000e+00 5.92687679e-03 -1.23719916e-01 1.04840264e-01
0.00000000e+00 -1.23668509e-02 1.05410948e-01 -9.12821665e-02
0.00000000e+00 2.94212601e-03 -1.42615095e-01 9.83527154e-02
0.00000000e+00 -9.33774471e-01 6.02439821e-01 7.54211610e-03
0.00000000e+00 -8.84268899e-03 1.74884349e-01 -2.82449778e-02
0.00000000e+00 -6.43006247e-03 1.45494685e-01 -5.72140291e-02
0.00000000e+00 1.02823293e-02 -1.22826383e-01 1.03936747e-01
0.00000000e+00 2.45946762e-03 7.88678788e-03 -3.51534486e-01
0.00000000e+00 -4.59034927e-03 1.71774983e-01 -6.00555465e-02
0.00000000e+00 -1.32412417e-02 -3.56962025e-01 -2.84867524e-03
0.00000000e+00 -7.13822106e-03 1.60926670e-01 -4.32583317e-02
0.00000000e+00 4.78342874e-03 -1.36155277e-01 5.70992939e-02
0.00000000e+00 -7.10683642e-03 1.41155139e-01 -6.28897920e-02
0.00000000e+00 -5.81733370e-03 1.35461062e-01 -8.07560608e-02
0.00000000e+00 3.35340798e-02 3.04368705e-01 -5.52013982e-03
0.00000000e+00 1.66181254e-03 2.06878319e-01 -5.74260019e-03
0.00000000e+00 -3.43479519e-03 1.89129964e-01 -4.13791239e-02
0.00000000e+00 7.04732165e-03 -1.65127471e-01 4.15677279e-02
0.00000000e+00 7.86326453e-03 -1.21739782e-01 6.95042387e-02
0.00000000e+00 3.63519555e-03 -1.81997314e-01 3.72895859e-02
0.00000000e+00 1.92531198e-02 -1.55825689e-01 1.22019775e-01
0.00000000e+00 1.82375719e-03 -1.18226029e-01 9.95751992e-02
0.00000000e+00 -2.72703054e-03 1.48971036e-01 -3.14057656e-02
0.00000000e+00 -2.43264791e-02 -4.37894434e-01 -2.18409803e-02
0.00000000e+00 4.92971297e-03 -1.83330461e-01 4.33139093e-02
0.00000000e+00 9.41232371e-04 2.11835891e-01 -6.08308334e-03
0.00000000e+00 -1.14116827e-02 1.51909485e-01 -1.12585753e-01
0.00000000e+00 2.48277700e-03 -1.66921124e-01 4.25639711e-02
0.00000000e+00 -1.07495068e-02 1.06882527e-01 -9.96556580e-02
0.00000000e+00 6.16479851e-03 -1.31984562e-01 9.29057002e-02
0.00000000e+00 1.52971055e-02 -1.34142712e-01 1.02907628e-01
0.00000000e+00 -8.36918131e-03 1.51658013e-01 -8.12074244e-02
0.00000000e+00 -3.29590286e-03 1.64738476e-01 -3.98376323e-02
0.00000000e+00 6.42622006e-04 2.03346565e-01 -1.04561178e-02
0.00000000e+00 1.50165847e-02 -1.49402067e-01 1.18002929e-01
0.00000000e+00 1.39597869e-02 -1.01903513e-01 8.04661736e-02
0.00000000e+00 9.06395551e-04 1.63102910e-01 -2.03707237e-02
0.00000000e+00 -4.45112167e-03 6.73641860e-01 6.23835996e-02
0.00000000e+00 7.31737260e-03 -1.28867507e-01 1.02026269e-01
0.00000000e+00 5.13927871e-03 -1.52346849e-01 4.54487577e-02
0.00000000e+00 -1.12755233e-02 -9.59895775e-02 -6.99942112e-02
0.00000000e+00 6.29098853e-03 -1.59560591e-01 1.18243344e-01
0.00000000e+00 -1.30529124e-02 1.02008820e-01 -8.99707079e-02
0.00000000e+00 6.70793327e-03 -1.34384185e-01 7.38181472e-02
0.00000000e+00 8.97030998e-03 -1.46091327e-01 1.12591006e-01
0.00000000e+00 1.07954303e-03 1.91677794e-01 -3.53305275e-03
0.00000000e+00 5.73588256e-03 -1.34756669e-01 7.94334784e-02
0.00000000e+00 -3.55879380e-03 1.50313646e-01 -4.77787480e-02
0.00000000e+00 -9.17134434e-03 1.59551576e-01 -1.23202510e-01
0.00000000e+00 -2.87831482e-03 1.52351692e-01 -1.95247103e-02
0.00000000e+00 -1.83049235e-02 1.17049038e-01 -8.42083916e-02
0.00000000e+00 -4.74862894e-03 -3.21429223e-01 9.53306537e-03
0.00000000e+00 7.23647000e-03 -1.73982471e-01 6.92734122e-02
0.00000000e+00 -8.38544406e-03 1.30778491e-01 -1.20267197e-01
0.00000000e+00 1.56341288e-02 -1.46892130e-01 9.98454988e-02
0.00000000e+00 1.89646718e-03 -1.48090675e-01 3.28668095e-02
0.00000000e+00 8.90908204e-03 -1.40774980e-01 1.30060494e-01
0.00000000e+00 -1.28586423e-02 1.68450937e-01 -1.35706678e-01
0.00000000e+00 6.56030187e-03 -1.17640212e-01 1.02949873e-01
0.00000000e+00 7.20559666e-03 -1.19191393e-01 8.56869966e-02
0.00000000e+00 -1.01633910e-02 -2.66366214e-01 -1.53879831e-02
0.00000000e+00 -6.71347743e-03 1.35622814e-01 -7.99335018e-02
0.00000000e+00 1.01566445e-02 -1.55707836e-01 9.06789899e-02
0.00000000e+00 -1.08999377e-02 1.12681851e-01 -9.43845063e-02
0.00000000e+00 -3.47276032e-02 8.35814774e-02 3.92473582e-03
0.00000000e+00 7.88606983e-03 -1.41897991e-01 3.69133539e-02
0.00000000e+00 -7.64155621e-03 1.24843769e-01 -7.96468258e-02
0.00000000e+00 -3.63739021e-03 1.76693201e-01 -2.75259335e-02
0.00000000e+00 -5.14952719e-01 4.50918645e-01 -8.60167667e-02
0.00000000e+00 8.70961789e-03 -1.57580495e-01 6.56539202e-02
0.00000000e+00 3.45798954e-03 -1.30047381e-01 8.29634741e-02
0.00000000e+00 7.31256325e-04 1.90815121e-01 -2.52683330e-02
0.00000000e+00 -9.20770504e-03 1.35428309e-01 -9.02385116e-02
0.00000000e+00 -1.11727221e-02 1.52840897e-01 -1.22533821e-01
0.00000000e+00 -3.79375019e-03 1.89601615e-01 -2.93843076e-02
0.00000000e+00 -5.77929430e-04 1.97245941e-01 -3.56545061e-04
0.00000000e+00 1.40468804e-02 -1.13393545e-01 9.86853763e-02
0.00000000e+00 1.52820591e-02 -1.09960862e-01 8.63535702e-02
0.00000000e+00 -2.65249237e-03 1.91788167e-01 -1.56699400e-02
0.00000000e+00 1.05977217e-02 -1.38016135e-01 1.19425394e-01
0.00000000e+00 -5.04462840e-03 1.28144830e-01 -1.08863942e-01
0.00000000e+00 -5.22650406e-03 1.50931925e-01 -6.52822107e-02
0.00000000e+00 -8.29089154e-03 1.41526967e-01 -9.75031257e-02
0.00000000e+00 -2.02352228e-03 -1.81395173e-01 2.80967299e-02
0.00000000e+00 -2.13874318e-02 -4.09722954e-01 -6.77865790e-03
0.00000000e+00 -8.59074760e-03 -1.35280434e-02 -4.65266764e-01
0.00000000e+00 -6.96741603e-03 1.27755970e-01 -6.98210150e-02
0.00000000e+00 -4.62359656e-03 1.77447766e-01 -4.50007953e-02
0.00000000e+00 -1.35374088e-02 1.55390441e-01 -1.44622535e-01
0.00000000e+00 -1.20062858e-03 1.81880936e-01 -1.32400347e-02
0.00000000e+00 1.47329336e-02 -1.30871892e-01 1.05347157e-01
0.00000000e+00 9.36100143e-04 2.03935459e-01 1.15145212e-02
0.00000000e+00 -3.02971359e-02 -2.52029389e-01 1.30832970e-01
0.00000000e+00 -8.81302543e-03 1.25589088e-01 -9.95435417e-02
0.00000000e+00 1.19799003e-02 3.11180890e-01 -1.58293769e-02
0.00000000e+00 6.15578797e-03 -1.73736274e-01 4.84002344e-02
0.00000000e+00 -6.29444234e-03 1.69074506e-01 -7.64217302e-02
0.00000000e+00 2.67859362e-03 -1.51636392e-01 4.70662154e-02
0.00000000e+00 -4.06679232e-03 1.76790088e-01 -2.59886049e-02
0.00000000e+00 -6.89110253e-03 1.61351576e-01 -9.39334556e-02
0.00000000e+00 1.09765930e-02 -1.41743779e-01 1.06721684e-01
0.00000000e+00 -1.12678884e-02 1.11594267e-01 -7.65740424e-02
0.00000000e+00 2.54750550e-02 3.31085026e-01 2.44564377e-02
0.00000000e+00 6.55567786e-03 -1.41779810e-01 1.23073190e-01
0.00000000e+00 -2.10596379e-02 -2.93775290e-01 4.44986261e-02
0.00000000e+00 1.58996992e-02 3.04149956e-01 -3.94266456e-01
0.00000000e+00 1.10102547e-02 3.46281797e-01 -6.10438781e-03
0.00000000e+00 2.58090012e-02 4.89064865e-02 2.02185884e-01
0.00000000e+00 -1.15134090e-03 1.87006190e-01 -1.95040070e-02
0.00000000e+00 -6.70563895e-03 1.77496389e-01 -4.74412963e-02
0.00000000e+00 -9.58085991e-03 1.42773911e-01 -1.13951452e-01
0.00000000e+00 -4.15543327e-03 -1.78558663e-01 7.57218339e-03
0.00000000e+00 -3.43449786e-03 1.54510707e-01 -3.24821882e-02
0.00000000e+00 4.79045417e-03 -1.54490098e-01 3.78647186e-02
0.00000000e+00 -8.31353653e-04 1.75287306e-01 3.40476539e-03
0.00000000e+00 1.32315960e-02 -1.15947813e-01 9.71284881e-02
0.00000000e+00 2.16915607e-02 -1.45320922e-01 1.11745015e-01
0.00000000e+00 -8.74171965e-03 1.87996969e-01 -9.40150470e-02
0.00000000e+00 8.14301427e-03 -1.77740142e-01 5.20426892e-02
0.00000000e+00 -6.81621768e-03 1.60515904e-01 -5.52105717e-02
0.00000000e+00 1.03547545e-02 -1.19207978e-01 9.94555652e-02
0.00000000e+00 -5.12098102e-03 1.29224002e-01 -6.78239092e-02
0.00000000e+00 -3.05500954e-01 -4.81485248e-01 5.96963912e-02
0.00000000e+00 -1.46851605e-02 -3.80732156e-02 1.11433113e+00
0.00000000e+00 -1.43529652e-02 -2.18556702e-01 2.86412220e-02
0.00000000e+00 4.20175726e-03 -1.79049373e-01 3.45819853e-02
0.00000000e+00 1.67113245e-02 -1.29715502e-01 1.10029168e-01
0.00000000e+00 -6.86367974e-03 1.34784594e-01 -4.34054174e-02
0.00000000e+00 2.06335634e-02 3.23955536e-01 -5.87948319e-03
0.00000000e+00 1.01973992e-02 -1.39337212e-01 1.06844939e-01
0.00000000e+00 5.72664337e-03 -1.32209837e-01 7.15312064e-02
0.00000000e+00 -4.13750624e-03 1.54576346e-01 -4.51527089e-02
0.00000000e+00 -6.44579204e-03 1.31122142e-01 -9.24453065e-02
0.00000000e+00 -1.32475859e-02 1.07248217e-01 -9.19459984e-02
0.00000000e+00 -1.77650861e-02 1.04888409e-01 -7.36844912e-02
0.00000000e+00 -1.15942787e-02 3.13386142e-01 -9.48909298e-03
0.00000000e+00 -1.22056212e-02 1.59027085e-01 -1.15552120e-01
0.00000000e+00 -8.42776056e-03 1.22442298e-01 -8.14006552e-02
0.00000000e+00 -1.17271878e-02 1.32355839e-01 -1.04235642e-01
0.00000000e+00 -1.14952382e-02 1.38726443e-01 -1.23816818e-01
0.00000000e+00 9.28758737e-03 -1.43197030e-01 1.01644853e-02
0.00000000e+00 -4.41213883e-03 1.71249047e-01 -5.28333485e-02
0.00000000e+00 9.82488506e-03 -1.16247632e-01 9.50419605e-02
0.00000000e+00 8.95547774e-03 -1.16759285e-01 9.89258289e-02
0.00000000e+00 -6.65195799e-03 1.19166471e-01 -1.02171250e-01
0.00000000e+00 5.74728241e-03 -1.25498474e-01 8.78181159e-02
0.00000000e+00 9.70701221e-03 -1.77181661e-01 9.71785039e-02
0.00000000e+00 -2.81087421e-02 1.97355926e-01 6.92359582e-02
0.00000000e+00 3.52363020e-01 -9.21989262e-01 -2.73635378e-03
0.00000000e+00 -8.84362776e-03 1.14052698e-01 -9.31146517e-02
0.00000000e+00 8.40107072e-03 -1.65578261e-01 4.90022153e-02
0.00000000e+00 -1.06193610e-02 1.52031645e-01 -1.14385016e-01
0.00000000e+00 1.53510738e-02 -1.20290779e-01 9.62711126e-02
0.00000000e+00 6.07585255e-03 -1.33715808e-01 7.00421706e-02
0.00000000e+00 5.48430067e-03 -1.40132695e-01 1.54249638e-01
0.00000000e+00 -1.02846548e-02 1.00308023e-01 -9.79417115e-02
0.00000000e+00 -1.30203702e-02 1.21748455e-01 -1.05405189e-01
0.00000000e+00 -4.04478936e-03 1.52579188e-01 -3.99293900e-02
0.00000000e+00 -1.17309988e-02 1.29022449e-01 -1.21441551e-01
0.00000000e+00 -1.05739087e-02 -2.08298549e-01 -1.43568066e-03
0.00000000e+00 -6.02175249e-03 1.44585133e-01 -4.28561606e-02
0.00000000e+00 8.08957964e-03 -1.20658599e-01 8.89288336e-02
0.00000000e+00 1.35477092e-02 2.74111807e-01 -2.30455454e-02
0.00000000e+00 -5.35199279e-03 1.32456213e-01 -6.76666349e-02
0.00000000e+00 -4.75810794e-03 1.45814657e-01 -3.52072865e-02
0.00000000e+00 -5.01267612e-02 -3.99574429e-01 -1.11368895e-02
0.00000000e+00 -9.25241038e-03 1.38161674e-01 -1.35325551e-01
0.00000000e+00 -6.71333121e-03 1.10559754e-01 -1.04072876e-01
0.00000000e+00 6.21062890e-03 -1.50378034e-01 6.24316745e-02
0.00000000e+00 3.67965852e-03 -1.81307420e-01 2.63390280e-02
0.00000000e+00 -3.17118727e-02 -3.04207414e-01 6.99288175e-02
0.00000000e+00 1.00460779e-02 -1.27947509e-01 1.21570453e-01
0.00000000e+00 2.63165636e-03 1.72491759e-01 -1.98935252e-02
0.00000000e+00 -7.32702028e-04 -2.48375103e-01 -1.91324842e-04
0.00000000e+00 -2.82415748e-03 1.85738206e-01 -2.14760806e-02
0.00000000e+00 8.61916319e-03 -1.09627448e-01 9.73282009e-02
0.00000000e+00 1.12820985e-02 -1.25829771e-01 1.17335163e-01
0.00000000e+00 6.49092067e-03 -1.87607706e-01 4.52158004e-02
0.00000000e+00 -1.10640088e-02 1.13799132e-01 -8.03900287e-02
0.00000000e+00 -6.69019157e-03 1.42104283e-01 -3.07820439e-02
0.00000000e+00 4.04876411e-01 -3.57373297e-01 -6.33414369e-03
0.00000000e+00 -5.04258135e-03 1.62727132e-01 -4.36463282e-02
0.00000000e+00 6.20186841e-03 -1.38431862e-01 3.65183800e-02
0.00000000e+00 -3.46585969e-03 1.40859112e-01 -2.96317991e-02
0.00000000e+00 -9.82727949e-03 2.07932293e-01 -1.18377833e-02
0.00000000e+00 4.21375828e-03 -1.78173885e-01 3.80622670e-02
0.00000000e+00 -5.04142512e-03 1.38991341e-01 -3.88296396e-02
0.00000000e+00 -9.40719247e-03 1.51013240e-01 -1.04223318e-01
0.00000000e+00 -3.21832113e-02 -3.90970409e-01 -3.55796106e-02
0.00000000e+00 -7.12336972e-03 1.58795863e-01 -6.65400922e-02
0.00000000e+00 1.09981876e-02 -1.19871043e-01 1.10244438e-01
0.00000000e+00 -6.54741889e-03 1.60957366e-01 -6.30998984e-02
0.00000000e+00 -2.96301711e-02 -4.25097525e-01 -2.39363983e-02
0.00000000e+00 -3.24467220e-03 1.50690883e-01 -5.21963909e-02
0.00000000e+00 9.34413634e-03 -1.03907295e-01 9.75084677e-02
0.00000000e+00 -1.10087944e-02 1.13322705e-01 -9.12223905e-02
0.00000000e+00 4.30916995e-03 -1.45387262e-01 3.71038876e-02
0.00000000e+00 -1.26155792e-03 1.55357122e-01 -3.45797054e-02
0.00000000e+00 -8.26464500e-03 1.58689305e-01 -5.88109009e-02
0.00000000e+00 7.59556331e-03 -1.04716979e-01 8.55019018e-02
0.00000000e+00 -1.91011408e-03 2.26532936e-01 1.25460587e-02
0.00000000e+00 3.03473510e-03 -1.71764404e-01 3.02850492e-02
0.00000000e+00 5.98841580e-03 -1.34049132e-01 6.29955903e-02
0.00000000e+00 -1.53285777e-03 1.94457769e-01 -6.44344487e-04
0.00000000e+00 1.08506698e-02 -1.26849711e-01 1.25400543e-01
0.00000000e+00 8.67659785e-03 3.00832123e-01 3.76491360e-02
0.00000000e+00 -7.78153772e-03 1.39223874e-01 -1.30634442e-01
0.00000000e+00 9.03396960e-03 -1.21918134e-01 9.71937031e-02
0.00000000e+00 -2.03964651e-01 2.27253944e-01 -8.60340986e-03
0.00000000e+00 5.95256081e-03 2.00147331e-01 -1.12381922e-02
0.00000000e+00 -8.14206433e-03 -2.69962370e-01 1.72451641e-02
0.00000000e+00 -8.18733033e-03 -1.42479613e-01 1.71645463e-01
0.00000000e+00 6.53656246e-03 -1.45249471e-01 5.62312230e-02
0.00000000e+00 9.70061589e-03 -1.06641822e-01 9.69420969e-02
0.00000000e+00 1.01937456e-02 -1.44852772e-01 1.34295449e-01
0.00000000e+00 -2.94726412e-03 1.56672582e-01 -8.47514123e-02
0.00000000e+00 7.10911490e-03 -1.68461442e-01 4.38973606e-02
0.00000000e+00 1.01342807e-02 -1.40290275e-01 1.25622556e-01
0.00000000e+00 -1.09088961e-02 -1.86572373e-01 -4.05520871e-02
0.00000000e+00 -1.06095267e-03 1.53871357e-01 -4.12427261e-02
0.00000000e+00 5.01389243e-03 -1.47977844e-01 6.15360737e-02
0.00000000e+00 1.00119412e-02 -1.09410852e-01 9.25872773e-02
0.00000000e+00 -1.06202869e-03 1.06958803e-02 -5.09303033e-01
0.00000000e+00 7.86032435e-03 -1.55950353e-01 1.23402454e-01
0.00000000e+00 3.54491780e-03 -1.38397053e-01 6.27669021e-02
0.00000000e+00 -8.33746605e-03 1.40862420e-01 -6.78347722e-02
0.00000000e+00 7.14823510e-03 -1.42695770e-01 4.20387276e-02
0.00000000e+00 -2.69244052e-03 4.06658649e-01 1.29323155e-02
0.00000000e+00 -1.03661288e-02 1.47124961e-01 -1.15663372e-01
0.00000000e+00 1.18547808e-02 -1.11131996e-01 7.82227591e-02
0.00000000e+00 9.56292078e-03 -1.34833917e-01 1.19035631e-01
0.00000000e+00 6.67566573e-03 -1.27188087e-01 1.31232753e-01
0.00000000e+00 -3.04580526e-03 -2.80800164e-01 -1.47718182e-02
0.00000000e+00 1.51000293e-02 -1.37210533e-01 1.02237873e-01
0.00000000e+00 3.34576028e-03 -1.69164062e-01 5.37421256e-02
0.00000000e+00 9.66970250e-03 -1.10659800e-01 9.24305692e-02
0.00000000e+00 1.60990115e-02 -2.18205824e-01 2.25991219e-01
0.00000000e+00 -1.69129476e-01 -5.68435729e-01 -4.65687096e-01
0.00000000e+00 2.04579700e-02 3.89328659e-01 -1.76305324e-02
0.00000000e+00 1.55005860e-03 -2.01038718e-01 -4.21278132e-03
0.00000000e+00 -2.09370791e-03 -2.27363873e-02 -3.63823950e-01
0.00000000e+00 1.18912263e-02 -1.66473746e-01 4.18923497e-02
0.00000000e+00 4.06823168e-03 7.64943426e-03 -3.39621276e-01
0.00000000e+00 -1.01339100e-02 1.79114729e-01 -4.30148803e-02
0.00000000e+00 7.40127172e-03 -1.23060308e-01 7.86716193e-02
0.00000000e+00 -2.27617333e-03 1.96592629e-01 -8.34855717e-03
0.00000000e+00 1.59134287e-02 -1.09998517e-01 8.72566774e-02
0.00000000e+00 -3.20065813e-03 1.49008378e-01 -3.09467893e-02
0.00000000e+00 1.57391056e-02 -1.13291904e-01 9.34836864e-02
0.00000000e+00 -1.78343672e-02 -3.53080392e-01 -1.44530255e-02
0.00000000e+00 4.16018395e-03 -1.46421760e-01 1.06947139e-01
0.00000000e+00 -1.51600679e-02 1.41792625e-01 -1.21962920e-01
0.00000000e+00 1.09337235e-03 -7.58486203e-05 3.11132967e-01
0.00000000e+00 -7.31244404e-03 1.56160325e-01 -9.21697840e-02
0.00000000e+00 -4.01913282e-03 1.43478423e-01 -4.26530652e-02
0.00000000e+00 -3.99106788e-03 1.78122774e-01 -2.25825347e-02
0.00000000e+00 1.66373625e-02 4.18319941e-01 2.78454367e-02
0.00000000e+00 7.17488071e-03 -1.19813167e-01 6.83851838e-02
0.00000000e+00 2.48483219e-03 -1.80574775e-01 3.07021644e-02
0.00000000e+00 -7.99138274e-04 -1.88916326e-01 7.37387090e-05
0.00000000e+00 3.65685392e-03 -1.43845424e-01 4.91152853e-02
0.00000000e+00 9.39389784e-03 -1.53567180e-01 1.15928747e-01
0.00000000e+00 6.44469680e-03 -1.48544759e-01 4.19261791e-02
0.00000000e+00 1.93036336e-03 1.89475656e-01 -4.87535149e-02
0.00000000e+00 7.95385893e-03 -1.17235728e-01 8.65044594e-02
0.00000000e+00 6.18089363e-03 -1.70808136e-01 3.33812647e-02
0.00000000e+00 -2.22860072e-02 -9.55890656e-01 1.37206721e+00
0.00000000e+00 -2.48632254e-03 1.63170278e-01 -9.34310537e-03
0.00000000e+00 1.91162489e-02 -1.40717044e-01 1.17737360e-01
0.00000000e+00 -2.43345071e-02 -4.14321333e-01 -1.52156474e-02
0.00000000e+00 1.43704086e-03 1.95296317e-01 -1.64273120e-02
0.00000000e+00 -1.26769925e-02 1.28548503e-01 -1.06452614e-01
0.00000000e+00 -1.26965679e-02 1.32860199e-01 -1.18788645e-01
0.00000000e+00 3.87994666e-03 -1.39027163e-01 3.52427326e-02
0.00000000e+00 1.52650010e-02 3.43656868e-01 1.94261223e-02
0.00000000e+00 -8.47123377e-03 1.35588169e-01 -1.19339183e-01
0.00000000e+00 -5.95704594e-04 -1.71517596e-01 1.59508381e-02
0.00000000e+00 6.70730695e-03 -1.70826495e-01 9.13436264e-02
0.00000000e+00 -1.48110585e-02 1.13262951e-01 -9.48912278e-02
0.00000000e+00 6.09099120e-03 1.61145210e-01 -6.30417243e-02
0.00000000e+00 5.76611003e-03 -1.59681499e-01 3.55308391e-02
0.00000000e+00 -1.07306261e-02 -3.99144053e-01 -3.73246409e-02
0.00000000e+00 -3.75077695e-01 -1.14783227e+00 1.14983708e-01
0.00000000e+00 -4.11412260e-03 1.80416837e-01 -5.84028289e-02
0.00000000e+00 -2.35434063e-03 1.49823189e-01 -3.15695554e-02
0.00000000e+00 2.47519836e-03 -1.96713908e-03 1.33800972e+00
0.00000000e+00 5.28035639e-03 -1.21358275e-01 9.09311995e-02
0.00000000e+00 -2.07994897e-02 -3.55226159e-01 8.22036806e-03
0.00000000e+00 -1.31131830e-02 1.12273395e-01 -9.36430171e-02
0.00000000e+00 1.94312143e-03 -1.44964993e-01 3.81568540e-03
0.00000000e+00 -1.15109943e-02 9.99067053e-02 -7.95261785e-02
0.00000000e+00 3.34653328e-03 -1.46224067e-01 5.18573262e-02
0.00000000e+00 -1.10248418e-03 -2.09174037e-01 1.14602437e-02
0.00000000e+00 4.94346814e-03 -1.55093864e-01 2.91906707e-02
0.00000000e+00 1.10514976e-01 2.62805760e-01 -1.28808925e-02
0.00000000e+00 -5.60110733e-02 -3.41194302e-01 -1.31574273e-02
0.00000000e+00 5.87600749e-03 -1.62841693e-01 1.20822050e-01
0.00000000e+00 9.59217176e-03 -9.84743014e-02 7.82588422e-02
0.00000000e+00 8.35317094e-03 -1.72655076e-01 6.59455135e-02
0.00000000e+00 7.77668832e-03 -1.22359596e-01 8.57794210e-02
0.00000000e+00 1.97433922e-02 3.68630171e-01 -1.02619082e-02
0.00000000e+00 8.77909362e-03 -1.61786795e-01 7.96858221e-02
0.00000000e+00 1.75733920e-02 1.97360769e-01 -1.52567634e-02
0.00000000e+00 -1.21359546e-02 1.12873651e-01 -9.24456641e-02
0.00000000e+00 1.03252931e-02 -1.72020033e-01 6.14580140e-02
0.00000000e+00 -1.70936529e-02 1.63988888e-01 -1.39756843e-01
0.00000000e+00 -6.98272465e-03 1.19506821e-01 -8.70964155e-02
0.00000000e+00 -3.15217697e-03 1.42497137e-01 -4.61716652e-02
0.00000000e+00 -2.59686378e-04 2.00048327e-01 -3.63938697e-03
0.00000000e+00 -6.77009718e-03 1.32857621e-01 -6.92680925e-02
0.00000000e+00 9.20358486e-03 -1.43100664e-01 1.15657546e-01
0.00000000e+00 -2.36421986e-03 1.51219249e-01 -3.80381681e-02
0.00000000e+00 6.00011414e-03 -1.51018575e-01 5.40554598e-02
0.00000000e+00 1.19341807e-02 -1.94217533e-01 -2.16439385e-02
0.00000000e+00 5.33477962e-03 -1.35129347e-01 5.52217364e-02
0.00000000e+00 5.25507377e-03 -1.55602634e-01 4.60459888e-02
0.00000000e+00 8.90246034e-03 -1.24089777e-01 9.38513279e-02
0.00000000e+00 6.23648195e-03 -1.08685218e-01 9.74492505e-02
0.00000000e+00 6.50532870e-03 -1.26606852e-01 9.18307230e-02
0.00000000e+00 -7.19034579e-03 1.39369875e-01 -1.05600871e-01
0.00000000e+00 1.24192862e-02 -1.11530721e-01 8.97992626e-02
0.00000000e+00 1.61008406e-02 -3.15771699e-01 6.05946854e-02
0.00000000e+00 1.13092521e-02 -1.21841170e-01 1.01658270e-01
0.00000000e+00 1.53397759e-02 6.71408534e-01 -1.88333943e-01
0.00000000e+00 -1.07702054e-03 -1.98615357e-01 4.69309790e-03
0.00000000e+00 -2.09371257e-03 1.59628868e-01 -6.10743277e-02
0.00000000e+00 -1.74562708e-02 -1.92876413e-01 2.51650274e-01
0.00000000e+00 1.71876061e-04 4.62130964e-04 -4.00042206e-01
0.00000000e+00 -4.71318187e-03 1.39267191e-01 -6.94241524e-02
0.00000000e+00 1.07985018e-02 -1.27982020e-01 1.20324090e-01
0.00000000e+00 -7.05939811e-03 1.66951716e-01 -4.55892310e-02
0.00000000e+00 -5.15081454e-03 1.75849110e-01 -5.22253923e-02
0.00000000e+00 9.63033643e-03 -1.29581288e-01 1.16902635e-01
0.00000000e+00 2.38170829e-02 2.90977001e-01 1.32252183e-02
0.00000000e+00 -2.98013110e-02 -4.14665848e-01 -3.84845808e-02
0.00000000e+00 -3.66756693e-02 -2.71530330e-01 -1.70224402e-02
0.00000000e+00 1.38575956e-02 -1.27268448e-01 9.83442739e-02
0.00000000e+00 -1.01762894e-03 -1.85602963e-01 1.15300687e-02
0.00000000e+00 5.89153729e-03 -1.30866215e-01 7.93537125e-02
0.00000000e+00 -1.26350801e-02 1.45540789e-01 -1.21019639e-01
0.00000000e+00 6.18407363e-03 -1.68855414e-01 7.31472522e-02
0.00000000e+00 6.82026567e-03 -1.09046355e-01 1.01850860e-01
0.00000000e+00 -1.05620630e-03 -1.88365951e-01 8.28888919e-03
0.00000000e+00 6.53669378e-03 -1.43512666e-01 6.69912621e-02
0.00000000e+00 -5.63374674e-03 1.23931326e-01 -9.04742107e-02
0.00000000e+00 4.41385582e-02 -1.43828526e-01 -5.45002334e-02
0.00000000e+00 -3.51233431e-03 -4.45245951e-01 -1.07684927e-02
0.00000000e+00 -1.73282418e-02 -1.61192715e-01 -1.36406077e-02
0.00000000e+00 1.09292818e-02 -3.21731746e-01 5.02538914e-03
0.00000000e+00 1.01185711e-02 -1.69852197e-01 9.94987711e-02
0.00000000e+00 4.06193780e-03 -1.34589553e-01 7.93333277e-02
0.00000000e+00 1.62800960e-02 2.95498669e-01 2.24658232e-02
0.00000000e+00 -6.99351440e-05 -2.04182286e-02 1.28335965e+00
0.00000000e+00 1.25735430e-02 -1.47287354e-01 1.16016977e-01
0.00000000e+00 -1.11177526e-02 1.38148159e-01 -9.88784432e-02
0.00000000e+00 7.72736222e-03 -1.55690193e-01 8.60327184e-02
0.00000000e+00 -8.62712227e-03 1.37661964e-01 -1.07363895e-01
0.00000000e+00 -4.26357146e-03 2.96201289e-01 8.41298327e-03
0.00000000e+00 8.58466793e-03 -1.22775257e-01 1.03055336e-01
0.00000000e+00 -9.13268980e-03 1.38282478e-01 -1.26420662e-01
0.00000000e+00 -1.36475242e-03 -1.79744124e-01 -2.58956291e-03
0.00000000e+00 8.28496064e-04 1.88223749e-01 7.08953186e-04
0.00000000e+00 8.01186543e-03 -1.21164009e-01 9.40009505e-02
0.00000000e+00 6.36937702e-03 2.08778292e-01 2.95690540e-03
0.00000000e+00 2.03414331e-03 -1.78562298e-01 3.10075954e-02
0.00000000e+00 2.39050016e-03 -1.33465186e-01 4.76260446e-02
0.00000000e+00 -6.10875664e-04 2.06437469e-01 -1.78424958e-02
0.00000000e+00 5.54268993e-03 -1.47846937e-01 4.94504124e-02
0.00000000e+00 2.64336751e-03 -1.40313730e-01 1.81529429e-02
0.00000000e+00 -7.36170169e-03 1.52609110e-01 -9.33942199e-02
0.00000000e+00 -5.89908473e-03 1.68485880e-01 -2.67451461e-02
0.00000000e+00 -4.09515994e-03 1.36705875e-01 -6.33678213e-02
0.00000000e+00 2.75642499e-02 -1.48505922e-02 -1.36605399e-02
0.00000000e+00 8.96511506e-03 -1.44463643e-01 7.86076561e-02
0.00000000e+00 -1.24465050e-02 1.21892579e-01 -9.40881297e-02
0.00000000e+00 4.97835409e-03 -1.89091340e-01 4.57095429e-02
0.00000000e+00 1.57280620e-02 -1.14239894e-01 9.48112607e-02
0.00000000e+00 3.76764755e-03 -1.48637727e-01 2.86194142e-02
0.00000000e+00 1.04213320e-02 2.42227480e-01 2.99538340e-04
0.00000000e+00 1.46466056e-02 -1.79616138e-01 1.21959455e-01
0.00000000e+00 1.73879303e-02 3.69356781e-01 -1.29980389e-02
0.00000000e+00 -3.93339386e-03 1.42474726e-01 -4.50745337e-02
0.00000000e+00 -1.18841846e-02 1.13416746e-01 -1.06448486e-01
0.00000000e+00 -8.02164059e-03 1.60782799e-01 -6.36423677e-02
0.00000000e+00 7.72500597e-03 -1.64337203e-01 9.51208472e-02
0.00000000e+00 -1.25336898e-02 1.23962700e-01 -8.92753750e-02
0.00000000e+00 -3.19748349e-03 1.29921839e-01 -1.16546668e-01
0.00000000e+00 5.11795282e-03 -1.51262537e-01 4.87956591e-02
0.00000000e+00 -7.30911084e-03 1.34831682e-01 -1.19418271e-01
0.00000000e+00 7.96424225e-03 -1.36773467e-01 8.12117159e-02
0.00000000e+00 -1.22118201e-02 -1.84607551e-01 5.82180507e-02
0.00000000e+00 -3.37934531e-02 -2.99476445e-01 4.13260758e-01
0.00000000e+00 -5.91306901e-03 1.48770437e-01 -3.62150706e-02
0.00000000e+00 9.37386509e-03 -1.47718564e-01 1.24747276e-01
0.00000000e+00 -1.77459413e-04 -1.87996611e-01 6.11328799e-03
0.00000000e+00 3.75786028e-03 1.20894678e-01 -1.95690155e-01
0.00000000e+00 -1.33185638e-02 1.24403551e-01 -1.04199901e-01
0.00000000e+00 4.66033444e-03 -1.16089202e-01 9.70279872e-02
0.00000000e+00 2.79063173e-02 -1.39659631e+00 5.48686646e-02
0.00000000e+00 -1.75458810e-03 2.13615134e-01 -6.07393077e-03
0.00000000e+00 1.20552974e-02 3.68091166e-01 1.08664576e-02
0.00000000e+00 -2.91117444e-03 1.85022280e-02 2.94067949e-01
0.00000000e+00 -7.29698921e-03 1.66915596e-01 -6.25311956e-02
0.00000000e+00 2.76420191e-02 -1.52607420e-02 2.46154680e-03
0.00000000e+00 5.20553906e-03 -1.75944164e-01 4.20288369e-02
0.00000000e+00 2.90074218e-02 3.53359938e-01 -1.86661612e-02
0.00000000e+00 -5.84262051e-03 2.95581996e-01 7.12720584e-03
0.00000000e+00 1.29778136e-03 -1.80210933e-01 8.28475691e-03
0.00000000e+00 1.08911358e-02 -1.08059093e-01 8.71569663e-02
0.00000000e+00 9.19238944e-03 -1.67520836e-01 1.14465900e-01
0.00000000e+00 -6.44600904e-03 1.76590949e-01 -5.92043959e-02
0.00000000e+00 -6.71444181e-03 1.05834894e-01 -9.16873887e-02
0.00000000e+00 6.35716692e-03 -1.41218230e-01 7.21091330e-02
0.00000000e+00 -3.02678030e-02 -2.99441934e-01 2.83043995e-03
0.00000000e+00 3.95177258e-03 -1.59106120e-01 4.57980186e-02
0.00000000e+00 3.81363509e-03 -1.33855298e-01 6.68525323e-02
0.00000000e+00 -5.05413907e-03 1.69032112e-01 -3.50056589e-02
0.00000000e+00 4.42978507e-03 -1.48115382e-01 4.27408256e-02
0.00000000e+00 -1.70277692e-02 9.90952104e-02 -8.94061401e-02
0.00000000e+00 2.77810101e-03 -1.41645208e-01 7.03813275e-03
0.00000000e+00 -7.62656610e-03 1.42117187e-01 -5.54479621e-02
0.00000000e+00 1.16973957e-02 -1.67849392e-01 7.06519783e-02
0.00000000e+00 1.85974306e-04 1.90037876e-01 -1.45402914e-02
0.00000000e+00 1.18670324e-02 -1.35418713e-01 1.21551409e-01
0.00000000e+00 -7.75278080e-03 1.48396492e-01 -1.18244171e-01
0.00000000e+00 -4.00765613e-03 1.80858403e-01 -5.09134494e-02
0.00000000e+00 -1.21485954e-03 -6.41633049e-02 -3.51300049e+00
0.00000000e+00 1.11658815e-02 -1.51206464e-01 9.58798602e-02
0.00000000e+00 6.88061817e-03 -1.44549146e-01 4.21176031e-02
0.00000000e+00 -5.27459569e-03 1.12406544e-01 -9.60741937e-02
0.00000000e+00 -7.29587395e-03 1.51179627e-01 -3.47760804e-02
0.00000000e+00 -6.17167912e-03 1.77061394e-01 -3.44291255e-02
0.00000000e+00 3.14977253e-03 -1.56244829e-01 3.80892605e-02
0.00000000e+00 6.07228605e-03 1.74795777e-01 -1.65212713e-02
0.00000000e+00 7.95034878e-03 -1.61066577e-01 1.44185210e-02
0.00000000e+00 1.16344104e-02 -1.10433154e-01 8.81728902e-02
0.00000000e+00 -1.58641650e-03 -2.06971809e-01 1.64045282e-02
0.00000000e+00 -1.52507611e-02 1.10396810e-01 -9.70043167e-02
0.00000000e+00 5.00959996e-03 -1.60880879e-01 4.19540070e-02
0.00000000e+00 3.83018260e-03 -1.81619287e-01 1.55583676e-02
0.00000000e+00 7.10492134e-02 1.22772586e+00 1.52923656e+00
0.00000000e+00 8.76144692e-03 -1.00472018e-01 9.31525975e-02
0.00000000e+00 6.77124364e-03 -1.68443933e-01 4.49624918e-02
0.00000000e+00 -9.84960818e-04 1.95751667e-01 -4.81151836e-03
0.00000000e+00 -8.81137326e-03 1.67962536e-01 -6.84285015e-02
0.00000000e+00 -8.04568268e-03 1.84277594e-01 -2.34072506e-02
0.00000000e+00 -1.27163865e-02 1.06169425e-01 -9.45394635e-02
0.00000000e+00 -2.01311223e-02 1.47154674e-01 -1.17546365e-01
0.00000000e+00 3.47934035e-03 -1.41620740e-01 3.56002674e-02
0.00000000e+00 -1.16909938e-02 1.30261973e-01 -8.33296999e-02
0.00000000e+00 -7.87429977e-03 1.67634681e-01 -5.99232763e-02
0.00000000e+00 -9.87260370e-04 -2.00740039e-01 1.27045317e-02
0.00000000e+00 -2.03048205e-03 -1.79170519e-01 2.11680345e-02
0.00000000e+00 1.24756461e-02 3.13157320e-01 -1.46045361e-03
0.00000000e+00 -1.50598958e-03 -7.68005103e-02 1.27420975e-02
0.00000000e+00 3.96302156e-03 3.36169004e-01 -7.75403157e-02
0.00000000e+00 -5.19852899e-03 1.49134949e-01 -1.30130025e-02
0.00000000e+00 9.12154466e-03 -1.32886633e-01 8.54520798e-02
0.00000000e+00 1.22675495e-02 -1.44143939e-01 9.91813391e-02
0.00000000e+00 -1.32381450e-02 -5.08845896e-02 -1.92975774e-02
0.00000000e+00 -6.32948335e-03 1.08398050e-01 -1.10662043e-01
0.00000000e+00 1.49437943e-02 -1.09340243e-01 8.56164321e-02
0.00000000e+00 1.62852276e-02 -1.07046992e-01 8.28089342e-02
0.00000000e+00 -1.50392705e-03 -1.66072845e-01 1.24481469e-02
0.00000000e+00 -4.18337667e-03 1.64339274e-01 -6.16688877e-02
0.00000000e+00 -1.88304521e-02 3.05454731e-01 -3.82267013e-02
0.00000000e+00 4.54728864e-03 -1.58032969e-01 3.89333516e-02
0.00000000e+00 -1.38300192e-02 1.01793386e-01 -6.77739605e-02
0.00000000e+00 1.47319157e-02 2.78821439e-01 2.99256612e-02
0.00000000e+00 -7.05154426e-03 1.38974547e-01 -1.07713446e-01
0.00000000e+00 -5.46697702e-04 1.75470576e-01 -1.11959660e-02
0.00000000e+00 9.91340540e-03 -1.64062873e-01 1.29018366e-01
0.00000000e+00 -8.27089883e-03 1.32752344e-01 -9.45995301e-02
0.00000000e+00 -2.71092653e-02 -3.74934375e-01 1.27727576e-02
0.00000000e+00 6.33132004e-04 8.27386696e-03 5.03587723e-01
0.00000000e+00 -6.87849475e-03 1.39986157e-01 -1.24199912e-01
0.00000000e+00 -4.31493982e-06 -2.11577117e-01 -9.39354394e-03
0.00000000e+00 5.14231017e-03 -1.30716756e-01 7.17802495e-02
0.00000000e+00 2.15954264e-03 -1.36627436e-01 4.91059497e-02
0.00000000e+00 4.60084673e-04 1.64273620e-01 1.09560899e-01
0.00000000e+00 6.11754181e-03 -1.39112979e-01 4.04475555e-02
0.00000000e+00 3.41724278e-03 -1.61840349e-01 6.47832975e-02
0.00000000e+00 -2.20636725e-02 1.20968610e-01 -9.12304446e-02
0.00000000e+00 5.03077824e-03 -1.59274116e-01 3.53914611e-02
0.00000000e+00 -8.26032739e-03 1.25292212e-01 -9.35555026e-02
0.00000000e+00 -3.68090486e-03 1.40892506e-01 -3.72280106e-02
0.00000000e+00 1.45251155e-02 -1.30337253e-01 1.04566731e-01
0.00000000e+00 1.16986623e-02 -1.39648736e-01 1.22562192e-01
0.00000000e+00 -3.76718189e-03 -2.57779002e-01 2.58629471e-02
0.00000000e+00 2.62569729e-03 2.03512117e-01 -1.94972530e-02
0.00000000e+00 1.36840474e-02 2.35351786e-01 -5.32795500e-04
0.00000000e+00 1.92510225e-02 3.18217963e-01 -2.11590249e-02
0.00000000e+00 3.07033374e-03 -1.39113635e-01 3.54052782e-02
0.00000000e+00 6.78558229e-03 -1.38544321e-01 1.07564412e-01
0.00000000e+00 -5.48529206e-03 1.41428307e-01 -6.37002289e-02
0.00000000e+00 1.16705149e-02 -1.14337340e-01 1.03994600e-01
0.00000000e+00 -1.82450662e-04 -2.29601786e-01 2.09635403e-02
0.00000000e+00 6.74762251e-03 -1.23659931e-01 9.64149013e-02
0.00000000e+00 -6.93227574e-02 -4.00488406e-01 -1.21312320e-01
0.00000000e+00 -9.79984924e-03 1.37140855e-01 -1.24406219e-01
0.00000000e+00 -7.73325376e-03 1.46605313e-01 -1.01765372e-01
0.00000000e+00 1.04213711e-02 -1.03299342e-01 8.75759944e-02
0.00000000e+00 -3.93381435e-03 1.51799336e-01 -2.33111735e-02
0.00000000e+00 -9.71745700e-03 1.48578778e-01 -8.41078684e-02
0.00000000e+00 4.46983241e-03 -1.55486003e-01 5.54339811e-02
0.00000000e+00 -3.17667588e-03 1.72229603e-01 -5.96705563e-02
0.00000000e+00 7.35830690e-04 -1.82171568e-01 2.70205420e-02
0.00000000e+00 8.15338735e-03 -1.80169582e-01 4.21290100e-02
0.00000000e+00 1.87416561e-02 3.11479062e-01 -8.86893272e-03
0.00000000e+00 9.73550882e-03 -1.74838662e-01 9.91666391e-02
0.00000000e+00 5.70002710e-04 -1.84379309e-01 9.25223343e-03
0.00000000e+00 -2.13123430e-02 -3.06427270e-01 4.47191903e-03
0.00000000e+00 -2.23735138e-03 -2.35167474e-01 6.87984424e-03
0.00000000e+00 -1.05171138e-02 1.20244719e-01 -9.10917073e-02
0.00000000e+00 -4.90855053e-03 4.18487638e-01 6.86865002e-02
0.00000000e+00 6.00224920e-03 -1.17450975e-01 8.82103071e-02
0.00000000e+00 -3.90418642e-03 1.46237746e-01 -4.42709029e-02
0.00000000e+00 -9.47851595e-03 1.34077892e-01 -1.40082121e-01
0.00000000e+00 -2.30572652e-03 2.15999484e-01 -4.14361572e-03
0.00000000e+00 8.44196230e-03 3.63293558e-01 8.56768340e-03
0.00000000e+00 7.54350331e-03 -1.27002671e-01 1.10509582e-01
0.00000000e+00 -2.63126800e-03 1.68692425e-01 -3.54368538e-02
0.00000000e+00 -1.22619942e-02 1.11239485e-01 -1.00944266e-01
0.00000000e+00 -8.84831790e-03 1.74005955e-01 -2.94396002e-02
0.00000000e+00 9.14714299e-03 -1.25401169e-01 1.06544495e-01
0.00000000e+00 6.16529258e-03 -1.53079659e-01 6.48732036e-02
0.00000000e+00 -3.86137632e-03 1.57230243e-01 -2.58091316e-02
0.00000000e+00 -6.32626284e-03 1.65190205e-01 -6.91543445e-02
0.00000000e+00 6.79889508e-03 -1.08688235e-01 9.15947333e-02
0.00000000e+00 1.33711537e-02 -1.12822048e-01 9.65642706e-02
0.00000000e+00 -6.96863187e-03 1.68075129e-01 -3.36024910e-02
0.00000000e+00 1.27279609e-02 -1.17009901e-01 1.09435856e-01
0.00000000e+00 -1.42775744e-03 -1.93147689e-01 1.70679260e-02
0.00000000e+00 -2.01470051e-02 1.16022885e-01 -8.43450800e-02
0.00000000e+00 6.55585295e-03 -1.84797853e-01 1.01270042e-02
0.00000000e+00 7.23613333e-03 -1.37477100e-01 1.19987436e-01
0.00000000e+00 -4.51109977e-03 1.46399364e-01 -2.40989737e-02
0.00000000e+00 -5.05653815e-03 1.43497303e-01 -3.34829427e-02
0.00000000e+00 -1.77007932e-02 1.28172502e-01 -1.04062736e-01
0.00000000e+00 -3.28023056e-03 -1.85644433e-01 8.18441994e-03
0.00000000e+00 -1.27362823e-02 1.13927625e-01 -9.93009731e-02
0.00000000e+00 -2.36465642e-03 2.19323859e-03 5.68318844e-01
0.00000000e+00 -7.96569395e-04 -1.87710419e-01 6.47889741e-04
0.00000000e+00 -2.14628987e-02 -9.49328542e-02 7.45160043e-01
0.00000000e+00 6.47151656e-03 -1.37800768e-01 6.70898259e-02
0.00000000e+00 -1.91907808e-02 1.16408646e-01 -9.28395912e-02
0.00000000e+00 -5.12771355e-03 1.15063623e-01 -9.65078324e-02
0.00000000e+00 -2.32615697e-04 3.66057362e-03 -9.26044047e-01
0.00000000e+00 4.26595705e-03 -1.40477434e-01 4.35845070e-02
0.00000000e+00 -1.12059265e-02 1.42908454e-01 -1.29399449e-01
0.00000000e+00 8.60402547e-03 3.42603922e-01 -1.75542440e-02
0.00000000e+00 -2.11529294e-03 1.72258869e-01 -3.85326967e-02
0.00000000e+00 -6.74130255e-03 1.70014739e-01 -4.82580699e-02
0.00000000e+00 -5.83519274e-03 1.38719633e-01 -5.00641093e-02
0.00000000e+00 -1.44557022e-02 -2.40837693e-01 1.53900580e-02
0.00000000e+00 -4.89933882e-03 1.80909827e-01 -3.52897421e-02
0.00000000e+00 3.49083059e-02 4.03716028e-01 -3.38668539e-03
0.00000000e+00 -1.26740336e-02 -2.30655357e-01 -2.77801961e-01
0.00000000e+00 1.47434296e-02 3.71122301e-01 9.69270524e-03
0.00000000e+00 -2.26286016e-02 -2.08380580e-01 -6.64330786e-04
0.00000000e+00 3.05142580e-03 2.74701379e-02 -4.96568173e-01
0.00000000e+00 -5.10626379e-03 -1.08028846e-02 -4.16068316e-01
0.00000000e+00 -7.87380058e-03 1.75311044e-01 -5.37659675e-02
0.00000000e+00 7.14523485e-03 -1.61554024e-01 3.56786177e-02
0.00000000e+00 -9.41805355e-03 1.40974030e-01 -1.33459896e-01
0.00000000e+00 -1.37356305e-02 1.26966551e-01 -1.13112152e-01
0.00000000e+00 7.67456088e-03 -1.33790612e-01 7.09937438e-02
0.00000000e+00 6.78476552e-03 -1.19970962e-01 1.04092509e-01
0.00000000e+00 -7.42419576e-03 2.16644466e-01 -5.76348901e-02
0.00000000e+00 -2.20083888e-03 1.63074568e-01 4.19942243e-03
0.00000000e+00 2.11449079e-02 -1.92854106e-01 -5.51309764e-01
0.00000000e+00 5.92387747e-03 -1.52929515e-01 4.57820855e-02
0.00000000e+00 -3.25885136e-03 1.45563662e-01 -3.54585499e-02
0.00000000e+00 -1.35704493e-02 1.29738227e-01 -1.16407022e-01
0.00000000e+00 1.29905902e-02 -1.43395439e-01 9.66691375e-02
0.00000000e+00 8.44294019e-03 -1.31453320e-01 7.53629655e-02
0.00000000e+00 -2.67143864e-02 -2.39935428e-01 9.09174383e-01
0.00000000e+00 3.06944121e-02 -1.39274612e-01 -3.82635854e-02
0.00000000e+00 9.67607182e-03 -1.50475398e-01 1.14497527e-01
0.00000000e+00 -1.11550810e-02 1.45722613e-01 -9.37588662e-02
0.00000000e+00 -1.91337578e-02 -3.09828043e-01 -2.74025351e-02
0.00000000e+00 8.27875827e-03 -1.24603726e-01 1.05426230e-01
0.00000000e+00 1.22607071e-02 -1.54077858e-01 1.44414470e-01
0.00000000e+00 -3.42945824e-03 1.60467938e-01 -6.21370561e-02
0.00000000e+00 3.59120360e-03 -1.42822638e-01 4.24076729e-02
0.00000000e+00 7.93062989e-03 -1.71062753e-01 7.64052272e-02
0.00000000e+00 1.53117359e-01 1.05403030e+00 6.83854699e-01
0.00000000e+00 1.11373002e-02 -1.21592805e-01 1.08078845e-01
0.00000000e+00 1.01618422e-02 -1.49852395e-01 1.11902729e-01
0.00000000e+00 -2.95185577e-02 -3.78916413e-01 2.31115520e-02
0.00000000e+00 2.29155831e-03 -1.67663738e-01 7.14401454e-02
0.00000000e+00 -3.39730456e-03 1.77257434e-01 -3.99527773e-02
0.00000000e+00 1.33601353e-02 -1.11758426e-01 9.08239782e-02
0.00000000e+00 2.26615295e-02 3.51239115e-01 -4.99975402e-03
0.00000000e+00 5.77313639e-03 -1.43648550e-01 4.59251255e-02
0.00000000e+00 -6.79670554e-03 1.63766205e-01 -3.89672853e-02
0.00000000e+00 -9.38549452e-03 1.47405431e-01 -1.32338658e-01
0.00000000e+00 -2.28057033e-03 -1.99531466e-01 4.67376830e-03
0.00000000e+00 1.35488193e-02 -1.08449519e-01 9.66695100e-02
0.00000000e+00 -8.57133698e-03 1.17248513e-01 -1.04601555e-01
0.00000000e+00 1.32975560e-02 -1.21669203e-01 9.36890468e-02
0.00000000e+00 -4.94657550e-03 1.71189606e-01 -4.73394990e-02
0.00000000e+00 -8.52457527e-03 1.33095965e-01 -1.01815298e-01
0.00000000e+00 3.26726888e-03 -1.66069150e-01 5.24070337e-02
0.00000000e+00 8.23485316e-05 1.93765923e-01 1.20426156e-03
0.00000000e+00 2.29192479e-03 -1.55737564e-01 2.70838141e-02
0.00000000e+00 -9.04890615e-03 1.22316845e-01 -8.17148164e-02
0.00000000e+00 6.15792535e-03 -1.12791814e-01 1.09577648e-01
0.00000000e+00 3.58711393e-03 -1.71806201e-01 5.16480543e-02
0.00000000e+00 9.05617978e-03 -1.19799800e-01 9.70292315e-02
0.00000000e+00 -6.33394532e-03 1.55888334e-01 -4.02714647e-02
0.00000000e+00 2.15885155e-02 3.49963218e-01 -9.05823242e-03
0.00000000e+00 9.26747639e-03 -1.15188964e-01 1.03537418e-01
0.00000000e+00 -3.23007405e-02 -4.08911526e-01 1.83595791e-02
0.00000000e+00 1.01360912e-02 -1.15466565e-01 1.00980066e-01
0.00000000e+00 -7.43588945e-03 1.44918188e-01 -9.59544182e-02
0.00000000e+00 2.49906927e-02 3.90715361e-01 1.27575397e-02
0.00000000e+00 -5.01348451e-03 -1.70792993e-02 3.73840958e-01
0.00000000e+00 -1.56108756e-03 -2.07013413e-01 -9.24944784e-03
0.00000000e+00 8.42943694e-03 -1.40048444e-01 7.61244670e-02
0.00000000e+00 2.81514670e-03 2.01968834e-01 -2.84158122e-02
0.00000000e+00 -7.44482083e-03 -2.54497796e-01 3.25122923e-01
0.00000000e+00 4.68285903e-02 3.43305290e-01 1.18666410e-01
0.00000000e+00 2.25174297e-02 3.78071606e-01 9.02714580e-03
0.00000000e+00 4.32154723e-03 -1.48343787e-01 4.20258939e-02
0.00000000e+00 -1.72046330e-02 1.31298482e-01 -1.08573355e-01
0.00000000e+00 -1.04743848e-02 1.49501070e-01 -1.29171744e-01
0.00000000e+00 1.89825811e-03 -1.99486658e-01 3.44657153e-02
0.00000000e+00 -4.36244626e-03 1.56802714e-01 -3.49998251e-02
0.00000000e+00 1.69703476e-02 2.66120285e-01 -7.07242712e-02
0.00000000e+00 5.28957509e-03 1.49082199e-01 -5.12102153e-03
0.00000000e+00 -1.95059739e-03 1.34228602e-01 -5.23080230e-02
0.00000000e+00 -4.95646708e-03 1.63694903e-01 -3.22416574e-02
0.00000000e+00 6.71410421e-03 -1.32597491e-01 8.52584466e-02
0.00000000e+00 -6.15168456e-03 1.13753699e-01 -8.29313099e-02
0.00000000e+00 -1.58761833e-02 -1.50730923e-01 2.83285230e-01
0.00000000e+00 -2.13135639e-03 1.61988378e-01 -3.20469099e-03
0.00000000e+00 4.00973484e-03 -1.39845461e-01 7.10389093e-02
0.00000000e+00 -5.90168545e-03 1.65769920e-01 -7.04892501e-02
0.00000000e+00 1.37490155e-02 -1.26911953e-01 9.76855606e-02
0.00000000e+00 -6.23033615e-03 1.29320875e-01 -1.13402709e-01
0.00000000e+00 -6.29762560e-03 1.91635534e-01 -4.39855978e-02
0.00000000e+00 -9.28187463e-03 1.42550692e-01 -1.35534629e-01
0.00000000e+00 9.42889787e-03 -1.06982276e-01 9.91770774e-02
0.00000000e+00 -5.26452810e-03 1.40437678e-01 -5.24690375e-02
0.00000000e+00 -5.48769813e-03 2.57626802e-01 7.32150674e-03
0.00000000e+00 2.29248148e-03 -3.31750304e-01 2.59029344e-02
0.00000000e+00 8.15868657e-03 -1.38487920e-01 1.16903178e-01
0.00000000e+00 -6.93896180e-03 1.51483774e-01 -8.47164616e-02
0.00000000e+00 6.57245843e-03 -1.22357033e-01 8.88138115e-02
0.00000000e+00 -3.33142094e-03 7.62685910e-02 7.14856461e-02
0.00000000e+00 1.05185602e-02 -1.11986287e-01 9.30654034e-02
0.00000000e+00 8.33798375e-04 6.10907495e-01 1.73156299e-02
0.00000000e+00 1.62060019e-02 -1.21288374e-01 9.96748134e-02
0.00000000e+00 1.94219686e-02 -1.05885021e-01 7.50307143e-02
0.00000000e+00 -1.16028255e-02 1.06216215e-01 -8.07240978e-02
0.00000000e+00 8.12487397e-03 -1.39995277e-01 1.00800455e-01
0.00000000e+00 6.40750106e-04 2.27180824e-01 -1.32813090e-02
0.00000000e+00 4.85897326e-04 1.97896823e-01 2.47325224e-04
0.00000000e+00 -2.79308148e-02 -3.12303066e-01 -1.05496598e-02
0.00000000e+00 -8.50207638e-03 1.12051629e-01 -9.19135660e-02
0.00000000e+00 6.63632806e-03 -1.71008348e-01 1.08032607e-01
0.00000000e+00 1.74182188e-02 -1.14034869e-01 7.81168342e-02
0.00000000e+00 -3.95161174e-02 -3.78469795e-01 4.22399342e-02
0.00000000e+00 -9.89199243e-03 1.40198946e-01 -1.33995101e-01
0.00000000e+00 2.19047815e-02 3.23267281e-01 4.63534981e-01
0.00000000e+00 8.67375731e-03 -1.01133406e-01 8.46955255e-02
0.00000000e+00 1.14169531e-02 -1.52011722e-01 1.34967849e-01
0.00000000e+00 7.93081988e-03 -1.65649503e-01 3.38508412e-02
0.00000000e+00 1.67338345e-02 -9.99979228e-02 7.10044205e-02
0.00000000e+00 2.59653805e-03 2.29802117e-01 9.39011516e-04
0.00000000e+00 8.57544132e-04 -1.90930501e-01 1.85416956e-02
0.00000000e+00 -1.48857785e-02 1.28029227e-01 -1.01749361e-01
0.00000000e+00 7.31544802e-03 -1.49409994e-01 4.57834080e-02
0.00000000e+00 -1.47594686e-03 1.44183427e-01 -6.13571107e-02
0.00000000e+00 9.27840825e-03 -1.23588555e-01 1.03089988e-01
0.00000000e+00 -3.73093714e-03 1.54260546e-01 -4.73288745e-02
0.00000000e+00 1.45195900e-02 -1.37444451e-01 1.26631260e-01
0.00000000e+00 -6.48006424e-03 1.50487274e-01 -1.39141351e-01
0.00000000e+00 2.68998498e-04 -1.38690069e-01 3.30786295e-02
0.00000000e+00 8.43907997e-04 -1.62807137e-01 3.09777278e-02
0.00000000e+00 -6.76104147e-03 1.79047242e-01 -5.40979803e-02
0.00000000e+00 -5.04401140e-03 1.12586968e-01 -8.07475895e-02
0.00000000e+00 -4.38975058e-02 -4.18368787e-01 9.09014326e-03
0.00000000e+00 2.70853974e-02 3.73660833e-01 -1.51916146e-02
0.00000000e+00 -2.99195829e-03 1.64875731e-01 -6.20777234e-02
0.00000000e+00 -5.92129538e-03 1.50182605e-01 -7.11132288e-02
0.00000000e+00 8.59562960e-03 -1.27681464e-01 1.03286631e-01
0.00000000e+00 -5.75204100e-03 1.43777579e-01 -1.35150000e-01
0.00000000e+00 -3.39533226e-03 -3.61157268e-01 2.90443730e-02
0.00000000e+00 1.34711638e-02 -1.27700403e-01 1.25291854e-01
0.00000000e+00 -2.18659490e-02 1.42569378e-01 -9.57216471e-02
0.00000000e+00 5.50977141e-02 -3.16196203e-01 -2.35993136e-02
0.00000000e+00 6.25271059e-04 -2.00410366e-01 1.50242774e-02
0.00000000e+00 -5.29687898e-03 -1.76358715e-01 -5.84760401e-03
0.00000000e+00 -5.99075109e-03 1.44815832e-01 -1.16486318e-01
0.00000000e+00 -7.70111848e-03 1.28291816e-01 -8.56619179e-02
0.00000000e+00 8.54169950e-03 -1.32275462e-01 9.00570005e-02
0.00000000e+00 -5.79928281e-03 1.20062910e-01 -9.02670324e-02
0.00000000e+00 -3.28696286e-03 1.70215517e-01 -4.83854711e-02
0.00000000e+00 -9.48326848e-03 1.31696314e-01 -1.13314912e-01
0.00000000e+00 -4.30960814e-03 2.09990665e-01 -2.23018259e-01
0.00000000e+00 4.18686448e-03 -1.46683186e-01 9.41192880e-02
0.00000000e+00 -1.16377115e-01 1.95935741e-01 2.61288583e-02
0.00000000e+00 -7.84855057e-03 -9.34111595e-01 -6.76977029e-03
0.00000000e+00 -9.19577107e-03 1.18655995e-01 -1.04580685e-01
0.00000000e+00 -6.25953590e-03 1.28002927e-01 -7.57375136e-02
0.00000000e+00 1.16214796e-03 -1.58303842e-01 4.11695912e-02
0.00000000e+00 3.30111086e-01 5.71149588e-01 3.31648402e-02
0.00000000e+00 -2.21944228e-03 8.30397457e-02 -5.93216345e-02
0.00000000e+00 -7.69707486e-02 -2.54180789e-01 8.88461154e-03
0.00000000e+00 8.28276505e-04 -1.97463617e-01 1.48062930e-02
