7.31725767e-02 8.70299246e-03 8.82824436e-02 8.13491084e-03 1.03726573e-01 -1.56892598e-01 -2.87796497e-01 -5.75619005e-03 1.11066550e-01 -1.61552608e-01 6.33959174e-02 1.14444718e-01 9.26610231e-02 -6.88906237e-02 8.24962556e-02 -6.83079511e-02 9.48622525e-02 -1.25514632e-02 -8.23584124e-02 -1.04872786e-01 9.12691653e-01 1.09185511e-02 1.29484713e-01 -1.73124924e-01 5.09872548e-02 6.44471049e-02 8.29385892e-02 3.13557610e-02 -1.73827589e-01 9.85091552e-02 8.93180221e-02 8.59164521e-02 -4.80251223e-01 -2.93801855e-02 -1.10940263e-01 7.01407418e-02 1.09551288e-01 1.00773506e-01 2.61875317e-02 7.68298581e-02 2.54612230e-02 -2.58826111e-02 1.17008582e-01 5.21566458e-02 -1.10861376e-01 -1.43549994e-01 -1.18877396e-01 7.42649958e-02 -4.26863879e-02 -8.77141804e-02 1.31265923e-01 -1.19291328e-01 7.20256418e-02 5.94025888e-02 -1.93843208e-02 -9.63091552e-02 7.96761215e-02 1.20330669e-01 -1.85628742e-01 -1.17440529e-01 -2.13782355e-01 -8.87620524e-02 -4.97659445e-02 -9.36249942e-02 -8.06328654e-02 -7.34336954e-03 6.46172017e-02 -3.55615700e-03 -1.77628264e-01 6.84178695e-02 -1.41367063e-01 -1.80856809e-01 2.83757336e-02 9.34420377e-02 -9.86213014e-02 -1.02772117e-01 -1.15311079e-01 -1.37329072e-01 8.63417834e-02 1.32081494e-01 -9.54801515e-02 6.09527528e-02 9.96297896e-02 2.14071460e-02 1.09024644e-01 -8.36237669e-02 -5.99575462e-03 -1.20347120e-01 7.74782673e-02 8.10399279e-02 -1.07456371e-01 4.60487641e-02 -6.91744238e-02 9.30103064e-02 -8.37210789e-02 1.05898947e-01 -8.73748362e-02 -2.08010510e-01 -1.14121430e-01 3.54126096e-02 -1.02450438e-01 -1.05364457e-01 3.14634293e-01 -8.72581378e-02 -6.32098764e-02 8.24134126e-02 -9.00430754e-02 1.44598648e-01 -3.11591215e-02 -3.89666051e-01 -1.20622851e-01 -1.21731587e-01 -1.02397323e-01 -1.04496365e-04 6.96304590e-02 5.60470531e-03 -8.75074565e-02 7.70565271e-02 1.87335461e-01 1.03279784e-01 -8.67785066e-02 -1.49519622e-01 -5.41876070e-03 1.35959327e-01 1.38158277e-01 -6.82353675e-02 -4.79056090e-02 1.38292660e-03 -8.70787632e-03 1.20890655e-01 7.80394077e-02 -9.60333049e-02 -1.34765431e-01 -1.64351903e-03 -1.48982644e-01 -1.72150329e-01 2.29456708e-01 1.26477376e-01 -1.00596929e+00 1.17236329e-02 -8.61364231e-03 -2.42902078e-02 1.05147386e+00 -1.43366173e-01 2.56590009e-01 3.06315690e-01 -1.36026675e-02 -1.43474117e-01 3.63136269e-02 1.39980197e+00 7.15464819e-03 8.34535882e-02 2.70650238e-02 4.20498997e-02 -6.67984411e-02 -5.78131620e-03 6.78458512e-02 4.92013022e-02 -1.08114406e-01 -1.04375236e-01 8.82098749e-02 -1.14118122e-01 -7.03129828e-01 8.52199048e-02 7.72604570e-02 9.10204947e-02 -7.57811964e-02 9.91378278e-02 -9.29200053e-02 7.26370811e-02 3.43088239e-01 -2.34908480e-02 2.13032942e-02 -1.73083192e-03 -2.97842398e-02 8.70287567e-02 8.52622241e-02 -4.32155691e-02 1.09301269e-01 -1.55859245e-02 -1.66116819e-01 1.44505620e-01 2.71232259e-02 -1.43729001e-01 3.19281220e-02 6.17881380e-02 -9.96524990e-02 -1.57154223e-03 1.17622510e-01 -1.39286116e-01 1.60862401e-01 -1.41392887e-01 -1.56996980e-01 5.14274947e-02 7.86224902e-02 -4.72303201e-03 6.49364144e-02 4.23632786e-02 5.03459014e-02 6.27005622e-02 -1.32953316e-01 -1.34744748e-01 1.14631198e-01 1.22424901e-01 2.76422817e-02 4.36388887e-02 6.72851503e-02 9.68610682e-03 3.77309918e-01 9.95263308e-02 5.45300357e-03 -9.67634320e-02 -4.58240956e-02 8.62070322e-02 8.28436613e-02 1.27102420e-01 -2.11069696e-02 -4.79858974e-03 -1.25512838e-01 -1.87250078e-02 -5.60875535e-02 1.59511026e-02 2.95093685e-01 -1.27968207e-01 3.06082461e-02 -1.48188651e-01 -1.49538480e-02 2.22132611e-03 4.72003594e-03 -1.17470756e-01 1.12041458e-01 4.08924669e-02 1.29230529e-01 5.08424714e-02 2.99979866e-01 5.65611236e-02 -6.71174750e-02 1.02392174e-01 1.25446036e-01 -8.69174004e-02 -1.01968452e-01 9.48683918e-02 -8.07090551e-02 4.98302206e-02 -4.91661429e-02 -1.18751600e-01 -1.63356401e-02 1.05473399e-01 -7.24656507e-02 1.35680318e-01 8.78013000e-02 8.19833875e-02 -9.54155549e-02 -1.65344819e-01 1.18342303e-01 6.42625466e-02 1.00367680e-01 -1.22554922e+00 1.08948037e-01 1.13688685e-01 -9.19062793e-02 -1.14596903e-01 1.31338537e-01 3.18255019e-03 -1.24704026e-01 3.68975341e-01 -3.25722992e-02 9.17531922e-02 6.03372082e-02 1.07349671e-01 -1.07679553e-01 -5.77053726e-02 1.01413161e-01 -9.07666013e-02 8.64585936e-02 1.36271805e-01 8.33812281e-02 1.52219713e-01 -9.95049328e-02 -1.20978868e-02 -1.52341604e-01 -1.53913528e-01 -1.48049071e-01 -1.94700927e-01 3.47247384e-02 1.07084662e-01 1.10111368e+00 3.26803058e-01 -1.33558303e-01 -1.09258763e-01 -9.03603733e-02 -2.14028936e-02 -1.05922520e-01 1.29794538e-01 4.03242558e-03 -1.63673028e-01 -9.29518417e-02 -3.10944696e-03 -6.25201128e-03 -1.64515421e-01 -8.66284668e-02 3.92465340e-03 9.09555778e-02 -1.56689191e-03 -9.55674797e-02 1.15511350e-01 3.22682373e-02 -1.18523657e-01 -8.48647282e-02 4.07945275e-01 -1.25560379e-02 -1.01266213e-01 -9.30162147e-02 -1.04162823e-02 8.07035789e-02 -4.47709203e-01 1.28596723e-01 3.31127114e-04 1.21830998e-03 8.53697434e-02 -1.12534940e-01 8.57060552e-02 -1.00274876e-01 -1.09712481e-01 -2.38873623e-02 -9.24059004e-02 -2.36015785e-02 1.54437870e-01 9.68211144e-02 -2.32192837e-02 -5.89448921e-02 -1.02736935e-01 9.62778926e-02 -4.53915857e-02 1.35469213e-01 8.54926109e-02 -1.08723313e-01 9.44828093e-02 7.79572204e-02 -1.14558950e-01 1.03078328e-01 1.23514077e-02 -1.39024901e+00 9.99046564e-02 -5.69463223e-02 8.25972762e-03 8.39828253e-02 7.82288238e-02 -3.17588961e-03 -7.90958256e-02 1.47824079e-01 -4.57337312e-02 3.48725803e-02 -1.62255943e-01 -1.57586068e-01 -1.83581963e-01 8.56609549e-03 -7.01578259e-02 -2.07837299e-01 -7.94088542e-02 -9.14132148e-02 -9.83399972e-02 5.91361858e-02 1.51033863e-01 -1.63843066e-01 -9.01690423e-02 1.34038270e-01 7.12491348e-02 -8.80718678e-02 -1.13451891e-01 1.15744501e-01 1.23610437e-01 -3.59342596e-03 1.11305088e-01 1.19256504e-01 2.36761514e-02 9.39518362e-02 -2.86005229e-01 -1.09433956e-01 1.12195618e-01 1.03198858e-02 2.50130385e-01 -1.36144698e-01 9.19530988e-02 1.07183889e-01 2.93141976e-02 -2.06394121e-01 -1.42670080e-01 -4.22444846e-03 1.19323647e-02 -6.82093501e-02 -8.81957561e-02 5.37110448e-01 -1.24029458e-01 -1.66997030e-01 -1.21081352e-01 7.27943406e-02 -1.61052912e-01 1.42565416e-02 -1.02509856e-02 -7.03349710e-02 -1.40872970e-01 -1.47720069e-01 7.48662353e-02 6.29431531e-02 -1.35431111e-01 8.75068754e-02 -2.13412587e-02 8.71767998e-02 8.30937624e-02 8.87206104e-03 1.96997553e-01 -1.93560347e-01 -1.51544720e-01 -6.33896887e-02 7.80117661e-02 4.98338044e-02 -9.27706212e-02 -1.44332806e-02 7.17682317e-02 -1.40603960e-01 1.25013620e-01 7.63804391e-02 9.36468989e-02 1.14435934e-01 1.08338207e-01 -9.95008573e-02 2.07841191e-02 1.30042404e-01 -1.58073857e-01 -1.57387272e-01 1.23699404e-01 -7.49852583e-02 -9.12214741e-02 -3.46982405e-02 -1.08316285e-03 8.01550150e-02 1.74847040e-02 2.38629919e-03 -8.39812160e-02 -1.75748486e-02 9.69447717e-02 -9.19509586e-03 1.92628782e-02 2.49084290e-02 -1.62811682e-01 -7.88359493e-02 -3.71694863e-02 2.07913015e-02 3.75160053e-02 -1.43424258e-01 -5.78630984e-01 -1.11027829e-01 6.78740442e-02 1.24929391e-01 -1.43839225e-01 -8.89598057e-02 -2.93309003e-01 -1.13161236e-01 6.42212331e-02 -1.39511982e-03 1.20812483e-01 1.34816682e-02 -6.93006217e-02 9.58813056e-02 2.29880195e-02 -1.08832188e-01 -5.10726720e-02 -1.08061232e-01 -1.50107041e-01 -8.97090808e-02 -2.81136483e-03 3.75627838e-02 -1.81091379e-03 8.50471854e-02 -2.04513654e-01 -6.70122355e-02 -1.13801077e-01 -1.47319108e-01 -2.10042536e-01 -1.49566665e-01 9.37007219e-02 1.25402078e-01 -1.05079427e-01 -1.57357693e-01 -1.41689032e-01 8.31220672e-02 1.10097773e-01 -3.29441726e-01 -1.82627976e-01 -1.50148302e-01 -3.49300774e-03 1.16734440e-02 9.75038111e-02 -1.43398821e-01 -1.68014735e-01 8.60552862e-03 1.10554010e-01 -7.27678761e-02 -4.01761383e-02 -4.99393158e-02 -8.25063810e-02 1.09001793e-01 -1.52741671e-01 7.55606741e-02 7.80093595e-02 -1.26324266e-01 -9.10824444e-03 6.72572628e-02 -8.27963799e-02 -1.53965235e-01 -1.92369744e-01 9.23903435e-02 -8.75739828e-02 1.23132430e-01 1.43302575e-01 -8.93412083e-02 3.92041296e-01 1.12628214e-01 1.18504427e-01 -8.00950378e-02 4.62351777e-02 8.68341252e-02 6.67060688e-02 4.33174819e-02 4.42404812e-03 7.50898048e-02 -1.11715384e-01 -2.77088932e-03 1.24030896e-02 6.35775849e-02 -7.51550421e-02 1.91833563e-02 1.14437580e-01 3.49564463e-01 -1.84488818e-01 1.12060174e-01 -9.48168933e-02 8.42277929e-02 -8.23582616e-03 1.91498548e-02 1.43110678e-02 -1.65972784e-02 1.27244205e-03 4.12561655e-01 1.08947799e-01 -1.58059627e-01 4.16819632e-01 3.42023939e-01 1.25626549e-01 9.33129340e-02 -1.41166940e-01 -1.36216348e-02 1.15860440e-02 1.53469872e-02 -8.03317353e-02 5.26303239e-03 9.18199793e-02 -3.94830883e-01 -1.09706908e-01 7.40277246e-02 9.96845365e-02 1.60047859e-02 1.29666954e-01 -1.16848089e-01 5.66545986e-02 -1.06816366e-01 -1.07636295e-01 -8.22336450e-02 1.13518778e-02 1.01128593e-01 1.19208694e-01 8.34483653e-02 1.21730357e-01 8.06471333e-02 1.40919741e-02 3.06671057e-02 9.94448289e-02 -1.31986871e-01 -1.15259409e+00 1.32849455e-01 -7.12279696e-03 -1.67728156e-01 -1.18846469e-01 -1.33172348e-02 -1.78785354e-01 -8.43751371e-01 -8.91708061e-02 1.15209669e-01 1.23319728e-02 -1.28588721e-01 5.98760247e-02 -1.33041918e-01 -1.16173118e-01 6.48459047e-02 1.45512819e-01 -1.34172151e-02 5.40924668e-02 8.44478160e-02 8.56482089e-02 -7.15879425e-02 1.17236555e-01 -2.83774342e-02 -1.75205901e-01 -9.45194997e-03 7.71102980e-02 -8.88143778e-02 1.09663516e-01 7.44942203e-02 8.18536207e-02 3.77127267e-02 -1.71618938e-01 1.15737550e-01 1.36630520e-01 7.36746863e-02 -1.20195001e-01 3.21514159e-02 8.82260725e-02 1.41426936e-01 4.91574639e-03 1.07194252e-01 -1.33408353e-01 5.62648624e-02 -9.59090889e-02 4.25816607e-03 -1.48028761e-01 8.57640579e-02 8.27764198e-02 9.58254486e-02 -7.63702998e-03 1.31401569e-01 -1.08347856e-01 -6.26883283e-02 -5.75478189e-02 -1.26226872e-01 -1.15152597e+00 4.74586278e-01 -8.61335248e-02 4.37217345e-03 5.33135086e-02 -1.56520486e-01 -9.37725082e-02 8.46176594e-02 -1.91741377e-01 -5.07480145e-01 1.04914248e-01 -1.41538009e-01 -1.74635395e-01 -4.95486194e-03 1.34648189e-01 -7.15556592e-02 7.13960901e-02 2.65698731e-02 1.41095251e-01 3.05151623e-02 -2.09897593e-01 -1.96673479e-02 -1.88563648e-03 8.40352029e-02 8.16994458e-02 -2.70633330e-03 5.72012477e-02 -1.65220231e-01 1.46742821e-01 -5.82964607e-02 1.02199435e-01 -6.26972094e-02 6.98274896e-02 -4.91895946e-03 -1.98985949e-01 6.76613301e-02 -5.50229335e-03 4.46213372e-02 1.35555848e-01 1.38103589e-01 1.23182654e-01 -1.06482650e-03 -1.24510564e-01 1.06226027e-01 -1.54264137e-01 -8.03707913e-02 9.40353668e-04 -1.60746649e-01 2.30424087e-02 -1.56726384e+00 -1.53824925e-01 1.36387616e-01 1.12343684e-01 -1.90888345e-01 -5.74080087e-02 -9.44373533e-02 -1.91937238e-01 1.13684550e-01 -1.79550126e-01 -8.12440459e-03 -1.59671724e-01 7.45611042e-02 9.79161412e-02 -9.78903323e-02 -1.01803698e-01 8.31605867e-02 1.09128207e-02 -9.60377529e-02 1.19578123e-01 1.29780695e-01 1.03214890e-01 -7.55627900e-02 7.43690133e-02 -5.12379967e-02 -9.96730030e-02 3.18807550e-02 3.43521163e-02 -4.75751013e-02 1.22671507e-01 4.35211658e-02 -3.34790871e-02 9.06433538e-02 -3.80590255e-03 9.55043659e-02 -2.40237080e-03 -2.12798156e-02 1.49869204e-01 3.76795307e-02 7.40045309e-02 -5.25686383e-01 -1.34842284e-02 7.06384107e-02 -6.50647506e-02 -1.05433926e-01 -1.52764410e-01 6.77113831e-02 -9.99432355e-02 1.07723609e-01 -1.55805305e-01 2.26156414e-02 -1.32786864e-02 3.32624512e-03 1.50930241e-01 3.22411172e-02 3.76737467e-03 -9.37520787e-02 1.46133290e-03 -1.46918431e-01 -1.66250303e-01 -2.50207726e-02 -7.97052309e-03 -1.42999189e-02 -1.69993937e-02 6.61980212e-02 6.53559640e-02 4.91602980e-02 -4.92481776e-02 8.49470645e-02 -9.15917277e-01 1.02009319e-01 6.32522404e-02 -8.54442641e-02 -1.31420881e-01 1.02174377e+00 -1.00180559e-01 9.40405875e-02 -1.09831179e-02 -9.52635184e-02 1.27328366e-01 3.35748717e-02 1.04508959e-02 9.93348435e-02 4.43583354e-03 -8.52379799e-02 7.15225711e-02 6.70102164e-02 1.07742031e-03 -6.61819652e-02 1.30388075e-02 -1.62123486e-01 1.03858911e-01 1.02406479e-01 -1.59437001e-01 -7.38505134e-03 1.00914583e-01 -1.43090159e-01 -7.58172153e-03 -1.98526047e-02 -8.43499824e-02 7.93551430e-02 8.42621401e-02 6.46772534e-02 9.20723453e-02 -1.53447315e-02 -1.33208081e-01 1.52283153e-02 1.88897680e-02 1.19822785e-01 3.22546363e-02 8.63476321e-02 1.00985661e-01 4.84885788e-03 -1.00601241e-01 -8.75840336e-02 -3.77623111e-01 -1.27807796e-01 -1.42219990e-01 -9.57918167e-02 2.03942172e-02 -1.17157876e-01 -9.78301913e-02 9.16789323e-02 -1.47953685e-02 5.54456785e-02 3.13544460e-02 -8.61829966e-02 -1.08231772e-02 2.69852225e-02 -2.56221872e-02 -1.96303762e-02 8.13366473e-02 4.71275240e-01 -2.20260695e-01 -7.61305809e-01 -1.57432452e-01 5.83765171e-02 5.30734251e-04 -8.20111707e-02 4.76162508e-02 1.08016238e-01 1.29292995e-01 9.24773067e-02 -6.91476226e-01 -7.88885430e-02 7.74791166e-02 1.17552057e-01 -1.56441227e-01 -8.97095501e-02 3.16498429e-02 -8.88793096e-02 8.49445686e-02 9.11196470e-02 8.82538036e-02 -2.46022716e-02 -3.17694619e-03 -6.03504404e-02 -8.54623392e-02 8.87057483e-02 -7.73551315e-02 -1.70224011e-01 9.40767080e-02 5.09674326e-02 8.78138021e-02 -8.65906700e-02 6.61437726e-03 -1.21320568e-01 6.02024570e-02 1.23592086e-01 1.02416061e-01 -1.56479463e-01 -1.15768313e-01 -7.76990205e-02 7.80669507e-03 -1.63054168e-01 1.30057290e-01 1.92464180e-02 1.63759857e-01 9.80873480e-02 5.41808344e-02 8.97847340e-02 -1.11869723e-01 1.39415383e-01 9.00319815e-02 -1.33623704e-01 2.71221786e-03 9.08664986e-02 7.16755837e-02 -1.21450871e-01 4.23256345e-02 -1.63433224e-01 -5.62470257e-02 -8.54913667e-02 -1.29877046e-01 -1.51547700e-01 5.63369580e-02 -1.43968508e-01 -1.34853661e-01 1.06314957e-01 1.06527783e-01 -1.12938499e-02 7.51739964e-02 -1.04613073e-01 1.18353844e-01 -5.40192015e-02 6.32218570e-02 1.01291038e-01 -4.85795550e-02 -9.49283004e-01 -1.01259440e-01 9.05688182e-02 -7.92330969e-03 8.57399032e-02 -1.37403071e-01 1.68566033e-02 -2.93058204e-03 1.27235651e-01 1.28801763e-01 -7.24514797e-02 -1.65466115e-01 1.05363995e-01 8.05322304e-02 8.30126405e-02 -2.00052909e-03 3.62888314e-02 7.00950697e-02 9.05900672e-02 -1.12187073e-01 -1.24168247e-01 1.20868497e-02 -1.58446729e-01 2.72026081e-02 1.48157575e-04 1.06166661e-01 3.65714543e-02 -7.52423331e-02 -1.06064923e-01 7.70542398e-02 -5.27955927e-02 -9.93642136e-02 -1.38413385e-01 1.19304977e-01 3.77903096e-02 -1.30253971e-01 1.42369140e-02 -1.00225818e+00 5.70985675e-02 1.65699590e-02 -1.61576476e-02 -7.27372542e-02 -1.20210484e-01 4.51786444e-02 7.19923154e-02 6.22397251e-02 -4.05395462e-04 -1.67743012e-01 -1.58087224e-01 -1.06278740e-01 -8.62582475e-02 -8.97880122e-02 1.24891058e-01 7.82212317e-02 1.50561726e+00 1.07930923e+00 1.31981503e-02 -8.05718452e-02 -1.63550228e-01 7.38301277e-02 1.51170408e-02 -1.57703713e-01 7.28920475e-02 4.56805639e-02 9.50890481e-02 1.36917397e-01 1.28841713e-01 3.52820046e-02 -1.16105869e-01 9.02635008e-02 -1.70396492e-01 -1.44999519e-01 5.26277460e-02 -8.11396688e-02 1.21756874e-01 1.08541116e-01 1.15851417e-01 9.58201662e-02 -1.18220575e-01 -3.08560301e-02 -8.08022082e-01 1.06593817e-01 -7.63524994e-02 -1.19006053e-01 1.31491482e-01 9.73536819e-02 -2.01465026e-01 1.30164012e-01 1.33657917e-01 8.14139247e-02 -1.46627754e-01 2.66756900e-02 7.80412108e-02 9.57418010e-02 -2.13662582e-03 9.81789902e-02 4.67954986e-02 1.14922650e-01 -1.29651189e-01 1.26615107e-01 -9.40103233e-02 -5.80186211e-02 -3.61171998e-02 -1.66628763e-01 -3.95221543e-03 1.24220615e-02 -3.43014374e-02 1.24201685e-01 -1.55390784e-01 -8.51094276e-02 9.99183431e-02 6.11058809e-02 -4.01653290e-01 -7.83069208e-02 8.20379630e-02 6.60837740e-02 5.26111536e-02 -8.65449309e-02 6.84283376e-02 9.15095210e-02 8.36242214e-02 -8.95127878e-02 1.29930705e-01 -9.84369963e-02 -5.31497002e-02 7.27458373e-02 1.36682600e-01 1.26053885e-01 5.19746765e-02 6.13135770e-02 7.98375756e-02 1.12071097e-01 -3.09329126e-02 -3.75806354e-02 9.12351236e-02 -9.74730775e-03 -1.59861267e-01 9.87603292e-02 -1.46170244e-01 1.06925108e-01 1.95623994e-01 -5.35761844e-03 -2.61640437e-02 2.48840660e-01 8.52317363e-02 1.18849263e-01 -1.41194925e-01 -1.07315056e-01 -9.34881344e-02 -1.33811742e-01 4.47228365e-02 6.14870414e-02 7.99615979e-02 1.31532490e-01 7.85049558e-01 -1.12211257e-01 8.47349167e-02 8.07940140e-02 7.43379444e-02 -1.46149443e-02 -1.31456301e-01 1.16874844e-01 -1.48638934e-01 1.30069792e-01 5.37210107e-02 1.08118020e-01 -7.93758109e-02 1.24926932e-01 -3.26364130e-01 -1.27655113e+00 -1.33782336e-02 -1.32736936e-02 -7.61587143e-01 -1.81340724e-01 -2.55117714e-01 1.09919712e-01 1.02606207e-01 -1.55918840e-02 1.13563091e-01 6.41864091e-02 1.33403704e-01 1.99992098e-02 -1.12638883e-01 -1.33577541e-01 5.09448349e-01 -1.13907948e-01 7.90493116e-02 -3.47447698e-03 7.72327259e-02 9.71285999e-02 -3.98405045e-02 6.35428028e-03 7.86769316e-02 -1.40897885e-01 7.83995017e-02 -1.59558710e-02 1.26383439e-01 -8.07744786e-02 -2.09106421e+00 2.67570429e-02 -1.41179785e-01 2.62191147e-02 -6.84765773e-03 1.68306202e-01 -1.38972282e-01 6.70697317e-02 4.38363738e-02 -1.30620122e-01 3.12065296e-02 -1.16857126e-01 1.54007062e-01 -2.10604686e-02 6.28949329e-02 4.88465726e-02 -1.05676723e+00 -8.12997967e-02 5.96681014e-02 3.72810930e-01 1.00935102e-01 -4.33880910e-02 1.40156686e-01 -9.15128645e-03 1.20661169e-01 -8.48211199e-02 3.82529874e-03 6.73384294e-02 3.90837491e-01 6.56283498e-02 -1.02194235e-01 1.11634746e-01 -1.12072758e-01 1.01113081e-01 3.30392942e-02 -1.07200511e-01 -3.65038700e-02 1.20844185e-01 8.32611993e-02 -1.65364772e-01 1.00430258e-01 6.53864294e-02 -2.01111641e-02 9.13541913e-02 -1.50014356e-01 5.87985069e-02 8.29171985e-02 2.24908739e-02 7.89634883e-02 5.95482178e-02 1.08340822e-01 1.25942916e-01 1.02655515e-01 -1.20109953e-01 1.24783151e-01 3.12267598e-02 1.22503258e-01 -2.63578109e-02 -1.82373414e-03 7.82661662e-02 -3.22049677e-01 -2.67123938e-01 7.72684067e-02 -1.60655946e-01 -6.29809871e-02 -4.42028902e-02 1.12184182e-01 4.59030010e-02 7.42405653e-02 9.49048623e-02 -1.56925827e-01 1.91810669e-03 9.98428687e-02 -1.52064398e-01 -9.34263170e-02 1.38126150e-01 -5.67263551e-03 9.62979719e-02 1.02198422e-01 1.57276690e-01 2.63728738e-01 -5.53333492e-04 -2.25224029e-02 -1.20131582e-01 8.57470483e-02 -4.19905735e-03 2.57359259e-02 -1.56266674e-01 -1.21066406e-01 -9.77397487e-02 7.99565092e-02 1.07680187e-02 1.09940484e-01 -1.65642291e-01 2.06764252e-03 -6.38395082e-03 1.04962729e-01 1.33412995e-03 -6.12449162e-02 8.81682709e-02 -1.09944995e-02 7.33445510e-02 4.06905860e-02 -1.06071882e-01 -7.73354843e-02 7.36268908e-02 2.43837166e+00 8.16904008e-02 1.28870189e-01 -6.58856407e-02 1.39651790e-01 6.44232854e-02 -5.46706142e-03 -1.45630836e-01 1.84133351e-02 7.80669153e-02 1.16704665e-01 -9.81532261e-02 -1.01504870e-01 -1.92041799e-01 9.97694507e-02 7.02718496e-02 -2.46443287e-01 1.05165854e-01 -1.73969120e-02 -7.19237447e-01 7.55872056e-02 -1.27761483e-01 1.09848008e-03 3.05364400e-01 -1.72852114e-01 1.27163455e-01 7.68738925e-01 -2.57544592e-03 2.11701579e-02 -1.17676876e-01 -9.65303630e-02 9.58639383e-01 -1.01456113e-01 8.77875462e-03 -1.29707931e-02 5.15778363e-03 1.31005719e-01 -1.29556835e-01 -1.00686662e-01 1.24897115e-01 7.36262947e-02 5.71263814e-03 6.80698529e-02 7.76814222e-02 -7.38448277e-02 6.68452978e-02 1.44458637e-01 5.25644012e-02 8.35568234e-02 -1.21705584e-01 5.02119260e-03 -1.64092556e-01 -1.10103928e-01 -8.93223360e-02 2.92444099e-02 -1.29851177e-01 8.70664343e-02 9.65121090e-02 6.76607639e-02 -7.91607723e-02 5.75781465e-02 1.16274776e-02 -6.53537810e-02 1.18350722e-01 -2.57911570e-02 1.41628236e-01 -8.04960579e-02 -8.81294906e-03 -3.49398464e-01 1.23594932e-01 8.20779055e-02 5.08717559e-02 -9.32980552e-02 -8.37218910e-02 1.34705603e-01 -1.64782524e-01 7.72037357e-02 1.16235532e-01 -8.95742849e-02 1.70780474e-03 2.52238289e-03 1.13846790e-02 -7.92232226e-04 5.77344708e-02 3.57487015e-02 9.78960469e-02 -1.27981067e-01 1.15573752e+00 1.43196672e-01 1.42113194e-01 1.27746195e-01 4.99517210e-02 -8.45950171e-02 -1.11082932e-02 -6.47981316e-02 1.48266971e-01 7.63864368e-02 9.46586058e-02 7.59693049e-03 -1.28482163e-01 9.88984406e-02 2.45618969e-02 -2.17527803e-02 -1.37788489e-01 -1.13703929e-04 8.12243819e-02 7.47435465e-02 7.12887617e-03 6.29298612e-02 -8.31684768e-02 1.54054195e-01 -7.58125186e-02 1.23603150e-01 9.43282023e-02 -1.56954527e-01 -1.58268243e-01 1.05502857e-02 -1.02642714e-03 -5.57285640e-03 2.89107356e-02 6.76097125e-02 -1.03930272e-01 7.02210292e-02 1.42084643e-01 1.36881452e-02 9.18657258e-02 6.62632287e-02 -1.23152159e-01 -1.25199512e-01 1.26279131e-01 1.11446539e-02 1.43006891e-01 -8.71449336e-02 -7.59778544e-02 -3.37401032e-02 -8.28568116e-02 2.97193527e-02 -1.13858916e-01 -1.93215790e-03 4.19243984e-02 2.35453472e-02 1.07563257e-01 4.02946547e-02 1.09570153e-01 7.44759962e-02 -1.55371621e-01 -2.38585528e-02 4.15956527e-02 1.00867175e-01 -3.61197330e-02 1.47291496e-01 -7.50752091e-02 1.16511449e-01 7.98861980e-02 6.58270866e-02 -9.72448513e-02 1.07045077e-01 1.26267016e-01 -6.53008595e-02 1.31651849e-01 -1.40389353e-02 1.28501117e-01 3.35503705e-02 -1.37041181e-01 6.24118447e-02 7.06499815e-02 1.24727033e-01 6.49520569e-03 1.14007533e-01 6.60673678e-01 -6.09471742e-03 5.24526000e-01 8.65103155e-02 1.38798386e-01 1.20802477e-01 -7.85119236e-02 6.84065446e-02 -1.63887203e-01 3.30568403e-02 -7.68690333e-02 -7.79776871e-02 8.45990777e-02 -9.37072001e-03 -7.03820214e-02 1.05303181e-02 -4.99931067e-01 6.09359592e-02 5.77485841e-03 -1.46765425e-03 1.05465388e+00 -9.45295691e-02 7.30621815e-02 -1.50139779e-01 1.37508124e-01 8.21158439e-02 1.09727316e-01 -9.42763984e-02 2.91785244e-02 -1.10319555e+00 6.13301694e-02 8.00561905e-02 -1.57057792e-01 1.00302555e-01 8.84840712e-02 1.44987568e-01 6.42241314e-02 -1.33147225e-01 -1.12139896e-01 7.04842911e-04 1.27831846e-01 -1.31104976e-01 -8.25308487e-02 7.25122467e-02 -8.87243301e-02 -4.03707266e-01 1.09503418e-01 -1.24506555e-01 -1.46097061e-03 -9.75813344e-02 -7.16839880e-02 1.33559659e-01 1.80694014e-02 6.46547973e-02 -9.13035721e-02 -1.68630749e-01 -9.33134090e-03 1.35057166e-01 1.14761785e-01 1.07727066e-01 -7.79848993e-02 1.04102649e-01 -1.00556418e-01 1.34944217e-02 3.23092528e-02 1.01355828e-01 1.20728351e-01 -9.98844802e-02 1.21886224e-01 8.03819001e-02 -1.31781939e-02 1.16165765e-01 2.02825069e-02 1.22824669e-01 -1.09826982e-01 4.61249948e-02 7.20549047e-01 2.37447005e-02 9.93615314e-02 -2.24398095e-02 -5.88771522e-01 1.36483654e-01 4.49213311e-02 -9.69547778e-02 -1.72489375e-01 -1.76455781e-01 -7.89785832e-02 5.98647632e-02 -8.33336189e-02 -5.47180586e-02 6.94774464e-02 -6.90411404e-02 8.72623846e-02 1.10719755e-01 2.42743239e-01 -4.37256851e-04 8.06778371e-02 -8.24759603e-02 -1.71727225e-01 -1.37315467e-01 -8.30335692e-02 -1.62519187e-01 1.25728294e-01 7.27695376e-02 9.16483253e-03 1.58298835e-02 9.43870991e-02 -1.22426219e-01 8.89817998e-02 7.52017200e-02 1.13453709e-01 8.61338079e-01 1.33882105e-01 1.47287607e-01 1.46414936e-01 -1.26406267e-01 7.89111946e-03 1.02728792e-02 2.51091626e-02 1.13892652e-01 -1.15242042e-01 1.36624262e-01 -1.58405021e-01 -1.47710964e-01 -1.42341864e+00 1.31886572e-01 -1.24159470e-01 -9.25228149e-02 1.42459393e-01 -2.97922213e-02 2.27396917e-02 -1.54248118e-01 7.31521845e-02 7.63774440e-02 1.30621850e-01 6.43790811e-02 -1.71771392e-01 -1.60179988e-01 6.25103116e-02 2.50533428e-02 -7.52176940e-02 1.00107804e-01 4.73098755e-02 -1.85655598e-02 -9.15370435e-02 9.19261798e-02 -1.48663953e-01 -1.49424300e-01 3.04195173e-02 -1.42243236e-01 -1.54403970e-01 -4.81185690e-02 -2.15112255e-03 7.18692224e-03 -1.27834871e-01 9.79541093e-02 9.52797085e-02 1.11096203e-01 -7.92233869e-02 -1.51044965e-01 -3.80861878e-01 9.54272598e-02 -1.21865380e+00 -2.24376217e-01 1.07080527e-01 7.97901899e-02 4.52620685e-02 -9.36474025e-01 3.28124851e-01 1.28188670e-01 -1.15366783e-02 