1.46117304e-02 -2.88928691e-02 -7.30340108e-02 2.38866657e-02 -4.56594042e-02 -7.43758753e-02 -4.91583347e-02 -2.12698653e-02 -2.53905114e-02 2.96343584e-02 -6.30662451e-03 -4.77614217e-02 -1.92394797e-02 -3.73275466e-02 4.16346118e-02 -1.77380536e-02 -7.01692477e-02 5.22486120e-02 1.47415265e-01 3.00917439e-02 7.21667111e-02 5.36079891e-03 -1.76836193e-01 8.88556242e-02 5.20463195e-03 3.93867008e-02 -2.22866148e-01 1.38798967e-01 -3.25906947e-02 -1.39592988e-02 -5.26548252e-02 -1.38817471e-03 -1.50454476e-01 -6.71738610e-02 2.92901415e-02 1.09657004e-01 2.17716247e-01 8.05160403e-03 3.26141994e-03 1.27343535e-01 -6.24322928e-02 -1.99848656e-02 -1.18983826e-02 -3.18087228e-02 1.37083651e-02 3.68545316e-02 8.27642977e-02 -1.94238052e-02 1.60917584e-02 1.30286202e-01 -8.56701061e-02 6.24187700e-02 -1.24838287e-02 -1.54498473e-01 1.45234928e-01 -6.29701465e-02 -2.72319913e-02 -8.97569582e-03 -4.83040363e-02 1.09801158e-01 -1.53331459e-01 4.06351127e-02 -1.52130928e-02 -1.23838790e-01 3.36598828e-02 -5.11528924e-02 -2.06924900e-02 1.65502937e-03 6.51742071e-02 3.89769226e-02 -1.91903874e-01 2.12243333e-01 -6.66266903e-02 -1.09237485e-01 1.09353065e-01 -1.89678073e-01 1.86429366e-01 2.49569751e-02 1.03825115e-01 -8.07225853e-02 5.25579378e-02 6.32216558e-02 -2.48514544e-02 7.09473714e-02 1.91317033e-02 -2.15022620e-02 1.81373268e-01 1.07172038e-02 -1.05433494e-01 -6.10330813e-02 -1.57833591e-01 7.82611892e-02 1.09817293e-02 3.85176167e-02 1.13625992e-02 -6.64757565e-03 1.98528282e-02 -7.18990117e-02 -6.04761876e-02 1.08883448e-01 -3.04175243e-02 -4.07700194e-03 -2.99434245e-01 -3.30788940e-02 -5.38448617e-02 -1.08103089e-01 4.38366197e-02 -1.00479752e-01 1.27145484e-01 8.56374055e-02 9.15202126e-02 4.33537923e-03 -7.60848671e-02 1.20998900e-02 1.14843592e-01 -4.34440114e-02 -6.15684763e-02 -5.60614988e-02 -1.33385673e-01 8.11473001e-03 4.02592309e-02 1.19544677e-01 -1.74920127e-01 7.97199905e-02 4.13278975e-02 1.69738293e-01 -5.29731115e-05 -3.68874930e-02 -7.73635134e-02 -7.71974549e-02 -3.13561767e-01 9.31717679e-02 -1.18071819e-02 2.63910275e-02 1.89092103e-02 -7.67311379e-02 7.52806291e-03 -4.37674373e-02 -7.36299157e-02 -4.17827442e-02 -1.49066010e-02 -1.17919847e-01 -5.33265807e-03 3.79615985e-02 6.36343285e-02 2.57607967e-01 -6.42026812e-02 2.04103440e-02 -4.55364734e-02 7.10211843e-02 1.05697118e-01 -8.12227204e-02 -5.04842363e-02 5.12016527e-02 -5.24248071e-02 -2.00050622e-01 1.19461678e-01 3.15703638e-02 -2.54932474e-02 -1.70487836e-01 9.64142531e-02 -5.56620061e-02 1.03859464e-02 -1.25802055e-01 -5.48967831e-02 -8.64272788e-02 -1.14287883e-01 1.17876671e-01 8.25922787e-02 -6.42515868e-02 5.33144437e-02 -1.44661605e-01 6.20015077e-02 -1.55522944e-02 6.25816584e-02 1.08414404e-01 -7.22963456e-03 -6.96483701e-02 -2.03074217e-01 8.85517802e-03 3.19865458e-02 -2.15102802e-03 7.36334035e-03 7.30802342e-02 -3.71851139e-02 2.31225658e-02 5.17620845e-03 -1.47156026e-02 -4.02215347e-02 7.84142315e-02 -2.29802937e-03 -4.22146358e-02 1.00949749e-01 -5.54129966e-02 -1.43335164e-01 8.02138597e-02 4.63781431e-02 -3.59851867e-02 -6.38590604e-02 -5.57344686e-03 -6.77055046e-02 -2.47250963e-02 -8.32956731e-02 -6.52321789e-04 1.10346191e-01 -4.17919047e-02 9.01087597e-02 -6.27854140e-03 9.55207646e-03 1.70058489e-01 5.76039925e-02 -4.37890254e-02 -5.72772846e-02 -3.25812995e-02 -1.28855109e-01 4.02304158e-02 1.00492328e-01 -3.30232084e-02 -1.07520431e-01 3.20258737e-02 2.05882471e-02 -1.09030791e-02 -4.01472785e-02 1.14115532e-02 -6.36057183e-02 -6.83127716e-02 3.81359607e-02 3.81704085e-02 9.06703547e-02 -8.30323715e-03 3.48367472e-03 1.10905170e-01 -3.83498520e-02 -4.89180200e-02 2.74466816e-02 3.85523997e-02 4.74518817e-03 -8.09460208e-02 1.20923363e-01 -5.97176142e-02 -3.98317426e-02 -3.49772573e-02 -1.89167202e-01 9.51702595e-02 -2.25763004e-02 -8.75571836e-03 1.37863513e-02 -2.50925049e-02 -3.66522446e-02 -2.60817166e-02 -7.96089545e-02 8.32768008e-02 -8.17377772e-03 4.81879748e-02 5.45944087e-02 2.24500187e-02 -1.82792529e-01 8.40146386e-04 1.04045440e-02 -8.95327106e-02 2.87176315e-02 6.17459882e-05 -7.46248737e-02 -1.05684727e-01 -5.69940079e-03 -9.04077441e-02 -9.54916626e-02 -6.16967492e-02 -2.55380124e-02 9.63767394e-02 2.07295874e-03 -1.45559404e-02 5.15459701e-02 -2.94042211e-02 7.27715269e-02 1.01435207e-01 -1.46007791e-01 1.37736434e-02 -7.51841962e-02 3.64016481e-02 2.24327501e-02 -5.16040027e-02 1.30457535e-01 6.23447029e-03 1.34296091e-02 1.07597858e-01 6.27656933e-04 -1.70664268e-03 -3.53722908e-02 4.69775647e-02 -1.83085904e-01 3.76383625e-02 9.15536508e-02 -4.56067435e-02 -3.21715921e-02 -1.37611941e-01 5.45822643e-02 -3.75960371e-03 -1.44614264e-01 -3.84212956e-02 8.87734964e-02 1.24058835e-02 -2.65696477e-02 3.19467150e-02 -1.48158371e-01 -5.51608093e-02 -8.70589260e-03 7.59744421e-02 -2.16976162e-02 -1.00477330e-01 -1.73181459e-01 -4.15188819e-02 -3.59710939e-02 -6.09717406e-02 -4.40123640e-02 -6.33085147e-02 -1.89948548e-03 8.81928951e-02 -6.27693459e-02 1.73341803e-04 -1.19392112e-01 4.99135591e-02 5.49232028e-02 2.45091543e-02 -5.38791306e-02 -5.20011112e-02 -9.68623087e-02 5.54538183e-02 2.46566422e-02 9.92998946e-03 1.52112231e-01 2.85843294e-02 -4.33228984e-02 -2.13082042e-02 -7.35982060e-02 7.89123997e-02 5.63923120e-02 2.00180322e-01 -1.81080982e-01 1.02236487e-01 -1.46807745e-01 -1.98519662e-01 4.31343950e-02 -2.90336192e-01 -2.13676050e-01 -1.61931608e-02 -2.16493919e-01 1.82304427e-01 -2.26110533e-01 2.47377396e-01 9.51226875e-02 2.23573178e-01 2.24557780e-02 1.85438633e-01 2.56203473e-01 -5.80263920e-02 -9.49302316e-02 1.70038879e-01 2.24828869e-02 2.12287918e-01 4.76196855e-02 -3.84295429e-03 -2.14173533e-02 -5.29027432e-02 2.95934975e-01 -1.92587793e-01 -6.96840733e-02 -1.68627009e-01 4.29793596e-02 2.28276119e-01 -2.23314866e-01 1.58047661e-01 -7.10757673e-02 -2.61216402e-01 -5.59889972e-02 -9.90504175e-02 1.58813775e-01 -3.17657918e-01 1.31557673e-01 -1.94375768e-01 -4.14188728e-02 -1.69643745e-01 6.97356090e-02 -2.77723789e-01 -3.35198455e-02 1.99732799e-02 -1.22033291e-01 4.69230078e-02 -8.72101784e-02 -5.72432205e-02 -4.38238047e-02 -5.84695749e-02 -4.22567921e-03 -4.35912982e-02 3.65878157e-02 -6.60231188e-02 -3.60549018e-02 8.06744304e-03 3.07641029e-02 2.35619284e-02 -1.56774253e-01 -7.28075430e-02 9.97505039e-02 7.11457878e-02 -7.39061683e-02 1.36922356e-02 -5.67111000e-02 -9.32481661e-02 1.99053045e-02 -7.36621246e-02 -9.38733071e-02 -7.90535565e-03 3.02892085e-02 4.44504172e-02 -1.39713101e-02 6.72764927e-02 -2.23998297e-02 4.00599837e-02 7.20922202e-02 8.03952590e-02 -1.01516962e-01 -9.87035409e-02 -5.21850120e-03 -1.39567126e-02 1.34092011e-02 6.48003891e-02 5.92044666e-02 5.08549623e-02 -1.11397803e-01 5.07007577e-02 1.26775131e-01 9.07461438e-03 -5.54355048e-02 -2.70155203e-02 -9.36302021e-02 1.12931959e-01 4.95917350e-02 -1.61561947e-02 1.31239250e-01 -4.34762016e-02 2.83296108e-02 2.02433467e-02 -1.59875471e-02 7.78896585e-02 2.79913507e-02 -8.02280828e-02 3.46281119e-02 3.97580154e-02 -2.12651476e-01 1.27235189e-01 -3.13324034e-02 -4.63691466e-02 -7.60331675e-02 -5.32057881e-02 -1.11624554e-01 -9.39964280e-02 4.18598540e-02 -1.12248808e-01 -4.61397208e-02 1.12734009e-02 -3.31884213e-02 5.88551871e-02 7.68510625e-04 6.59878179e-02 2.03599948e-02 3.65673099e-03 6.65382482e-03 1.33918464e-01 -6.91523105e-02 3.72645855e-02 -1.86247304e-02 2.66644079e-02 -7.62842596e-03 -1.00923060e-02 1.12986200e-01 -1.61662344e-02 -2.44027786e-02 2.23524272e-02 1.91147660e-03 -4.75457869e-02 -9.95535105e-02 -1.56954482e-01 -1.03986271e-01 1.70342490e-01 8.44941288e-03 4.78825718e-03 -7.51238018e-02 -2.25558113e-02 -6.59816340e-03 -7.35723153e-02 1.33505380e-02 -1.35862287e-02 -4.56263125e-02 4.85029817e-02 1.52546912e-01 1.64952666e-01 -2.25141317e-01 -5.59949949e-02 -8.55801329e-02 6.34100512e-02 9.57472995e-02 -1.05494231e-01 -1.12838268e-01 2.28698142e-02 1.74330056e-01 1.39924720e-01 -2.01903835e-01 -3.96336168e-02 -4.43615690e-02 -1.41155124e-01 9.12086442e-02 -5.73278554e-02 -1.36194780e-01 -1.63955260e-02 5.11840992e-02 7.83419088e-02 -2.45354548e-02 -3.65326442e-02 -7.56384339e-03 -7.49486387e-02 -1.14917949e-01 -2.76931301e-02 7.18643516e-02 -1.81466445e-01 -3.06040011e-02 1.34705693e-01 5.50352894e-02 7.96300545e-02 5.44522032e-02 -9.36217085e-02 -1.58457443e-01 7.66284466e-02 5.44298962e-02 -8.43493715e-02 -9.98589303e-03 2.13308390e-02 4.41888534e-02 -4.90754135e-02 -8.19078013e-02 6.34549409e-02 -3.04936562e-02 -1.04370549e-01 -3.64387035e-02 -1.21391732e-02 -1.76104248e-01 5.33747068e-03 6.09907284e-02 7.51070380e-02 -4.97247241e-02 -2.55215075e-02 -1.22641660e-01 -1.10044017e-01 -3.26277539e-02 -5.60937375e-02 -6.97362944e-02 -3.34902965e-02 -4.75066751e-02 -1.40229583e-01 -5.63401775e-03 -1.31034151e-01 -2.36341599e-02 -1.37532502e-01 -4.17582542e-02 5.10938093e-02 1.35108945e-03 2.13033166e-02 6.15060851e-02 7.12148175e-02 7.23470077e-02 3.93362716e-02 1.81352571e-01 -3.17735001e-02 1.85598026e-03 -1.08974896e-01 4.63052765e-02 -8.55082064e-04 2.60119736e-02 -7.27861226e-02 -4.76605371e-02 1.67881027e-01 -2.09681168e-02 1.95613746e-02 -1.54722840e-01 6.70769159e-03 6.41893670e-02 5.26125124e-03 6.91551864e-02 2.92385872e-02 5.31067103e-02 7.04623410e-04 -7.30624571e-02 -2.39272323e-02 1.28472364e-02 -4.06850651e-02 -4.51152511e-02 -4.68416363e-02 -4.10157964e-02 -1.66709304e-01 -1.29979238e-01 5.94826341e-02 -8.01780447e-02 5.55630103e-02 -1.71329692e-01 -4.37186398e-02 2.55715288e-02 5.89386709e-02 -4.09221537e-02 -4.14083079e-02 -6.29011020e-02 4.13540984e-03 -1.58511568e-02 2.81521473e-02 4.02609631e-02 1.11474739e-02 5.63582443e-02 -3.23491469e-02 -1.68002129e-01 3.85602750e-02 -2.16343999e-02 -6.23808615e-02 -8.74502882e-02 -5.85824773e-02 1.65985122e-01 2.95853987e-02 -1.51599988e-01 2.41656333e-01 -2.72442341e-01 3.51956218e-01 -2.28921965e-01 2.55121619e-01 4.99627478e-02 -4.84070778e-01 4.65414584e-01 -2.93912351e-01 -3.38644505e-01 9.97445211e-02 -4.41150039e-01 3.70062858e-01 -3.47569793e-01 -4.57588613e-01 -2.52580822e-01 -1.39229633e-02 -3.05553883e-01 3.56623203e-01 3.09168518e-01 -2.26808518e-01 -2.72384405e-01 8.97516012e-02 2.69595355e-01 1.66873828e-01 -1.17623225e-01 -8.38095099e-02 2.14004919e-01 -3.81701052e-01 -3.48645180e-01 -1.58227488e-01 5.16046323e-02 1.25062326e-02 1.28164202e-01 9.67315137e-02 -2.58306652e-01 1.36290163e-01 3.68221216e-02 5.48575580e-01 3.51925313e-01 1.52178481e-01 -2.38688365e-01 -4.42291886e-01 -2.65952080e-01 -4.43550587e-01 4.62032139e-01 -2.76467800e-01 2.91482508e-02 -2.55072918e-02 -5.43783754e-02 2.03743055e-01 -1.27657086e-01 -1.48019595e-02 -1.03452273e-01 4.31826413e-02 -1.68990533e-04 2.89461557e-02 -8.28561634e-02 1.36693805e-01 -3.05537861e-02 2.30317283e-02 -8.79521444e-02 7.83097148e-02 -1.52172551e-01 7.66457394e-02 5.99876337e-04 3.69308516e-02 -1.37245238e-01 -5.33474311e-02 -7.76489154e-02 1.04286335e-01 2.83488724e-02 -7.46875629e-02 -1.78526327e-01 1.83958322e-01 8.18683282e-02 -2.32887268e-02 -1.06544673e-01 3.53851281e-02 -1.65230986e-02 3.89718004e-02 1.22418411e-01 1.66327372e-01 7.08400980e-02 -1.40494958e-01 1.04545198e-01 -9.79741886e-02 5.84321916e-02 2.84186173e-02 -1.21335432e-01 1.22177854e-01 1.65200252e-02 6.30439520e-02 2.09022630e-02 1.10239107e-02 -2.44401351e-01 1.52405739e-01 -4.20716316e-01 4.42942739e-01 -5.23339748e-01 -2.85604537e-01 7.00857043e-02 -3.43641490e-01 6.67330563e-01 -2.85489231e-01 -5.35628617e-01 1.44389212e-01 -3.90499294e-01 7.39287853e-01 -3.89026165e-01 -6.19476438e-01 9.34415758e-02 -5.75435698e-01 -4.85301197e-01 7.03279316e-01 2.74006993e-01 -5.42071104e-01 -5.02026558e-01 1.88439548e-01 5.82297266e-01 7.08923459e-01 1.51842967e-01 1.23759143e-01 1.16909984e-02 -2.98840791e-01 -6.36788905e-01 4.87958401e-01 9.45804268e-02 -6.66013122e-01 5.84836118e-02 8.48180056e-02 -7.92445987e-02 5.61807930e-01 8.01082775e-02 2.48694897e-01 3.85732651e-01 -1.73256546e-01 1.68152526e-01 -4.44007188e-01 -8.96093071e-01 -4.82632071e-01 5.07573962e-01 -6.60071850e-01 -6.77878931e-02 -6.06198832e-02 1.10769123e-02 1.26948431e-01 -1.39331399e-02 4.83032642e-03 5.77446334e-02 -6.69332892e-02 3.51861157e-02 1.23008415e-01 -1.42112255e-01 -6.76405355e-02 7.44907409e-02 5.59243187e-02 1.84002277e-02 -4.62924503e-03 -4.94210422e-02 6.31598905e-02 1.61051247e-02 -7.34568387e-02 9.16634724e-02 -9.62401927e-03 -1.36274830e-01 5.85217886e-02 6.98855668e-02 -8.90058950e-02 -1.62589610e-01 1.29057318e-01 -4.27656062e-03 -6.68744445e-02 7.00942501e-02 4.03309474e-03 3.62711813e-04 4.94597256e-02 3.10169961e-02 1.46543056e-01 8.75798017e-02 -7.10161030e-02 -4.60210927e-02 7.86363930e-02 -5.44940308e-02 1.10657424e-01 -3.99206318e-02 4.60502245e-02 -7.79686123e-02 8.72760043e-02 -1.19037237e-02 -4.55518551e-02 -2.03173999e-02 6.24041930e-02 2.13825218e-02 1.88851461e-01 2.72575945e-01 1.57323887e-03 -2.75028590e-02 -7.61240944e-02 1.03359997e-01 -9.63989720e-02 -4.92266333e-03 -1.07757948e-01 4.73577483e-03 -2.02298313e-02 -9.19063985e-02 1.30595565e-01 -7.57029504e-02 3.60251665e-02 -4.65171449e-02 2.83233017e-01 -4.95284284e-03 -7.29056224e-02 -4.30136807e-02 2.34212399e-01 1.45257682e-01 -1.51988238e-01 1.06321104e-01 -1.14588395e-01 3.20132971e-01 -3.22350383e-01 -1.28251001e-01 1.39440581e-01 -5.75756617e-02 1.07103325e-01 -7.14399144e-02 -1.13547288e-01 2.35219300e-01 -1.20031245e-01 1.38033181e-01 -4.92711887e-02 2.41973191e-01 -3.78006808e-02 1.23804010e-01 1.10589169e-01 -2.87570320e-02 1.14353991e-03 -2.07697958e-01 2.49330491e-01 6.57734945e-02 -7.69693330e-02 5.62603632e-03 1.72630370e-01 1.27911523e-01 9.85119864e-02 -2.08310187e-01 3.39552120e-04 -2.67982129e-02 7.50777721e-02 -5.33070341e-02 -1.36933416e-01 -4.47318703e-02 1.69617370e-01 8.38612169e-02 3.35558876e-02 -9.81473364e-03 2.88703311e-02 -1.82417110e-02 1.56864263e-02 -7.11120944e-03 8.13781470e-02 -1.51825696e-01 1.36145741e-01 -6.08681049e-03 -9.26707089e-02 -2.12335646e-01 1.43111587e-01 -5.69384284e-02 3.56324986e-02 -1.24994516e-01 2.11477466e-02 -1.04858309e-01 -5.19584417e-02 -1.15436073e-02 1.20160796e-01 -2.28184164e-02 1.15382619e-01 -9.59160253e-02 -6.63643761e-04 2.37493627e-02 7.31687471e-02 -5.26774861e-02 -2.18141109e-01 1.16511323e-01 -8.66887495e-02 -5.25507666e-02 1.35903694e-02 -3.95340286e-02 -8.44318494e-02 -9.84872580e-02 9.32444334e-02 -3.30236480e-02 -2.34621055e-02 -4.69442867e-02 -6.52505504e-03 1.02366447e-01 -1.29130576e-02 -7.33215287e-02 -5.79912849e-02 6.98458916e-03 -4.01135720e-02 -1.29639342e-01 -3.16554345e-02 -7.88111463e-02 -5.39015755e-02 -3.54566239e-02 1.16253652e-01 2.86974274e-02 8.25808942e-02 -1.25197709e-01 -3.32530662e-02 -4.88521233e-02 4.91012223e-02 -1.94094107e-01 1.89352073e-02 2.11200286e-02 -1.54856022e-03 -2.16641463e-03 1.33631691e-01 -6.33157417e-02 5.22374026e-02 1.07226195e-02 4.47675809e-02 7.27161393e-02 -8.67228583e-02 -2.74053272e-02 -6.26157820e-02 3.61311324e-02 -8.29737037e-02 -3.48840691e-02 -2.24101562e-02 -2.35127546e-02 2.05522720e-02 2.82383543e-02 -1.04518995e-01 -3.50743234e-02 9.76927206e-02 8.09362009e-02 1.79259449e-01 2.37656701e-02 2.07682997e-01 3.34226340e-02 9.69392210e-02 -8.97718370e-02 2.54055679e-01 -8.24968815e-02 -2.68465858e-02 3.30014341e-02 3.46976146e-02 -2.24860851e-02 -4.91057597e-02 1.95302293e-01 -5.43542430e-02 7.03150928e-02 -1.40045926e-01 -2.69492716e-02 -9.62187722e-03 -2.53684312e-01 -2.33186319e-01 -8.57411847e-02 7.68342987e-02 1.66540742e-01 1.96701229e-01 2.76169538e-01 5.59774041e-03 3.84361818e-02 4.11930643e-02 -8.19909945e-03 3.88516672e-03 6.18597083e-02 -9.83405188e-02 7.61673553e-04 4.36728075e-02 -5.81901446e-02 -1.21795259e-01 5.25207333e-02 1.42366178e-02 2.06677794e-01 -1.46223873e-01 -1.28616095e-01 -9.71879661e-02 -7.08053857e-02 3.75728533e-02 -7.90601671e-02 7.42811188e-02 -1.21921830e-01 1.00158945e-01 -7.93640036e-03 3.83885019e-02 -1.26721889e-01 -4.54381481e-02 1.48325875e-01 -3.80451009e-02 9.39856172e-02 -8.31003767e-03 9.39838290e-02 -1.14910029e-01 -1.19931236e-01 -1.17429033e-01 1.41275167e-01 3.50957550e-02 -1.25619471e-01 3.47975362e-03 6.97473064e-02 9.04705897e-02 -1.74917728e-01 1.93945140e-01 -1.28782690e-01 -1.50427110e-02 1.12440832e-01 -1.59895286e-01 9.73631889e-02 -1.05095796e-01 1.81802377e-01 -6.02279194e-02 -3.39856185e-02 4.09872085e-02 -1.86570212e-02 1.80409133e-01 -9.05917957e-02 1.45063072e-01 2.64680409e-03 3.43565196e-01 2.58727688e-02 -6.98796958e-02 -2.67590284e-02 -3.01935542e-02 -2.80554835e-02 -7.46640944e-05 -6.95823729e-02 -3.53592336e-02 -9.26873982e-02 -3.51772755e-02 -1.96047679e-01 1.20237641e-01 1.31713286e-01 -9.26846266e-02 2.52152905e-02 3.21963280e-02 -3.61683257e-02 1.16367014e-02 3.67542244e-02 3.87991630e-02 3.09506115e-02 1.03315385e-02 3.92357297e-02 -2.63571087e-02 -1.86521262e-01 1.49927318e-01 1.72312986e-02 -9.97324139e-02 9.86963585e-02 -4.43085618e-02 -5.60472347e-02 -4.66328971e-02 -4.55663204e-02 -1.61099005e-02 -1.00035571e-01 -3.86334360e-02 2.11376231e-02 -5.52513711e-02 8.41600820e-02 -2.35314555e-02 3.98330428e-02 -1.48253832e-02 4.17102054e-02 7.17997178e-02 -2.23453958e-02 5.72479069e-02 1.40903324e-01 1.31940348e-02 -7.75513879e-04 -8.86650104e-03 7.54605532e-02 1.22188749e-02 -8.62966925e-02 -7.36502558e-03 -3.45002161e-03 -3.18986923e-02 1.50210053e-01 2.06571892e-02 -1.63068026e-01 2.43871491e-02 -1.84158757e-02 -7.39083588e-02 -2.06349604e-02 3.97227481e-02 -1.92851629e-02 -7.93031137e-03 -1.48065668e-03 5.22102118e-02 3.12343966e-02 3.49643268e-02 7.12721646e-02 4.22259308e-02 -2.44682625e-01 -5.51657714e-02 7.18904585e-02 5.39110564e-02 -3.40178423e-02 -4.16386724e-02 -1.18234381e-01 -4.71464321e-02 -1.44532183e-02 -4.72360142e-02 -7.87411034e-02 -4.85547557e-02 -3.81985232e-02 6.17060764e-03 -8.65585878e-02 8.08511749e-02 1.86721832e-02 -7.92356282e-02 7.56862247e-03 3.56061533e-02 1.15555987e-01 3.80654708e-02 -3.22834738e-02 6.33566901e-02 7.31705874e-02 -2.38309484e-02 5.73006719e-02 8.78684521e-02 1.80148538e-02 -2.25557722e-02 7.46844560e-02 -5.89443929e-02 -3.80451381e-02 5.09380586e-02 1.90149561e-01 9.25585032e-02 2.49113411e-01 -1.58509582e-01 -1.91983581e-01 -3.27635199e-01 -2.60443270e-01 -1.57677576e-01 -1.25427037e-01 -2.84833908e-01 2.09843703e-02 -4.76689003e-02 9.29630026e-02 3.23130876e-01 2.00064585e-01 7.49969259e-02 2.81640440e-01 -2.03315224e-02 -5.23560047e-01 -1.53424978e-01 -1.30586907e-01 2.18052045e-01 5.69304600e-02 -2.60894090e-01 -8.63736048e-02 -7.06188083e-02 1.78701550e-01 -1.16587151e-02 7.83370510e-02 9.48146172e-03 1.52234703e-01 1.40306547e-01 7.56912306e-02 2.37480551e-01 -3.48631978e-01 4.11769710e-02 3.03548068e-01 -1.58472136e-01 2.40283638e-01 2.22397089e-01 8.97105634e-02 -4.45216715e-01 8.82021412e-02 -9.84130055e-02 1.02709003e-01 -2.48643130e-01 4.70126957e-01 1.71273917e-01 -1.40353948e-01 3.75379294e-01 3.50158930e-01 2.14280095e-03 1.90277755e-01 -3.14521611e-01 9.77357998e-02 -1.22511148e-01 3.91089395e-02 -8.54033604e-02 1.65086985e-01 8.42125937e-02 -2.71809608e-01 -2.99198091e-01 1.62417758e-02 -5.58627695e-02 9.13067255e-04 3.06070030e-01 1.40161201e-01 -1.01745389e-01 8.15676004e-02 1.29498646e-01 -9.66395587e-02 2.44854391e-01 -1.23260930e-01 -2.06973106e-01 3.15959781e-01 -1.01018548e-01 -4.74076793e-02 -6.23321645e-02 4.81300771e-01 4.65585262e-01 1.39357269e-01 1.38298348e-01 -9.82071906e-02 -1.18750140e-01 7.37776756e-02 1.63560495e-01 -9.44743603e-02 4.39752549e-01 1.34069517e-01 -1.78057283e-01 2.34381497e-01 -7.19770864e-02 -2.21004605e-01 1.67332008e-01 1.08394854e-01 2.43565766e-03 -1.13861531e-01 1.68978557e-01 2.20343471e-02 3.71096283e-02 -1.00487694e-01 7.51626641e-02 1.25621751e-01 8.22159275e-02 5.58618121e-02 3.05887801e-03 -4.25008945e-02 1.29268572e-01 -3.12304031e-03 8.96129161e-02 -7.99946412e-02 -3.27973650e-03 1.40873175e-02 3.48136127e-02 1.81504264e-02 4.29775007e-02 -7.82154053e-02 1.07539818e-01 -6.53124377e-02 2.13342290e-02 -2.78120607e-01 -3.94987613e-02 -3.74886654e-02 4.93504964e-02 1.34827914e-02 -1.59225031e-03 -1.12113059e-01 5.50721698e-02 -5.86071052e-03 7.11610690e-02 3.94270346e-02 5.10293618e-03 -4.53656241e-02 5.87034598e-02 3.42140235e-02 -1.03864431e-01 -1.70554504e-01 -7.25307390e-02 2.99670734e-02 -4.95329499e-03 -1.21413596e-01 2.19606496e-02 -6.14838377e-02 -1.33151084e-01 -3.23885120e-02 1.24567710e-01 1.28549054e-01 2.10717823e-02 -1.33363768e-01 7.34739676e-02 1.62390187e-01 1.24565989e-01 1.74904108e-01 1.50249973e-01 -1.94632202e-01 7.12339208e-02 9.79647338e-02 -1.69698838e-02 -8.62519816e-02 -1.00640312e-01 -1.12245888e-01 3.32877189e-02 9.98487547e-02 -5.42968772e-02 -1.27456650e-01 1.29561350e-01 -1.74042985e-01 -1.22319095e-01 -1.13190852e-01 1.55844241e-01 -8.13598782e-02 3.05515565e-02 1.23228785e-02 1.73088372e-01 8.20488706e-02 -4.29315716e-02 -7.10782185e-02 3.85506749e-01 -1.21873945e-01 1.71695054e-02 -2.67377999e-02 -7.19086975e-02 -3.69375534e-02 -1.01689719e-01 9.49609429e-02 3.83137679e-03 -3.84421647e-02 -2.26129275e-02 6.16043471e-02 1.22264959e-01 6.78878799e-02 1.14347599e-02 -2.18394950e-01 2.34230533e-02 1.48494318e-02 -6.01059869e-02 -2.03821529e-02 9.69858374e-03 -1.87322181e-02 1.07129872e-01 -7.42783351e-03 8.53490531e-02 -3.58252861e-02 3.41499262e-02 8.99468921e-03 6.62565306e-02 -1.66994527e-01 -2.22980306e-02 2.77819987e-02 -7.78711885e-02 3.43140140e-02 -4.88356240e-02 -1.30854964e-01 -7.22374320e-02 -1.01659015e-01 2.16842517e-02 -7.68062696e-02 -7.43392482e-02 2.46590395e-02 9.06538740e-02 6.47670850e-02 3.15502472e-02 -3.43646482e-02 1.89569835e-02 6.75765425e-02 5.51340207e-02 -2.61451695e-02 -6.74148574e-02 3.92972343e-02 3.41647374e-03 -7.24918246e-02 6.71803355e-02 2.48450954e-02 4.62151729e-02 4.51952405e-03 6.00822046e-02 -1.37331476e-02 -7.05485418e-02 -1.35567132e-02 -4.28519323e-02 -1.10071346e-01 1.20638341e-01 -7.47856393e-04 -6.05638186e-03 -8.58345926e-02 -7.70081729e-02 4.51496951e-02 -4.68854420e-02 3.56064402e-02 -4.61013569e-03 -3.70288193e-02 1.94708817e-02 -1.03600146e-02 -1.28150051e-02 -8.26104656e-02 1.21586591e-01 5.19991890e-02 1.05562359e-01 -7.82789756e-03 -3.12731341e-02 -4.03204821e-02 -4.46410254e-02 5.26551753e-02 6.24252185e-02 -1.34003595e-01 -6.00372441e-02 -1.89928580e-02 -4.58745286e-02 -1.77532062e-02 6.03491813e-03 -6.40700981e-02 5.58035038e-02 6.21115863e-02 9.28455815e-02 -6.99123144e-02 5.21154962e-02 -1.27225462e-02 -9.03457701e-02 -4.94496338e-02 -5.28764017e-02 -3.16507630e-02 5.43549396e-02 -3.01342998e-02 5.34592420e-02 -7.39190951e-02 -1.38841523e-02 -8.62226263e-02 1.91154301e-01 -1.73307374e-01 1.69653490e-01 2.84629613e-01 -1.83139592e-01 1.95805520e-01 -1.22829996e-01 1.87055707e-01 -1.76334932e-01 -3.47470731e-01 2.27270916e-01 -2.43402064e-01 1.89494088e-01 -8.11251551e-02 -2.49089256e-01 5.93083464e-02 -4.79935072e-02 5.43772131e-02 -2.23470014e-02 2.80063957e-01 -3.40546429e-01 -2.59545177e-01 1.38143644e-01 -2.21560210e-01 4.65229861e-02 -1.11967370e-01 1.68458194e-01 3.35001163e-02 3.22696328e-01 1.33027986e-01 2.20257208e-01 2.53520813e-02 -1.96711093e-01 2.20906273e-01 4.43251543e-02 4.49575623e-03 6.57402202e-02 -2.21212417e-01 9.52757820e-02 -2.57894158e-01 -1.61085606e-01 9.29965973e-02 -1.61385268e-01 1.68599803e-02 1.20408982e-01 8.22444037e-02 -6.80365413e-02 5.19499257e-02 -9.02094170e-02 -1.27865389e-01 9.41521078e-02 7.58947507e-02 -1.26240673e-02 -1.34088501e-01 -3.59629244e-02 -9.22667831e-02 -5.37386276e-02 7.37826619e-03 -4.40304093e-02 -3.76580358e-02 -2.34595463e-02 1.01933934e-01 -3.56085114e-02 -9.09601990e-03 4.61977348e-02 4.79630865e-02 5.05006574e-02 -3.75233032e-03 5.55310678e-03 -9.23351273e-02 -3.75665054e-02 -6.28503338e-02 1.81802753e-02 -1.85515508e-01 2.18660198e-02 -8.95892270e-03 6.25097007e-03 9.09254402e-02 9.31906234e-03 -1.92736499e-02 -6.81472197e-02 -7.59953782e-02 7.37489983e-02 5.23390248e-02 2.70458683e-02 8.21575895e-02 -4.68905345e-02 3.36078205e-03 -7.28204800e-03 -2.78946268e-03 -2.84892507e-02 -1.63547583e-02 6.23782212e-03 5.59073500e-02 -7.09195342e-03 6.77148923e-02 4.51991051e-01 -2.75565028e-01 9.94342566e-03 1.01010352e-01 1.32203162e-01 1.01551097e-02 -1.74303651e-02 -1.79083064e-01 3.39648694e-01 -1.29492924e-01 -1.28959581e-01 -1.06109314e-01 7.23380828e-04 1.38583658e-02 8.64520520e-02 -3.27290408e-02 2.50253797e-01 1.27038777e-01 -6.83976263e-02 -1.62029982e-01 -5.86402714e-02 -9.67215002e-02 7.53206909e-02 7.22075030e-02 2.75717735e-01 4.64996956e-02 6.63248301e-02 -1.76103607e-01 -1.71312913e-01 1.76941194e-02 3.24908718e-02 1.40309155e-01 5.50129218e-04 2.06103139e-02 6.07441477e-02 1.68279678e-01 8.78212675e-02 7.36237243e-02 2.38815933e-01 2.41580039e-01 -1.30144596e-01 3.17215234e-01 1.76312834e-01 -8.36548060e-02 -1.94482893e-01 1.20996289e-01 -2.91428380e-02 -1.07256100e-02 1.01237878e-01 -5.41417189e-02 2.04855606e-01 6.17601685e-02 -5.88558950e-02 2.31637046e-01 -3.54950905e-01 1.11874759e-01 -3.22527766e-01 6.54350743e-02 -2.32698753e-01 2.37854898e-01 -8.99667069e-02 -1.95049971e-01 1.49602473e-01 3.83136719e-02 -9.69280526e-02 2.00588226e-01 -7.88776129e-02 -1.84316993e-01 9.07387808e-02 -1.73224464e-01 6.23138100e-02 2.42173783e-02 -2.08393633e-01 -1.73438508e-02 -1.39856055e-01 1.43759102e-01 2.40489572e-01 -4.33154739e-02 2.59717375e-01 1.45503610e-01 1.75081506e-01 -3.15769315e-02 4.04094279e-01 -7.70855099e-02 1.22514077e-01 4.41400856e-02 -4.29679677e-02 -7.71091208e-02 -1.67867824e-01 -1.17688008e-01 1.35104477e-01 6.00062720e-02 -3.08332980e-01 -2.74065048e-01 -1.50877967e-01 3.86446691e-03 -1.05939940e-01 -1.26486957e-01 1.58447817e-01 -7.06523806e-02 5.37529588e-02 -5.49558550e-02 -6.64478093e-02 -1.50118142e-01 -9.06002894e-02 -5.01205958e-02 8.37421268e-02 3.82593907e-02 -1.20116230e-02 1.36834020e-02 9.45368558e-02 -7.60629997e-02 -1.01243012e-01 -4.48122174e-02 5.46088209e-03 -2.84430534e-02 -3.03051583e-02 -1.07677236e-01 -4.14161459e-02 -5.81243262e-02 7.54034445e-02 -1.94659263e-01 -2.66006645e-02 1.53539749e-03 -1.14276603e-01 -9.78965312e-02 1.09808408e-01 -5.02214991e-02 4.12135720e-02 -2.49651950e-02 4.44257408e-02 -3.38144898e-02 -1.86527949e-02 1.27415657e-01 -5.43946028e-02 9.62836742e-02 -4.07464691e-02 -1.52300313e-01 -7.06349686e-02 -1.90477427e-02 1.04915455e-01 4.60486263e-02 -2.02355832e-02 4.88104559e-02 -4.17399183e-02 -1.52907923e-01 4.26244922e-02 3.03442292e-02 -1.74927488e-02 -1.19527809e-01 -5.11443280e-02 5.25304154e-02 -5.34956269e-02 3.08216289e-02 -4.11324203e-02 -1.24276266e-01 -1.79022059e-01 -2.03486141e-02 1.00710258e-01 -1.36220679e-01 5.52254869e-03 -4.59970422e-02 7.11760372e-02 5.46925440e-02 -8.21614414e-02 -1.25921845e-01 7.22605288e-02 -1.14780990e-02 2.29870547e-02 -1.59891978e-01 9.81862396e-02 -5.17044477e-02 9.33175683e-02 -3.51340994e-02 5.01278555e-03 -3.37483212e-02 4.92045619e-02 5.65956533e-02 1.83207422e-01 6.17920682e-02 -4.53077443e-02 9.78232548e-03 -7.20835850e-02 -4.87955809e-02 -1.09103583e-01 3.05968672e-02 -9.18662101e-02 -2.54165754e-02 7.27889016e-02 -4.70068082e-02 7.58547261e-02 1.15411215e-01 -7.07916543e-02 -5.50324507e-02 8.21398124e-02 2.34656874e-02 -6.59002885e-02 2.46896949e-02 -1.23599796e-02 1.60875674e-02 -2.34140418e-02 -4.24138270e-02 1.90524422e-02 6.77985325e-03 7.49121793e-03 -4.59389389e-03 9.71318316e-03 -1.61461353e-01 -1.02756089e-02 9.19860881e-03 8.26303381e-03 7.81979710e-02 1.09184377e-01 -1.24241129e-01 -4.30498049e-02 -8.11396167e-02 -7.15461224e-02 -6.83937445e-02 1.06182564e-02 2.42927410e-02 -4.92753498e-02 2.59567518e-02 2.69839354e-02 -7.88499787e-03 -1.08080424e-01 -3.68701071e-02 5.04291318e-02 -1.72592644e-02 -6.26591817e-02 8.42982382e-02 1.75106935e-02 9.92240459e-02 1.32714044e-02 1.42060295e-01 6.53588725e-03 -1.55272903e-02 -6.21805713e-02 4.72512748e-03 7.41604045e-02 -1.11888893e-01 -9.00273323e-02 -1.25810504e-01 1.54422730e-01 -3.87805374e-03 -1.79330120e-03 -1.36114463e-01 -6.03052936e-02 5.86477108e-02 9.07249562e-03 -4.24687518e-03 -3.70637998e-02 1.13050416e-02 -6.65079197e-03 -6.47465736e-02 -5.10391258e-02 -2.77415067e-02 5.80091216e-03 6.29892722e-02 7.97916017e-03 7.06725270e-02 8.22227225e-02 -8.27322751e-02 -1.24934539e-02 -4.41057160e-02 5.52628599e-02 -1.66893333e-01 -6.25839904e-02 -3.67580242e-02 2.20416719e-03 -8.28453079e-02 4.48600687e-02 1.93119887e-02 6.14158735e-02 3.81286559e-03 5.37174661e-03 -1.50390081e-02 3.29322256e-02 1.02914393e-01 -4.35957015e-02 -6.24226667e-02 -3.96511257e-02 -5.86880259e-02 3.61564942e-02 -1.10599950e-01 -5.20645007e-02 2.12488528e-02 -6.30252212e-02 -2.80183237e-02 3.11241418e-01 -1.96216032e-01 -6.73495606e-02 -2.65453994e-01 2.53643636e-02 1.58338904e-01 -6.98582456e-02 -7.79540241e-02 7.93363452e-02 1.30776152e-01 3.78761403e-02 -1.30470321e-02 -9.25873369e-02 -1.80416018e-01 8.21082145e-02 1.64318800e-01 1.98898409e-02 8.59656706e-02 3.27683575e-02 -7.26979375e-02 5.15739247e-02 4.35495138e-04 1.07380494e-01 7.88422599e-02 4.66220267e-02 -1.20142482e-01 -5.04680956e-03 8.96598101e-02 6.80095516e-03 5.02165034e-02 1.89518481e-02 -9.44737643e-02 -8.44063610e-03 9.09250509e-03 1.80095926e-01 -6.36438951e-02 -2.06596509e-01 7.68344626e-02 1.29025191e-01 1.40508413e-02 -3.07478793e-02 7.54489005e-03 1.37882292e-01 4.25197482e-02 -7.20963776e-02 1.04581252e-01 3.25819924e-02 6.44552335e-02 -9.02185664e-02 -7.56938010e-02 1.15413539e-01 -2.71896478e-02 8.43868107e-02 -5.48574701e-02 1.83990262e-02 9.00013465e-03 -1.47210449e-01 2.53413077e-02 -1.11192107e-01 3.36609827e-03 1.02753542e-01 4.84466217e-02 3.97347771e-02 -1.01497889e-01 -5.41035421e-02 1.68386437e-02 5.38920648e-02 1.13344543e-01 -4.14060503e-02 -1.73386261e-01 1.00163013e-01 -1.94950216e-02 -3.85222845e-02 -2.13903800e-01 2.23153830e-01 -4.65651602e-02 2.85661090e-02 -1.61914453e-01 -5.82931899e-02 -4.52915393e-03 5.29242568e-02 -2.11136770e-02 1.45841271e-01 9.29817110e-02 -1.11187853e-01 -7.67853558e-02 1.50573291e-02 1.69907492e-02 9.76294801e-02 -9.85224023e-02 -3.16589512e-02 -3.50126028e-02 -1.22530401e-01 5.35206646e-02 3.19637731e-02 6.14672378e-02 -1.06640331e-01 -8.14394653e-02 6.70417324e-02 1.55361053e-02 -6.19200505e-02 -2.52051204e-01 1.45946024e-02 1.74282610e-01 6.50050864e-02 9.76234823e-02 -7.86032751e-02 1.64480228e-02 -5.84096611e-02 -6.84031099e-02 2.33345982e-02 5.07141352e-02 -3.29518840e-02 -1.82247341e-01 5.67241721e-02 6.26158416e-02 1.07830949e-01 -1.28506079e-01 7.92647079e-02 3.02384235e-02 -5.65922074e-02 -1.24155916e-01 1.22927800e-01 1.85333530e-03 1.20100535e-01 6.28410429e-02 -5.19224443e-02 -1.12035200e-01 1.69325452e-02 -4.10482986e-03 2.56913811e-01 8.17467570e-02 6.43671975e-02 9.57248285e-02 8.83237347e-02 3.13216411e-02 -9.62719992e-02 1.35332525e-01 -2.29700636e-02 4.00982723e-02 3.31736542e-02 -6.64421692e-02 -3.12039237e-02 -1.46330357e-01 1.39718041e-01 2.94315815e-02 1.74153805e-01 2.84775048e-01 -2.24865630e-01 6.79073259e-02 -2.41095215e-01 1.88258648e-01 7.40639633e-03 -2.56386828e-02 -3.98642480e-01 9.86439213e-02 -1.40826300e-01 -3.45199972e-01 3.76062900e-01 5.34252897e-02 3.01916688e-03 3.84302050e-01 -1.66221019e-02 -3.17962766e-01 -4.29594994e-01 -1.03391357e-01 6.55767694e-02 1.47820294e-01 -2.83223111e-03 -3.03820968e-02 -1.53755873e-01 2.00246379e-01 1.21373618e-02 2.31727108e-01 -5.85484654e-02 2.22992942e-01 -1.13688558e-01 4.52686809e-02 3.06074589e-01 -2.15411201e-01 -5.06060310e-02 3.84934917e-02 1.36226326e-01 -1.84370413e-01 -6.89984113e-02 9.92450044e-02 4.27197739e-02 1.06651239e-01 -1.44209400e-01 1.40175726e-02 -2.19259620e-01 -6.60341308e-02 -4.84996252e-02 -1.56893149e-01 1.35572746e-01 -2.99542351e-03 2.82820058e-03 -3.37225385e-02 -3.04503851e-02 7.63778910e-02 5.34432679e-02 1.93610694e-02 1.48684969e-02 2.99273748e-02 -2.24980284e-02 1.07318364e-01 5.36640435e-02 -6.54958189e-02 8.49479139e-02 2.60115061e-02 -2.89148055e-02 5.07671712e-03 4.26461163e-04 -5.23401275e-02 -4.05993946e-02 4.88567241e-02 1.73355732e-02 -7.84492642e-02 -6.09769449e-02 -8.64617177e-04 1.18096538e-01 1.02063976e-01 -4.34559137e-02 4.31040637e-02 3.08175348e-02 -2.47079022e-02 6.08823970e-02 -5.74959591e-02 7.07221553e-02 -9.27333832e-02 -1.97113911e-03 -8.15372914e-02 8.99693370e-02 6.77732378e-02 -3.44921462e-02 -1.08414397e-01 -4.07792424e-04 8.50193575e-03 -5.81035065e-03 -3.96360308e-02 2.98858471e-02 -2.42534190e-01 1.04108438e-01 -1.99818671e-01 1.35115653e-01 2.69947529e-01 -4.95662570e-01 2.04137757e-01 -3.22060972e-01 -2.84314215e-01 -2.16519441e-02 -1.25860706e-01 3.67446750e-01 -1.05657719e-01 -3.38661253e-01 -4.09327745e-02 -2.03393802e-01 -2.68281043e-01 8.10091868e-02 2.64912963e-01 -2.67679263e-02 -2.70159483e-01 9.81163457e-02 5.35096750e-02 1.37658222e-02 -1.69441804e-01 1.34206101e-01 2.16898814e-01 -2.60779649e-01 -4.86178219e-01 -1.63264319e-01 -1.45055875e-01 6.02907268e-04 4.49760050e-01 -1.15238108e-01 -3.71851504e-01 1.92482084e-01 2.42862687e-01 3.01296592e-01 9.11044180e-02 2.82584995e-01 -9.28055272e-02 -4.17567372e-01 -4.71399307e-01 -5.66002607e-01 2.99054742e-01 -2.66541332e-01 -9.01650116e-02 -8.13262165e-02 -1.43787518e-01 1.91803977e-01 -6.43016323e-02 1.06106021e-01 -8.81625563e-02 2.69007478e-02 -1.42169222e-01 -1.21775530e-01 -3.22602130e-02 1.06516831e-01 -4.85190377e-02 7.86469430e-02 4.06021811e-02 1.07677579e-01 -5.66860288e-02 1.03213690e-01 4.36916389e-02 5.44074886e-02 -5.21392934e-02 1.38540596e-01 -4.72519323e-02 2.13912502e-02 -7.41078984e-03 1.07698880e-01 -2.04746887e-01 3.13983597e-02 -4.48544696e-02 -3.56504470e-02 -4.91044819e-02 -1.49181053e-01 5.76990508e-02 -5.65221868e-02 -6.68157116e-02 2.21669879e-02 4.39220071e-02 8.06893557e-02 -3.92262936e-02 2.08441578e-02 -1.02414213e-01 -4.61048782e-02 -4.81560603e-02 -2.87223496e-02 -6.58587664e-02 4.30907421e-02 8.58565196e-02 5.06125670e-03 4.90888134e-02 1.16649652e-02 -1.53664321e-01 8.66415724e-02 -3.58701311e-02 4.66024391e-02 -6.41402602e-02 4.67559770e-02 -1.44833885e-03 -1.06920913e-01 -2.20432729e-02 2.57078111e-02 -9.93064716e-02 -6.60896972e-02 3.60704549e-02 2.29930542e-02 -1.29454225e-01 -7.81029686e-02 6.63182363e-02 -1.21718876e-01 3.54284458e-02 -5.27822860e-02 -1.00703768e-01 -6.02540150e-02 1.57403983e-02 -4.67658788e-02 -4.93900739e-02 -9.02695730e-02 -7.24079506e-03 2.68728212e-02 -1.18714392e-01 -4.81624007e-02 3.30155753e-02 -1.44147649e-01 4.84100133e-02 7.60398880e-02 -1.01176547e-02 -3.86102013e-02 6.74270391e-02 5.11710672e-03 8.37373547e-03 3.95928323e-03 1.06353857e-01 7.36408401e-03 -1.72348674e-02 -9.96289849e-02 -6.92078704e-03 5.13089038e-02 -1.74676348e-02 -8.22064131e-02 -8.47756043e-02 1.57079399e-01 -1.13823280e-01 3.58842313e-02 -9.56751779e-03 -5.29158264e-02 2.69403905e-02 7.88546726e-02 -3.31460983e-02 1.43504366e-02 -1.16588809e-01 -9.85717326e-02 5.66682369e-02 2.76770373e-03 -9.71384495e-02 6.87219799e-02 4.59522530e-02 -2.25866656e-03 3.21828239e-02 -4.75722216e-02 -9.29132923e-02 6.03098758e-02 2.12479737e-02 -7.90660828e-02 -1.97432026e-01 5.60850389e-02 3.93206738e-02 -1.07188262e-02 -6.30414709e-02 3.87018770e-02 4.84639257e-02 5.07847257e-02 -1.35816690e-02 -5.68880746e-03 -1.02871684e-02 1.82554685e-02 1.04125433e-01 -7.52346516e-02 -4.02482413e-02 6.14827052e-02 -4.85255271e-02 -6.02240860e-03 -2.64138244e-02 -6.05257340e-02 -6.37133643e-02 -3.55721302e-02 5.56896590e-02 -2.31807400e-02 -2.01882511e-01 9.35701877e-02 -1.39183268e-01 -2.39782706e-02 8.14751014e-02 -6.37589619e-02 3.04394066e-01 -9.58268046e-02 -6.18806891e-02 1.02436207e-02 1.07594356e-01 5.48592769e-02 -1.38952136e-01 7.63278268e-03 -9.05465260e-02 -1.80206914e-02 -1.50351226e-01 1.60200804e-01 -1.80395991e-01 4.88279536e-02 -1.18395761e-01 6.42449362e-03 8.21780637e-02 -8.21795017e-02 -1.29451439e-01 9.54902470e-02 7.57976547e-02 -1.19824931e-01 -9.41763744e-02 -8.46389160e-02 -6.85291365e-02 -8.49631578e-02 -2.95899902e-02 9.65954289e-02 -3.08309142e-02 3.76998857e-02 3.01234201e-02 1.97397247e-01 1.83475271e-01 1.84252669e-04 -7.67578334e-02 -1.18528478e-01 -5.69985695e-02 8.08274895e-02 8.72720499e-04 1.29226521e-01 -9.78008211e-02 -4.02468070e-02 -1.06730126e-02 2.45415151e-01 8.37363526e-02 -8.95646736e-02 -1.09411903e-01 -1.17215209e-01 -3.41074131e-02 -2.94918995e-02 3.38754542e-02 6.20338619e-02 8.37996453e-02 -6.14528582e-02 1.32289246e-01 -1.18983649e-01 -3.26053649e-02 8.45545530e-02 -1.00580581e-01 -1.25533268e-01 1.03729814e-01 4.35798876e-02 -1.01015680e-01 1.63062185e-01 1.62013434e-02 -3.68557423e-02 -1.49896517e-01 9.61664543e-02 1.38971638e-02 1.24177122e-02 -1.35640940e-02 1.30875513e-01 -8.07006955e-02 -1.29863858e-01 6.64397180e-02 2.10147854e-02 -6.83498755e-02 -5.94292418e-04 2.27926560e-02 1.40216500e-01 -1.63652077e-01 -5.78068942e-02 -7.80410096e-02 4.16749865e-02 -8.77820104e-02 1.97766930e-01 2.60009300e-02 6.88242838e-02 -1.56036913e-01 -2.32631750e-02 -2.17990234e-01 5.32565042e-02 -9.02360957e-03 4.67931293e-02 -1.24906763e-01 7.68303797e-02 -9.36314464e-02 5.98269552e-02 5.59143834e-02 3.85322166e-03 -1.19332969e-02 1.36759607e-02 1.85406841e-02 -9.32792351e-02 6.13140203e-02 -2.58801989e-02 9.21748206e-02 5.82387373e-02 -1.89528763e-01 9.15915892e-02 6.16450189e-03 1.82826772e-01 -3.37497219e-02 2.39435025e-02 -2.45118722e-01 4.83227633e-02 -5.06635159e-02 -7.66331255e-02 -3.85940075e-02 -1.33873690e-02 -1.31185055e-01 1.02077186e-01 -4.83790785e-02 2.31692061e-01 -1.18751330e-02 1.57626849e-02 1.84246019e-01 4.05083261e-02 3.16793323e-02 4.82715704e-02 -3.78256403e-02 -1.21011846e-01 2.31429469e-02 -1.50092170e-01 2.89705880e-02 -8.33821371e-02 -3.27829160e-02 3.05565782e-02 -1.45403191e-01 4.19432484e-02 3.98717560e-02 -5.79534397e-02 -3.76255065e-02 -4.99075279e-02 -7.91006833e-02 3.95784602e-02 -2.88182660e-03 2.22025178e-02 1.29623145e-01 -4.77405339e-02 3.77815068e-02 2.02063955e-02 -1.30671278e-01 1.27551481e-02 3.99961621e-02 4.23048101e-02 6.75605014e-02 -2.36990713e-02 -9.99209136e-02 -3.84501405e-02 -4.50874865e-02 7.89540857e-02 -1.12510167e-01 -1.01751789e-01 6.54048380e-03 7.49693215e-02 -9.17080976e-03 8.03833678e-02 -4.69169505e-02 3.32325185e-03 1.04132399e-01 9.19847563e-02 -4.09202240e-02 5.45641817e-02 5.73509336e-02 9.41113848e-03 -4.10297066e-02 -6.01339005e-02 8.50954205e-02 1.75051540e-02 -2.97623388e-02 -9.67722107e-03 6.66414872e-02 3.48233595e-03 3.00526675e-02 -4.63809185e-02 -1.56094074e-01 9.87173319e-02 -3.90180759e-03 1.03918910e-02 -5.61141931e-02 -2.93985046e-02 3.34974900e-02 -1.12234786e-01 -1.09089226e-01 2.42941156e-02 -2.10099518e-02 5.46140186e-02 -7.37762749e-02 1.32156350e-02 -1.12306856e-01 -4.09617722e-02 -4.47064377e-02 -1.02376297e-01 3.22249457e-02 -2.31169518e-02 -7.85766616e-02 -8.31491202e-02 2.79298751e-04 6.33206367e-02 -1.16278313e-01 -3.57557391e-03 -4.60898839e-02 -6.39383048e-02 -1.64032932e-02 -8.98536518e-02 5.82871726e-03 -6.34042993e-02 1.92845628e-01 4.59885523e-02 7.75463656e-02 -1.13038264e-01 -1.23779112e-02 1.78925097e-02 -1.61925241e-01 5.08515313e-02 2.71713957e-02 -1.06076607e-02 3.50614414e-02 3.10043227e-02 -6.41530752e-02 -5.65907881e-02 1.59682199e-01 -1.13635607e-01 -1.53864041e-01 1.06663227e-01 4.36463393e-03 -4.94192578e-02 -9.22339484e-02 -5.07203378e-02 -1.21218808e-01 3.92335281e-02 -6.31097853e-02 3.23571526e-02 -4.98686507e-02 1.54839814e-01 -2.92994846e-02 8.07421505e-02 -6.12792335e-02 1.20905749e-01 -5.20991720e-02 8.73921290e-02 -2.01516170e-02 8.17234907e-03 -1.80311620e-01 2.61352528e-02 4.35357448e-04 1.34731501e-01 -2.06316411e-01 7.83910677e-02 -3.59335579e-02 -1.43373162e-01 1.54721081e-01 -1.82170823e-01 -2.72440463e-02 9.53331664e-02 -7.70326778e-02 9.61498544e-02 -1.42129824e-01 6.93995804e-02 -7.27898255e-02 -7.53734559e-02 -6.20589927e-02 -1.21798189e-02 -5.56059852e-02 -4.93442826e-02 -1.37215614e-01 8.96209702e-02 -5.12664765e-02 1.04265437e-01 -4.04220447e-03 -1.39744192e-01 -3.89916450e-02 2.39011139e-01 -1.16239287e-01 9.54029709e-03 -2.22823828e-01 -9.55991000e-02 2.61370819e-02 -7.62301609e-02 6.14316091e-02 -8.43398049e-02 1.80793643e-01 2.64250883e-03 2.22282088e-03 -1.56946778e-01 1.08832344e-02 -3.64935398e-02 -1.10134214e-01 2.27232084e-01 5.27833914e-03 -4.13288251e-02 -3.39938030e-02 9.44354087e-02 1.07183456e-01 -1.70074552e-02 -1.06251255e-01 -3.65971439e-02 -6.79115057e-02 -5.90673313e-02 2.03469247e-02 -9.64212045e-02 -1.11004420e-01 8.41932371e-02 2.52809026e-03 2.99283028e-01 -1.39449134e-01 -2.07381435e-02 7.33544258e-03 -2.20501930e-01 -7.23268986e-02 -1.20792344e-01 -5.22183739e-02 2.95706186e-02 2.55231131e-02 -2.79994421e-02 -1.34985298e-02 8.51507336e-02 5.76582491e-01 2.45414317e-01 2.24602222e-02 2.57640660e-01 3.56106699e-01 1.33840576e-01 -3.03064715e-02 -2.89468557e-01 1.43107418e-02 -4.48841751e-01 -2.70454794e-01 4.34765726e-01 1.81506604e-01 2.95874864e-01 -2.14213029e-01 -3.07264805e-01 -7.64606521e-02 -2.51765281e-01 7.26888515e-03 -1.81618363e-01 -2.92634163e-02 -6.78466484e-02 -1.34325057e-01 2.93526858e-01 -1.39434174e-01 4.66180176e-01 -9.42420289e-02 -8.06826800e-02 2.96188533e-01 1.40207395e-01 -1.69856384e-01 1.13061860e-01 3.61129910e-01 1.85452759e-01 -5.02925506e-03 4.16428931e-02 -3.06179643e-01 1.28723919e-01 -1.89018920e-01 4.97059852e-01 -1.61805358e-02 2.73295492e-01 2.48188734e-01 -3.99930686e-01 3.09023559e-01 -2.13788047e-01 4.14146781e-02 -4.30034041e-01 -1.23026989e-01 -3.26577313e-02 -8.06356519e-02 2.27890566e-01 -4.35758643e-02 4.37942706e-02 -1.65903151e-01 7.36932382e-02 -2.79810615e-02 5.86227812e-02 1.15929104e-01 -7.47603178e-02 7.34323412e-02 -4.41752933e-02 -9.45733562e-02 -1.31966472e-01 -8.09284300e-02 -1.45339575e-02 1.08331800e-01 -1.26811778e-02 -6.65957853e-02 -6.68926686e-02 -7.96396509e-02 5.89573197e-02 9.22925472e-02 1.19637348e-01 -2.82830119e-01 1.56500086e-01 -3.71245518e-02 3.34437788e-02 -2.29353495e-02 -1.76040176e-02 4.01412509e-02 -1.37891874e-01 1.39707699e-02 5.67692295e-02 8.76050666e-02 5.99434376e-02 -3.65168601e-02 -5.68133034e-02 -7.87706953e-03 -4.78067026e-02 -6.15445748e-02 -8.66717938e-03 3.07920203e-02 -6.76681325e-02 1.69781417e-01 1.39436409e-01 8.88222754e-02 7.24477042e-03 -6.46151826e-02 1.53438494e-01 4.27604802e-02 -1.18748322e-02 -2.29870766e-01 -5.33756614e-02 1.08666737e-02 8.60318765e-02 1.27302781e-01 -5.66675067e-02 1.02275508e-02 7.17037916e-02 2.27270033e-02 -1.00863121e-01 -6.95886090e-02 -5.52601293e-02 -6.55320585e-02 -1.34346876e-02 3.53626609e-02 5.06411977e-02 -1.12363383e-01 8.90971795e-02 -1.39340945e-02 1.53647587e-02 -1.94339350e-01 -1.03430465e-01 -9.91675854e-02 1.17349684e-01 1.05883710e-01 -3.31229120e-02 -6.41681105e-02 -1.39845544e-02 -2.95662563e-02 1.44461691e-01 -3.02279908e-02 5.45972027e-03 -8.70546475e-02 9.29510966e-02 -1.08388722e-01 -3.16964462e-02 -2.21542902e-02 1.54067567e-02 -2.89988909e-02 3.68376151e-02 1.23950280e-01 -3.05588581e-02 3.58296372e-02 9.47725400e-03 -1.41861990e-01 1.06413752e-01 5.09142168e-02 -4.93653901e-02 -3.94655056e-02 7.11167790e-03 -1.52174100e-01 1.54914027e-02 -1.84885487e-02 -9.20966044e-02 -6.87895566e-02 -6.40452802e-02 -4.96677216e-03 -1.37760323e-02 -1.61519274e-01 1.55031057e-02 1.35876387e-01 -8.49759132e-02 -1.34847304e-02 -1.10269198e-02 -1.28326386e-01 -5.00152409e-02 -2.44970787e-02 -2.99229529e-02 -6.95069656e-02 4.79106186e-03 4.45718020e-02 7.37784952e-02 -5.86917438e-02 -5.99606847e-03 1.30390553e-02 -1.02785928e-02 -1.18931599e-01 1.00367544e-02 -1.46063209e-01 -1.23790605e-02 3.87120843e-02 -3.73286419e-02 -9.61195901e-02 -2.11334527e-02 6.36525676e-02 4.81901914e-02 -1.41595360e-02 7.45520368e-02 5.41198347e-03 -2.62541808e-02 -5.59729673e-02 -5.84186986e-03 -1.55794024e-01 5.86169027e-02 -2.88730226e-02 -9.17817801e-02 5.55636585e-02 -8.67856219e-02 5.23296222e-02 5.42755388e-02 1.56716760e-02 3.18147764e-02 -5.96493343e-03 -3.50718126e-02 1.56168222e-01 1.71057992e-02 -2.46924669e-01 -3.58095877e-02 -3.56246717e-02 2.73228809e-02 -3.31728160e-02 -1.30365416e-02 -9.12659541e-02 -1.72040850e-01 6.29724860e-02 7.59219239e-03 -2.38349214e-02 -6.20913506e-02 5.16989380e-02 -1.11565381e-01 9.01826620e-02 2.69152559e-02 -1.48448534e-02 -5.27818315e-03 -2.46773660e-02 7.28575066e-02 5.85902669e-02 8.80747437e-02 -5.73964342e-02 1.52836712e-02 6.72540963e-02 6.39386429e-03 2.12900773e-01 -3.87617387e-02 -7.91407228e-02 4.47943918e-02 -1.72959134e-01 7.08164275e-02 3.66165361e-04 -3.12501229e-02 -1.32538825e-01 3.66989374e-02 -4.24476080e-02 -8.86533931e-02 -3.73122245e-02 -4.55391929e-02 -2.02535605e-03 2.54957471e-02 -3.43875922e-02 4.30015894e-03 8.52570459e-02 7.15007335e-02 3.73974517e-02 -7.13581219e-03 -1.45635083e-01 -6.05164208e-02 5.83890378e-02 -6.56886920e-02 -1.56091126e-02 -7.30850250e-02 -4.26314771e-02 -1.05340734e-01 -5.30833937e-02 3.89291421e-02 -9.18034986e-02 -6.06485046e-02 5.20696156e-02 1.43622579e-02 4.45013344e-02 2.50925757e-02 -2.93646986e-03 -5.06396964e-02 1.08367182e-01 6.44933656e-02 -5.23095541e-02 -1.00830212e-01 3.60513479e-02 -1.07281141e-01 3.67114916e-02 4.03579734e-02 6.01023659e-02 3.88353616e-02 -9.35819969e-02 7.30833262e-02 -3.68652046e-02 2.88414005e-02 1.81920215e-01 2.12417036e-01 -1.30930081e-01 1.28867626e-01 5.82247274e-03 -2.98076086e-02 7.24959448e-02 5.10349534e-02 -1.25600984e-02 -3.72604728e-02 9.68906954e-02 5.87614663e-02 -1.83322304e-03 1.30282692e-03 -8.80325958e-03 -5.57063073e-02 1.98516235e-01 -5.83103448e-02 7.09691718e-02 1.83567163e-02 -1.00253142e-01 -1.18359718e-02 -7.29839653e-02 3.15517753e-01 -1.00819387e-01 -1.24990314e-01 3.43563929e-02 4.79711555e-02 2.12344766e-01 -5.62910438e-02 9.22764912e-02 3.22675183e-02 6.41990304e-02 -9.08955410e-02 1.62368827e-02 7.48581588e-02 1.72158122e-01 9.69406739e-02 7.36822784e-02 1.12958960e-01 -7.59924352e-02 2.36019026e-02 -1.65191978e-01 2.59580743e-02 2.91388705e-02 -5.18744811e-02 7.16049150e-02 1.18791483e-01 3.02011985e-02 -7.01201782e-02 -1.15304135e-01 2.34493569e-01 -5.39928973e-02 4.74049374e-02 -3.92608494e-02 1.64469816e-02 8.12704787e-02 2.44624354e-02 -1.91459879e-02 -6.19497523e-02 1.03418920e-02 6.32583499e-02 -1.08932063e-01 5.04821204e-02 2.62313504e-02 3.03393858e-03 7.25622103e-02 -1.36978388e-01 -4.73993309e-02 5.07115386e-04 -4.18597423e-02 7.99425766e-02 3.39020118e-02 4.23019230e-02 -1.90384969e-01 7.77599514e-02 -1.17649129e-02 -3.10637783e-02 4.46059089e-03 4.53281440e-02 -3.38690430e-02 -6.27365038e-02 -5.68762682e-02 5.60889728e-02 1.23656727e-01 8.78921077e-02 9.48850438e-02 -4.38777581e-02 1.10025592e-01 -5.64794391e-02 7.02635245e-03 1.21368922e-01 -9.07959342e-02 -9.22861099e-02 1.31890610e-01 -1.76607873e-02 -2.67957635e-02 -3.27872066e-03 -2.44024489e-02 1.40533879e-01 1.37664024e-02 3.45022092e-03 -3.95912379e-02 6.07349947e-02 1.31910935e-01 6.74669594e-02 3.11742984e-02 -1.34926261e-02 4.51845266e-02 3.17825228e-02 1.59615189e-01 2.84699034e-02 -4.56699207e-02 -1.36311166e-02 6.09191731e-02 -1.64304208e-02 -7.68872499e-02 7.81870261e-02 -1.09546185e-01 2.92296797e-01 -9.61873587e-03 5.25367297e-02 -1.51360005e-01 1.73480988e-01 -9.03780945e-03 -3.17548066e-02 2.33808700e-02 -1.34981826e-01 -2.43636265e-01 8.13572854e-03 -4.64315824e-02 8.64336863e-02 1.14669539e-01 6.01611137e-02 6.50716871e-02 -6.23145998e-02 7.25250542e-02 1.87861472e-02 -2.27232222e-02 7.85031840e-02 2.58276742e-02 -3.40307057e-02 4.24245000e-02 9.27277133e-02 1.08076781e-01 8.16273689e-03 -9.07097943e-03 1.13649972e-01 5.43458350e-02 1.08138688e-01 -2.62416620e-02 -1.02409899e-01 -4.37084436e-02 1.08704297e-02 1.16779342e-01 2.46606413e-02 -1.62098296e-02 1.07521258e-01 -2.93491362e-03 1.10915691e-01 -8.89722854e-02 -7.12844208e-02 -4.37005982e-02 -5.82876429e-02 3.98916155e-02 1.23864621e-01 -1.09572694e-01 5.38448244e-02 -9.45898518e-02 2.24077664e-02 -1.87290892e-01 -2.17142915e-05 -6.64239302e-02 -3.33054885e-02 1.31878136e-02 -3.08380965e-02 -1.23736769e-01 -6.68410361e-02 2.26688813e-02 1.64643928e-01 4.20188252e-03 -2.33540740e-02 1.57933503e-01 -1.25372961e-01 4.30092439e-02 2.01481562e-02 1.15480490e-01 -3.78557201e-03 -3.95666547e-02 7.41627887e-02 1.03649259e-01 2.01667380e-02 1.99058838e-02 1.65414829e-02 -9.62210894e-02 9.10161436e-02 -4.41768132e-02 4.21531945e-02 -3.13936844e-02 7.66137242e-02 -4.30207439e-02 2.09061336e-03 7.03592831e-03 -1.30914524e-01 4.58328277e-02 -8.18556920e-03 7.84620717e-02 -1.15913883e-01 -6.49194792e-02 3.96140572e-03 -7.78302997e-02 -5.96696474e-02 2.84108310e-03 5.53194582e-02 -1.04892738e-01 4.06852225e-03 -1.10909201e-01 -7.72626251e-02 -1.52254000e-01 1.22076394e-02 -8.36095065e-02 -1.51654512e-01 3.60191576e-02 6.32154383e-03 -1.30743042e-01 -8.93922225e-02 -3.99313159e-02 1.58310905e-01 -3.51983705e-03 -3.12434155e-02 6.13653548e-02 -5.51844351e-02 -6.19287901e-02 1.44868776e-01 1.34772966e-02 -8.24006200e-02 2.57171341e-03 8.85456428e-02 6.53927550e-02 -2.35377625e-02 1.28027096e-01 1.47533372e-01 -1.67928532e-01 1.19492300e-01 6.47632033e-02 -1.38073206e-01 -3.15627977e-02 -2.00984459e-02 1.26903459e-01 1.04006298e-01 -5.02651446e-02 -4.58910018e-02 -3.57044791e-03 -1.32781556e-02 -1.04158126e-01 1.49495192e-02 1.46349117e-01 -2.71317735e-03 -9.05871168e-02 4.54723166e-04 8.11938718e-02 -4.56456318e-02 -1.33247420e-01 2.52857894e-01 -3.76168862e-02 -7.24581629e-02 1.20576032e-01 -2.22704291e-01 1.40074223e-01 4.02716547e-02 -8.85308385e-02 2.68672835e-02 6.37762547e-02 -3.52461189e-02 8.14994648e-02 -3.49669494e-02 -2.63887160e-02 -1.36297435e-01 1.85629100e-01 1.11707531e-01 -6.72655106e-02 1.04459740e-01 -1.55988693e-01 3.26103205e-03 1.19276330e-01 8.81706327e-02 -1.40831321e-02 -3.43219452e-02 -5.53161316e-02 -5.47596924e-02 -1.30173102e-01 2.44327694e-01 -1.78874936e-02 4.55660671e-02 -1.68338090e-01 -6.14203513e-03 -4.68231179e-02 -3.60610560e-02 -7.53764510e-02 -1.46511734e-01 -8.24140161e-02 1.63089350e-01 7.76446536e-02 3.98885421e-02 -1.39198676e-01 -8.16569030e-02 8.21716189e-02 1.34528792e-02 9.15307328e-02 7.14086834e-03 -3.62429917e-02 4.01825905e-02 -1.49664357e-01 7.28432909e-02 -1.62815213e-01 5.67474514e-02 -6.24787398e-02 9.02384892e-02 1.23453520e-01 2.77976114e-02 -8.08366910e-02 3.17800604e-02 -3.74943316e-02 1.08073860e-01 -5.03784418e-02 3.68788578e-02 1.84228018e-01 -1.16780855e-01 -1.00188032e-01 3.02119572e-02 -1.40969604e-02 -2.31729001e-01 1.18544884e-01 -4.09885086e-02 -3.92173696e-03 1.21222977e-02 2.33745035e-02 1.88558400e-01 -5.21715805e-02 5.92188351e-02 -7.59888366e-02 4.00383510e-02 -1.11386411e-01 -5.54464348e-02 6.50963336e-02 1.01669095e-01 1.06074356e-01 8.07912573e-02 -1.55512571e-01 -4.54214588e-02 -6.47295564e-02 6.89380860e-04 1.13680765e-01 -4.91460748e-02 -9.14814323e-03 2.50535667e-01 8.20533838e-03 -7.07463250e-02 -1.79375559e-01 1.58034593e-01 -5.16148359e-02 -3.61685716e-02 1.48769096e-01 -1.31849334e-01 2.38063246e-01 -7.41490200e-02 1.11472689e-01 -9.73910838e-02 -6.43139780e-02 4.75951880e-02 1.04988411e-01 1.27458274e-01 -4.85587195e-02 3.91006321e-02 4.25206162e-02 1.57674640e-01 4.66683172e-02 -1.17961206e-01 3.24838348e-02 1.12442501e-01 1.62770480e-01 3.14228609e-02 -3.23762074e-02 6.37383834e-02 -9.89322364e-02 -2.33533476e-02 -1.80305094e-01 1.02086939e-01 1.07466340e-01 9.61343292e-03 -7.33624818e-03 -3.44232954e-02 1.01134889e-01 -4.24540155e-02 3.01099066e-02 1.91863496e-02 -6.41613035e-03 -3.34137417e-02 8.16037655e-02 4.99259196e-02 -1.59596995e-01 6.66770935e-02 -5.54410592e-02 -4.26458567e-02 4.77156416e-02 -3.07167359e-02 -9.55377519e-02 -1.05756707e-01 -3.19020711e-02 -1.02457911e-01 -4.16631326e-02 -1.20727234e-01 2.72165854e-02 -4.95157763e-02 6.37271255e-02 7.70421475e-02 1.26327258e-02 -1.66586563e-02 8.72674957e-03 8.47963169e-02 -7.82477483e-02 -5.05421646e-02 -5.56863137e-02 3.16824503e-02 -6.31420761e-02 -1.80253163e-02 7.18657672e-02 3.01738754e-02 2.66655050e-02 6.77801436e-03 -1.00992918e-01 -1.08601995e-01 -2.66616326e-02 -3.56738977e-02 -5.27815931e-02 2.87366807e-01 -3.69275026e-02 1.24793477e-01 -1.53398946e-01 -1.35953307e-01 5.76880053e-02 3.85689503e-03 -6.28537387e-02 4.76389527e-02 -8.25474933e-02 6.05092980e-02 6.08883216e-04 7.72360191e-02 -2.13473424e-01 -1.30051121e-01 -1.42074451e-01 -7.02235252e-02 1.17863856e-01 -4.34163213e-02 -3.86668332e-02 1.54202938e-01 -1.47900179e-01 1.92462918e-04 -1.98077679e-01 9.07018781e-02 -7.88482577e-02 -5.01814969e-02 -3.88532728e-02 -4.17123698e-02 -1.30698993e-03 7.20719695e-02 -8.77530724e-02 1.33218333e-01 -5.81682287e-03 -3.40567306e-02 2.06631459e-02 -5.79532795e-02 8.92297539e-04 -1.00169778e-01 -5.19223288e-02 1.51819671e-02 2.16631144e-02 2.06802990e-02 -2.75991764e-02 1.02978230e-01 -4.05899435e-02 3.50473495e-03 -1.25253007e-01 1.07884243e-01 6.90123858e-03 2.02005468e-02 -2.82177534e-02 1.89037379e-02 -6.17209002e-02 -5.05498908e-02 -1.16498798e-01 -3.42460573e-02 7.13132024e-02 -2.80406177e-02 -5.45991659e-02 5.36002517e-02 -1.78819835e-01 -9.25865141e-04 -1.40480502e-02 9.62107722e-03 -5.73524721e-02 6.53845519e-02 -4.97146770e-02 -6.84708506e-02 1.24903827e-03 -4.89848107e-03 -1.12806261e-01 -2.78778542e-02 4.48902184e-03 -8.87972116e-03 3.81262228e-02 -3.68296914e-02 5.76408170e-02 -8.87346268e-03 9.89471283e-03 1.41582964e-02 -3.15445028e-02 7.78981894e-02 1.02416910e-01 -1.12502128e-01 5.09157404e-02 -5.73716126e-02 8.89970586e-02 -3.77812982e-02 -4.40848880e-02 6.04166798e-02 -2.17555631e-02 -6.54303581e-02 6.81826621e-02 5.65361567e-02 -9.52579379e-02 -1.08391885e-03 2.34002760e-03 -5.30686863e-02 -8.07465836e-02 -1.51117761e-02 -3.93723026e-02 2.93360427e-02 -2.82953568e-02 -2.03528218e-02 1.38913438e-01 5.65510355e-02 8.98917690e-02 8.04371461e-02 -1.51259989e-01 -1.78247597e-02 -4.43772823e-02 -5.50985225e-02 -2.69217789e-02 -8.16095620e-02 -1.02946430e-01 -5.85455634e-02 2.14825831e-02 -4.54980507e-02 -5.73409162e-02 -5.28710186e-02 6.61653141e-03 1.04524381e-01 -1.00720022e-02 -4.27814983e-02 5.43858670e-03 1.18817128e-01 -1.32786278e-02 8.65556076e-02 -5.13029285e-03 6.80922344e-02 -6.40558302e-02 -2.26352047e-02 1.16884913e-02 -2.81961821e-03 8.57531056e-02 -1.56477708e-02 -2.96197832e-02 8.57775956e-02 2.60974653e-02 -2.51703858e-02 1.20144509e-01 1.76048487e-01 1.46119378e-03 -9.24451277e-02 1.44991204e-01 -1.49871662e-01 -1.87192693e-01 -1.37977928e-01 -1.54731512e-01 -2.53771037e-01 -3.22113156e-01 -2.25200817e-01 -7.52740651e-02 -1.06883921e-01 -6.59808796e-03 5.62662147e-02 1.31787181e-01 5.13059609e-02 4.26053166e-01 -3.12941074e-01 -1.00981824e-01 -1.51708452e-02 -2.62364149e-01 1.14446312e-01 7.13991642e-01 -1.00564994e-01 -1.20892577e-01 -1.63441658e-01 4.01623577e-01 -1.29649758e-01 -2.42233742e-02 -1.65499210e-01 3.04061510e-02 -4.94332582e-01 -4.44949418e-01 2.22302787e-02 -2.89353341e-01 1.11780958e-02 2.04414710e-01 -1.66298330e-01 -9.12548825e-02 1.74107105e-01 2.25259438e-01 -1.02640405e-01 3.28034014e-01 4.58358750e-02 1.87598184e-01 -2.53280789e-01 2.17980472e-03 -1.51024694e-02 -1.20144658e-01 1.30431548e-01 -7.66783729e-02 1.10662961e-02 -2.08914161e-01 -5.32525666e-02 8.84865373e-02 -2.59799301e-04 -2.69874148e-02 -4.94922474e-02 4.14583199e-02 -4.77250218e-02 4.91685867e-02 -3.08058932e-02 -7.12070465e-02 8.53945967e-03 1.12520531e-01 5.27682006e-02 -2.27900431e-01 1.01351157e-01 -6.90694675e-02 7.33320788e-03 -3.58630195e-02 1.02461569e-01 -1.67608008e-01 -2.61822306e-02 -4.65338081e-02 5.47456592e-02 1.44871905e-01 -4.66241054e-02 -1.02363385e-01 -1.26055658e-01 -3.01262140e-02 1.59486812e-02 1.09348081e-01 1.38498873e-01 -5.48022334e-03 -2.60733366e-02 1.70215275e-02 -9.40273106e-02 8.78707618e-02 8.48048478e-02 2.13984363e-02 -1.38286829e-01 4.28162292e-02 -2.77038254e-02 -4.73876297e-02 -3.11670601e-02 -1.26968980e-01 1.14053972e-01 -3.97514477e-02 2.51017772e-02 -1.01101220e-01 -1.49938837e-01 -7.31632560e-02 -1.84610561e-02 -8.03348571e-02 -5.30245081e-02 -7.97317699e-02 7.08358288e-02 -1.14305997e-02 6.11881278e-02 -7.90040568e-02 1.84051227e-02 -3.69180292e-02 -9.06151086e-02 -1.12625360e-01 2.24908106e-02 -5.65334558e-02 -2.35752221e-02 6.01808541e-02 9.33005959e-02 -1.78146705e-01 2.61671431e-02 -7.29486197e-02 -7.37521425e-03 7.09464103e-02 -7.57635832e-02 -7.69869834e-02 -3.81532907e-02 1.83094218e-02 1.15523599e-01 6.64265603e-02 1.15832761e-02 -9.58475396e-02 -1.15197734e-03 -1.73516527e-01 -5.20507842e-02 1.19039588e-01 4.68681678e-02 -5.93560189e-02 2.84776147e-02 6.17483780e-02 1.48816388e-02 -7.09944740e-02 -4.93948869e-02 -7.38469213e-02 1.92203134e-01 -3.00167128e-02 1.49054334e-01 -1.91832334e-01 9.59928855e-02 -2.76672095e-02 -1.19941100e-01 1.82230417e-02 2.63312832e-02 -7.21724033e-02 -4.01550112e-03 -8.34605992e-02 -1.26006249e-02 -6.91431612e-02 -2.89047752e-02 -8.60935077e-03 3.58698666e-02 -7.35650808e-02 -1.48131407e-03 -1.29309341e-01 7.96731859e-02 -1.21926762e-01 1.39717190e-02 -2.19545692e-01 5.10789119e-02 6.24065427e-03 -2.70942058e-02 -3.71616473e-03 -2.34369598e-02 -3.63012217e-02 -1.29898190e-01 -1.00697562e-01 9.25542638e-02 -7.12820739e-02 -6.55131042e-02 7.21907392e-02 -1.26302943e-01 3.44294421e-02 -1.92479845e-02 -1.17602564e-01 3.53408754e-02 -3.47519405e-02 -6.56648055e-02 9.33053568e-02 5.65409213e-02 -1.00364164e-02 -5.11450469e-02 -1.34869367e-01 9.41827297e-02 4.75875922e-02 -5.31755993e-03 -7.77206421e-02 -2.60596573e-02 -1.65625010e-02 -4.63215075e-02 6.84452197e-03 -2.19598040e-02 4.85114977e-02 8.41821954e-02 8.24766010e-02 5.81083680e-03 1.46439457e-02 2.66318861e-02 -2.17679963e-02 -7.89944306e-02 -5.30969934e-04 -4.52501932e-03 -1.25337809e-01 3.68095422e-03 1.83533505e-02 8.79101977e-02 -1.22401655e-01 7.17922673e-02 3.22225243e-02 5.72256860e-04 9.86299850e-03 -2.10530255e-02 -3.68867069e-02 -2.41190251e-02 -1.23691335e-01 1.24536939e-01 -1.60691179e-02 8.17341357e-02 7.15508685e-02 2.99248137e-02 -1.70002989e-02 -3.67407016e-02 -7.82971531e-02 -4.39840741e-02 -1.11358248e-01 9.95296240e-02 -6.51131989e-03 6.72363341e-02 4.05495539e-02 -2.53827330e-02 -8.38836730e-02 7.76981562e-02 4.43269089e-02 -5.94652593e-02 3.29235522e-03 -1.67213678e-02 -7.93444831e-03 4.33832631e-02 -1.07094636e-02 -8.44520628e-02 8.54805559e-02 3.37979123e-02 3.02207749e-03 -6.30572159e-03 -1.82148710e-01 1.44102657e-02 7.29810223e-02 8.48296806e-02 -1.28958141e-02 -1.82948131e-02 -9.16341543e-02 -1.63917169e-01 -4.94831093e-02 3.14862095e-02 -9.39802527e-02 -1.15228049e-01 2.05789991e-02 -8.35823715e-02 4.96299788e-02 4.96151336e-02 -4.32645380e-02 8.97564888e-02 -2.75351331e-02 5.05713467e-03 1.10313945e-01 -8.84179696e-02 -5.07853739e-02 3.73267313e-03 -3.23289670e-02 3.49060968e-02 1.54517174e-01 1.33740446e-02 -4.88346117e-03 -7.05442950e-02 2.28430517e-02 1.66447796e-02 1.31415734e-02 1.59616172e-02 -5.66116646e-02 1.15070663e-01 8.92270878e-02 4.76562865e-02 -4.77399863e-02 -3.17501053e-02 -3.98059115e-02 1.89199615e-02 -2.15689442e-03 -9.29476600e-03 5.38887903e-02 2.27195844e-02 -4.86814119e-02 -7.34656453e-02 -1.64580375e-01 -7.65964016e-02 -2.28775833e-02 1.39013883e-02 -1.02993198e-01 3.36229592e-03 -6.90956414e-02 8.06198791e-02 8.00934955e-02 7.30456412e-02 -2.03039199e-01 3.20906937e-02 -3.40266526e-03 9.95561853e-02 -1.49172377e-02 9.46245939e-02 -3.13161016e-02 -5.70763387e-02 1.51927739e-01 9.16140229e-02 -5.80459693e-03 2.21240416e-01 1.47078456e-02 -1.19206682e-01 2.54645701e-02 -9.56257656e-02 -5.54511230e-03 -6.08491600e-02 1.12038245e-02 -8.05913955e-02 1.04480967e-01 6.14647157e-02 5.36903786e-03 4.60416730e-03 -1.41853437e-01 8.34561437e-02 3.47965434e-02 -2.05952898e-02 -4.11747172e-02 5.81909865e-02 -7.04796612e-02 5.58535755e-02 -8.85823891e-02 -2.95266062e-02 9.85451937e-02 -1.54396426e-02 6.69660643e-02 3.08960397e-02 -1.94210961e-01 1.18293010e-01 6.62678555e-02 7.07554296e-02 2.10733935e-02 -4.07077335e-02 -9.45968032e-02 -7.65131339e-02 -3.34609277e-03 -4.14894000e-02 -7.59347156e-02 -2.28863228e-02 4.79276814e-02 -9.43968445e-02 8.47609714e-02 -8.23201537e-02 7.07279472e-03 -5.30618802e-02 -5.38401399e-03 2.44251415e-02 7.31747365e-03 -8.75171460e-03 -7.55183473e-02 1.30007237e-01 -8.06953933e-04 -1.41130835e-02 1.34841293e-01 5.42091019e-02 1.32799773e-02 -3.52942869e-02 2.84494944e-02 3.53962071e-02 3.46287042e-02 3.25528644e-02 -4.98928055e-02 2.66924709e-01 -1.78739265e-01 1.47776499e-01 -1.46147199e-02 4.27163690e-02 1.40879437e-01 5.18392995e-02 1.38822481e-01 6.94223046e-02 7.48665258e-02 1.81609511e-01 1.85844433e-02 1.11415805e-02 -1.31024644e-01 -5.12283072e-02 4.54169735e-02 -2.37952285e-02 4.91429295e-04 -3.11404672e-02 4.19860296e-02 7.29983598e-02 8.46290216e-02 -3.04934531e-02 -1.22279562e-01 -1.78227767e-01 1.01868071e-01 5.32907359e-02 6.45070942e-03 1.42206326e-01 -9.84018072e-02 1.73363566e-01 4.31576520e-02 -3.76047082e-02 7.03696758e-02 9.34064575e-03 1.13879569e-01 2.13455841e-01 -3.97908054e-02 6.46645948e-02 -5.13577126e-02 -1.58559620e-01 -9.89484936e-02 1.00187391e-01 4.80631143e-02 9.18755010e-02 -2.51646601e-02 1.00923389e-01 -2.94742584e-02 3.31971020e-01 -3.78003195e-02 -1.85708240e-01 1.17874376e-01 -1.08386710e-01 1.69932023e-01 -2.44893730e-01 -1.84156820e-01 2.87018213e-02 -5.66443652e-02 -1.55943120e-02 -1.99582770e-01 -1.18447945e-01 -5.42623885e-02 -7.37391189e-02 1.73586145e-01 -2.57871719e-03 -3.11821550e-01 1.64836749e-01 -1.96055159e-01 5.64718582e-02 1.24683455e-01 -1.48249436e-02 3.40465413e-05 -1.81718782e-01 6.21525794e-02 1.28696859e-01 1.14526644e-01 1.83715280e-02 2.77240276e-01 -1.81893781e-01 2.23685980e-01 2.33849809e-01 6.94560334e-02 -8.64261836e-02 -5.81045076e-02 -5.07717691e-02 1.98906614e-03 2.12575421e-02 3.51406746e-02 1.22202486e-01 -1.70281588e-03 -5.66090941e-02 6.57982305e-02 1.53311506e-01 -7.58318405e-04 -7.38601834e-02 -1.04108654e-01 8.49138498e-02 -5.51806651e-02 -5.81159396e-03 -4.00588475e-02 -2.74567530e-02 -9.93443578e-02 5.74653386e-04 5.96025400e-02 -1.68642104e-02 1.72387790e-02 3.32442708e-02 6.20082878e-02 -3.05758906e-03 -8.96227881e-02 -4.93808789e-03 -1.18975909e-02 8.77048005e-04 -1.72948770e-04 -1.43273419e-03 -8.59791264e-02 -9.21042543e-03 3.51125710e-02 -5.40460320e-03 -1.05715483e-01 -5.95988445e-02 -3.76178371e-03 2.71414239e-02 -9.19113979e-02 9.80847180e-02 -1.02202771e-02 5.81204221e-02 4.90786619e-02 7.89151788e-02 -3.86921465e-02 7.83357099e-02 1.70470923e-02 2.52715498e-02 -1.36691937e-02 -1.25524938e-01 -2.81938780e-02 -3.19443131e-03 5.39934672e-02 1.27503937e-02 8.43897983e-02 -3.84771340e-02 3.12050730e-01 1.51115984e-01 -6.85368944e-03 2.04071775e-01 2.22972795e-01 -3.30781251e-01 1.60359457e-01 -2.39689425e-01 -6.26078621e-02 -1.31844565e-01 -4.31257874e-01 -9.68492765e-04 2.11191669e-01 9.96158198e-02 -1.59144938e-01 1.32452637e-01 2.12905139e-01 -4.07254189e-01 4.50417876e-01 -1.14262417e-01 -2.09878027e-01 1.92921922e-01 6.48008063e-02 2.03463465e-01 3.57080728e-01 9.32174176e-02 -9.56410766e-02 -8.52497667e-02 3.28901052e-01 -8.90521780e-02 -2.39854939e-02 1.46356955e-01 8.16902295e-02 1.42641693e-01 -1.76761121e-01 2.39803910e-01 1.47404224e-01 -3.25832546e-01 1.39678493e-01 2.23048791e-01 1.46574467e-01 2.92030331e-02 3.64952683e-01 -4.76994276e-01 3.61639768e-01 -2.63062883e-02 1.13719683e-02 -1.62842870e-01 4.59951200e-02 -5.96325323e-02 -7.21298084e-02 1.07188769e-01 9.25252587e-02 -7.76660070e-02 1.29458699e-02 3.69092152e-02 -6.11031353e-02 5.03078997e-02 -7.19460547e-02 1.63567474e-03 6.82771876e-02 -7.50848949e-02 -3.65016535e-02 -3.02449297e-02 -1.19357072e-01 -3.89297307e-02 -1.91727150e-02 2.14465298e-02 -5.84838279e-02 -1.18988035e-02 -1.39146671e-01 5.99454669e-03 -4.67270687e-02 -2.66852770e-02 -1.31860420e-01 7.18546435e-02 6.91956207e-02 5.65549843e-02 -5.97699545e-02 8.24664980e-02 -4.31624912e-02 -1.27239933e-03 1.17251396e-01 6.21340573e-02 6.52286187e-02 6.01882227e-02 -5.57998456e-02 -1.65559780e-02 -4.11150455e-02 1.70424860e-02 -6.74411841e-03 -2.60475720e-03 -1.94733031e-02 -7.44622871e-02 -1.11422248e-01 5.74095771e-02 -1.49599612e-01 1.60785913e-02 -2.74958275e-02 2.24250942e-01 -7.17906058e-02 5.90449013e-02 -2.50787944e-01 -2.22952999e-02 -2.00887751e-02 2.52102967e-02 2.61880420e-02 -5.71340658e-02 6.70372099e-02 -6.73802616e-03 -4.91252393e-02 -3.23534720e-02 -4.09239195e-02 4.13708538e-02 1.75773837e-02 4.96814176e-02 -2.24289112e-03 6.19561970e-02 -1.01893820e-01 3.27119268e-02 1.90416854e-02 1.47407968e-02 -1.64995164e-01 9.85181928e-02 -7.99257532e-02 3.73396254e-03 9.93799567e-02 8.96920860e-02 -5.13682663e-02 -1.08819231e-01 8.12121183e-02 1.40056089e-01 -1.44137532e-01 1.53614557e-03 3.58791649e-02 -5.98558187e-02 -1.39317423e-01 5.90588972e-02 1.94176082e-02 -1.16283514e-01 -1.73454192e-02 1.97173264e-02 -5.44592105e-02 2.86201313e-02 -1.07529521e-01 3.24429929e-01 -3.64871204e-01 1.88345239e-01 -1.30021185e-01 -4.23019147e-03 1.75480649e-01 4.51195359e-01 -2.19258919e-01 1.43907383e-01 3.60100418e-02 -2.02148631e-01 -5.94192922e-01 5.34015536e-01 -4.00634468e-01 3.35660994e-01 1.58083171e-01 -2.27924496e-01 -3.08984220e-01 9.95017886e-02 3.81361216e-01 1.41228467e-01 2.28023529e-01 3.52352917e-01 -4.95417267e-02 -1.63983274e-02 -4.15843368e-01 3.69518131e-01 1.80454329e-01 4.16144788e-01 -7.13270724e-01 8.95286873e-02 2.47267410e-01 1.65365487e-01 1.02468446e-01 -3.76301438e-01 -4.36644405e-01 7.93735087e-01 6.64029419e-01 2.55561080e-02 -6.99673116e-01 9.84490439e-02 5.85963011e-01 -1.50826409e-01 -1.55553713e-01 -3.74074429e-01 -2.26866409e-01 3.86243910e-01 -1.51985539e-02 -9.86719653e-02 -6.93545118e-02 1.19220726e-01 -9.17485822e-03 -2.46252082e-02 2.60696746e-02 -7.99195766e-02 -1.90630909e-02 1.26668245e-01 2.94130743e-02 9.62674990e-03 4.80090678e-02 1.71571076e-02 6.03508800e-02 -1.55073982e-02 -1.59535512e-01 -1.54402301e-01 -5.99112734e-02 -4.18074131e-02 -3.97555307e-02 -5.32689504e-02 -1.35161385e-01 -2.62724375e-03 2.04920187e-03 4.51107882e-02 -1.62855729e-01 5.03287464e-02 2.06220821e-02 -6.52960641e-03 -1.94822357e-03 1.13324516e-01 -6.66107684e-02 -5.60608804e-02 -3.53843383e-02 -2.75416262e-02 -9.67147797e-02 1.13064438e-01 2.71018129e-02 -1.23226549e-02 -3.92713025e-02 5.81025146e-03 1.08598378e-02 -4.57466953e-02 1.26629010e-01 6.33647442e-02 -6.86115772e-02 1.03590585e-01 1.16795346e-01 -5.84630482e-02 -5.75167090e-02 1.88121885e-01 -1.10287527e-02 -3.21952812e-02 -1.35855645e-01 -1.06659755e-01 1.02444284e-01 9.12035704e-02 1.64588183e-01 -1.06996804e-01 -1.56399440e-02 1.35075003e-02 -4.04549502e-02 -1.25001982e-01 -1.41815878e-02 4.09983750e-03 2.11299416e-02 -5.80438599e-02 9.41705704e-02 -1.15760863e-01 -2.51907170e-01 1.59780353e-01 7.44096488e-02 -1.33382594e-02 -2.48056203e-01 1.26582071e-01 -8.15183222e-02 -1.60950318e-01 -7.06061125e-02 -4.44619358e-02 -1.68950006e-01 5.64358234e-02 -3.04282997e-02 4.22562249e-02 1.05925396e-01 6.39083907e-02 -4.93811518e-02 7.12443665e-02 -2.56992169e-02 -9.82851982e-02 -8.95695686e-02 -6.20572679e-02 -3.82970297e-03 4.37886082e-02 1.36407211e-01 9.40066352e-02 -1.36919506e-03 -1.53820127e-01 -1.55904710e-01 1.73505887e-01 -4.07911502e-02 -7.69189373e-03 -1.06487699e-01 2.86140162e-02 3.36026140e-02 -3.30063924e-02 3.82308988e-03 9.20849328e-04 6.14669994e-02 1.06496304e-01 -3.53303440e-02 1.63810357e-01 -6.87208176e-02 1.49215311e-01 -2.52776202e-02 -9.25437957e-02 -1.18015908e-01 4.31740396e-02 -1.39206812e-01 7.67840073e-02 -2.79459842e-02 1.04175277e-01 -1.85277879e-01 4.67196591e-02 -4.98815859e-03 1.38753697e-01 -1.77535400e-01 -3.26179259e-04 3.01293898e-02 -8.26345682e-02 -6.80503473e-02 2.06441171e-02 6.73905388e-02 1.61786415e-02 5.76874577e-02 -4.62545231e-02 3.72175090e-02 1.15483783e-01 -9.01641995e-02 -1.07017025e-01 4.81843948e-02 6.81679789e-03 3.62882800e-02 -1.07421633e-02 -6.09544888e-02 4.02359255e-02 -7.22362548e-02 5.50663732e-02 -1.10490188e-01 6.32735789e-02 -6.24330435e-03 -3.72860171e-02 -1.03994697e-01 1.27228975e-01 -6.18375354e-02 -5.60641624e-02 4.65107001e-02 1.79060157e-02 -6.44947588e-02 -1.21248893e-01 1.11126155e-02 -2.16029454e-02 2.07957961e-02 6.27825335e-02 -2.32588220e-02 1.53442159e-01 -8.66761655e-02 6.62925392e-02 2.15134434e-02 -1.88744441e-02 -2.07649603e-01 1.76121935e-01 1.18715484e-02 -6.35010898e-02 -5.15226321e-03 -3.60730812e-02 -1.01337492e-01 -1.11912690e-01 -8.63374025e-02 1.75010234e-01 -1.32784778e-02 6.68293387e-02 1.84713993e-02 -9.95882750e-02 9.45031550e-03 8.01708102e-02 -2.39850022e-02 -3.20711881e-02 -5.12608700e-02 5.36091924e-02 5.82021847e-03 -2.96927672e-02 1.21535182e-01 1.41791210e-01 1.40301481e-01 1.03722930e-01 3.80229890e-01 -1.66295022e-01 1.56099061e-02 -1.78162768e-01 3.70132804e-01 -4.13564622e-01 3.11872154e-01 -7.62147382e-02 -1.12071089e-01 1.56075880e-01 -2.06300855e-01 2.98726052e-01 6.18846081e-02 -1.04070820e-01 2.80032337e-01 1.75615460e-01 -1.31671265e-01 6.24237917e-02 -1.41387641e-01 5.32716922e-02 -7.32510313e-02 2.40836129e-01 1.56299081e-02 -4.13993858e-02 2.49641314e-01 5.49208857e-02 2.09153160e-01 -1.59226209e-01 1.90153599e-01 -2.18619302e-01 1.57363713e-01 1.41131744e-01 -1.88043684e-01 -9.15679783e-02 3.75711948e-01 -1.57455690e-02 1.62347719e-01 -4.49342519e-01 -3.61217409e-02 -7.94232860e-02 2.23433711e-02 -1.98437318e-01 -5.58902472e-02 -1.01136401e-01 6.13232218e-02 4.09086831e-02 2.42838077e-02 9.19616129e-03 -1.13674790e-01 1.37272447e-01 -6.86376244e-02 -1.49175659e-01 2.48850472e-02 9.47730541e-02 -2.17325836e-02 -2.03899387e-02 -9.52023789e-02 5.70720760e-03 1.11495145e-02 6.44514263e-02 -1.37091145e-01 -1.14400275e-01 -1.17102526e-02 -6.39282763e-02 -7.76269846e-03 3.61172035e-02 -2.17754692e-01 3.58797573e-02 -5.86978458e-02 1.27289414e-01 -1.80112123e-01 7.04670027e-02 -9.33747962e-02 -1.18472110e-02 6.29324988e-02 -5.51870018e-02 -1.63952142e-01 -6.87077492e-02 5.26776128e-02 1.81582555e-01 1.96925439e-02 -8.42304677e-02 2.57874057e-02 -5.13123646e-02 -3.16264108e-02 -2.08984222e-02 -9.25499424e-02 9.44504738e-02 7.84852877e-02 2.92847157e-02 -7.15561062e-02 -1.46822602e-01 -2.52492595e-02 -6.56650886e-02 -1.04982100e-01 6.96268827e-02 -1.04984805e-01 -5.42919300e-02 -6.71920031e-02 -1.32289510e-02 5.81282796e-03 8.83102696e-03 -6.05551898e-02 -2.31478363e-02 1.14320284e-02 -5.99172078e-02 9.58423615e-02 -3.63653414e-02 -1.17516078e-01 -1.10644689e-02 6.91252276e-02 -7.04068840e-02 -9.26553160e-02 -4.72105518e-02 -1.49171397e-01 8.59897491e-03 5.57177141e-02 -1.16038635e-01 -9.54949856e-02 -1.48856146e-02 -5.91707714e-02 3.80556881e-02 -1.22904116e-02 4.72367406e-02 -1.85687058e-02 -3.93062532e-02 8.21757093e-02 2.33857799e-02 1.30425878e-02 -4.05841768e-02 -7.47598708e-03 -4.43292484e-02 -1.01895660e-01 2.46669236e-03 2.73585059e-02 -9.93984491e-02 -6.59190714e-02 -2.98286672e-03 -6.76073954e-02 1.02006067e-02 1.84302740e-02 -9.13129970e-02 -1.19221479e-01 1.51478499e-01 6.66074455e-02 -8.29176977e-03 -5.03324643e-02 -1.50424749e-01 9.86391827e-02 7.98610449e-02 -6.24611676e-02 4.04193103e-02 1.89965498e-02 3.30916792e-02 -2.85865832e-02 -2.80428696e-02 -1.08656257e-01 2.39557866e-02 -6.20512739e-02 -4.32375446e-02 4.38855365e-02 -1.26398995e-03 -6.96878731e-02 -1.45697268e-02 -8.09843000e-03 -1.51012046e-05 -1.52782291e-01 2.61424948e-02 2.86538340e-03 9.62483138e-03 4.03948985e-02 -6.47008568e-02 -3.69049050e-02 1.75742451e-02 6.15489297e-02 4.37369645e-02 7.38086831e-03 6.66246265e-02 6.86431117e-03 -1.43479183e-01 -1.16789714e-02 7.56463781e-03 -2.01512072e-02 -8.16179626e-03 -8.57968777e-02 1.25634730e-01 5.14763407e-02 -1.30548254e-01 -8.65010470e-02 -9.05120149e-02 -1.00065410e-01 -1.03495261e-02 -9.45954770e-03 -1.48358224e-02 1.23636667e-02 -3.33332177e-03 6.89302199e-03 -1.45173154e-03 3.35158966e-02 7.75196590e-04 1.10202450e-02 -9.74546373e-02 -2.38689631e-02 -8.94538313e-02 -7.75625631e-02 3.65979709e-02 5.72764650e-02 -2.38917917e-02 4.35772464e-02 -9.37818810e-02 -1.46093309e-01 1.22827468e-02 -1.03336037e-03 3.48387063e-02 -1.47818744e-01 8.50091353e-02 5.21102883e-02 5.97916879e-02 5.74881472e-02 -5.98057844e-02 -4.14086096e-02 2.14434698e-01 -1.06039584e-01 1.77827954e-01 9.81322229e-02 -9.43056419e-02 1.47457346e-01 6.76488429e-02 3.15649956e-02 -3.08414120e-02 2.94012073e-02 -7.68698826e-02 7.56757408e-02 -1.28697410e-01 7.38293380e-02 3.90283838e-02 -1.73975602e-01 -3.54321636e-02 -1.48807213e-01 1.18992977e-01 -1.56432495e-01 6.33071736e-02 -2.46932246e-02 3.39513682e-02 6.95433691e-02 9.11293253e-02 1.12909991e-02 1.27929067e-02 5.98764941e-02 -2.95658521e-02 7.19645694e-02 -6.16300292e-02 -8.57194439e-02 -1.19461998e-01 1.87765155e-02 -5.46652600e-02 4.10733931e-02 7.22685829e-02 -1.45822436e-01 1.72082912e-02 -4.54063118e-02 -6.60659596e-02 -2.50002652e-01 3.69459130e-02 -4.95853499e-02 -1.13521770e-01 5.19437455e-02 4.19972166e-02 -7.09522590e-02 3.48874032e-02 -3.42166312e-02 8.45214874e-02 3.76072191e-02 3.06595378e-02 2.88950596e-02 1.84615608e-02 -4.20190021e-02 -2.03051027e-02 -6.04307167e-02 -3.87519337e-02 2.17411085e-03 -2.21247934e-02 2.29550339e-02 -1.05003320e-01 -4.47824933e-02 -4.07282379e-04 -2.63941854e-01 1.18081063e-01 -1.23745203e-02 6.24233037e-02 7.23340809e-02 7.48120248e-02 3.65462005e-02 8.44409168e-02 4.33024541e-02 4.87971976e-02 5.69265634e-02 -4.21436280e-02 9.58351567e-02 8.73943418e-02 -1.46674842e-01 3.29911448e-02 2.42171902e-02 -2.63541285e-02 -1.61320288e-02 -1.72827225e-02 -5.31982034e-02 -3.28076035e-02 1.53063769e-02 2.79662684e-02 -7.07617477e-02 -1.14664957e-01 -2.92300172e-02 -1.94301009e-02 -6.68367893e-02 8.29130784e-02 -6.41470924e-02 1.77007109e-01 -3.11011486e-02 1.27889529e-01 -8.08680654e-02 -7.41629954e-03 -3.62293683e-02 6.61302879e-02 -4.14964147e-02 8.48397017e-02 2.70447768e-02 2.26791180e-03 -1.14330193e-02 -1.24742337e-01 1.00620911e-02 -9.01154950e-02 -3.97222154e-02 -7.40448609e-02 -2.06272483e-01 1.27044111e-01 3.29739787e-02 -2.45039072e-02 -1.38419434e-01 5.50679974e-02 4.40882333e-02 -3.18047255e-02 5.17147072e-02 -1.33140013e-02 3.50736268e-02 -2.94105858e-02 -1.20025970e-01 3.01945508e-02 -2.97932718e-02 -1.31474119e-02 1.07050575e-02 4.27780859e-02 -3.13686319e-02 8.06448807e-04 -9.52292383e-02 3.42045836e-02 -5.38491122e-02 6.00787923e-02 -1.63107857e-01 9.94039793e-03 -7.21307769e-02 -5.55236787e-02 -6.36423901e-02 1.62902758e-01 8.07532966e-02 -6.89068809e-02 6.90252185e-02 1.99115649e-02 -1.70904994e-02 6.52775615e-02 6.75324053e-02 -1.25177100e-01 -2.54631694e-02 -7.10339397e-02 -9.22756717e-02 -7.84486979e-02 -4.05147448e-02 -3.76238003e-02 -1.18814871e-01 3.45202051e-02 -1.27712354e-01 1.97381228e-01 -1.87146649e-01 3.87747705e-01 -8.67695883e-02 1.27740622e-01 -9.35090799e-03 -2.27722615e-01 7.85189644e-02 -4.81337965e-01 -1.84310958e-01 1.15753867e-01 -1.85444355e-01 2.72470832e-01 -6.03883862e-02 -3.93559247e-01 2.14163139e-01 -2.63386182e-02 -2.22344860e-01 1.02380224e-01 -9.13266018e-02 2.54743155e-02 -5.60030714e-02 1.47322655e-01 -2.41920114e-01 3.45041960e-01 -1.50071293e-01 -9.68543366e-02 2.15328813e-01 3.03130060e-01 -3.22425008e-01 -2.65033960e-01 1.21218711e-01 -1.21369874e-02 -1.17420256e-01 -2.18388811e-02 3.37428093e-01 1.78138345e-01 3.80163014e-01 4.41690713e-01 -1.07622869e-01 1.62787646e-01 2.95971662e-01 -1.82415441e-01 3.80252488e-02 -7.71699399e-02 -6.39207810e-02 -9.65820700e-02 6.64124340e-02 -3.49867269e-02 -8.51054043e-02 9.56959650e-02 -1.72773287e-01 3.41215078e-03 -5.00163287e-02 -4.10290547e-02 5.03178919e-03 5.64343743e-02 2.85576880e-02 -1.03263736e-01 -5.69417328e-03 1.16224103e-01 2.36297455e-02 -9.93585773e-03 -1.58546194e-02 4.80137430e-02 -2.59580128e-02 2.72271056e-02 3.75602841e-02 -1.43603934e-02 -1.54388711e-01 3.59275788e-02 -6.39215633e-02 6.23615161e-02 -1.87591344e-01 9.50916186e-02 -8.27746466e-03 -2.40108874e-02 -6.94709131e-04 3.15716006e-02 -1.40811773e-02 3.36286202e-02 -2.13816017e-02 4.18181010e-02 6.28227815e-02 -6.54437020e-02 6.34025782e-02 -2.00359337e-02 5.80024160e-03 -5.36841489e-02 -6.02380894e-02 -8.16101208e-02 -5.41175308e-04 5.54112205e-03 1.18654100e-02 1.09560847e-01 2.68626120e-02 -9.32059586e-02 -1.02681950e-01 2.12885693e-01 -5.29643893e-02 6.21398585e-03 -1.18817024e-01 2.79122405e-02 3.50849051e-03 -7.21635515e-05 -4.22738343e-02 4.81589772e-02 6.20602220e-02 -1.03318252e-01 -7.82499015e-02 2.97717992e-02 -7.80965909e-02 5.65886535e-02 5.06787002e-03 -9.66424588e-03 -2.86679287e-02 -7.87382871e-02 -7.26165697e-02 2.92374287e-02 -7.93485437e-03 -7.20011592e-02 -1.71741217e-01 4.12793551e-03 1.64549034e-02 -7.30488896e-02 -1.19300503e-02 -6.65225014e-02 2.07626466e-02 -7.78038427e-02 5.33290878e-02 -7.01387227e-02 -1.58645362e-02 -1.86011828e-02 1.20296665e-02 2.78870855e-03 -1.36896130e-02 -6.21623658e-02 3.71800512e-02 -1.13706402e-02 -5.89582138e-02 -4.33276035e-02 -1.51919713e-02 -1.58500653e-02 -4.34142537e-02 1.15698650e-01 -1.99545771e-01 7.57667348e-02 6.69237506e-03 4.14996184e-02 -2.13495307e-02 -7.72790089e-02 4.93184328e-02 9.16721299e-02 -6.33620769e-02 5.03288060e-02 1.08383112e-02 -9.09393951e-02 1.02653112e-02 7.78608490e-03 -2.41960004e-01 1.24247812e-01 4.12470549e-02 -1.20293917e-02 4.38267216e-02 -5.49378768e-02 -1.92920893e-01 -9.06560570e-02 6.18724264e-02 -8.67522582e-02 -1.30033297e-02 -1.71086028e-01 1.82722881e-02 4.65394892e-02 5.92622794e-02 -5.72311692e-02 4.61528450e-02 -7.15525895e-02 2.54561752e-03 1.50456935e-01 -1.40832756e-02 -3.54379267e-02 -8.92736018e-02 1.37226447e-01 -4.42958325e-02 -2.94581577e-02 2.45728597e-01 -5.92910945e-02 4.86896224e-02 -1.64405376e-01 4.72574821e-03 3.73615138e-02 3.41806598e-02 -4.89414223e-02 -1.05972521e-01 1.91730767e-01 1.24735804e-02 3.76504809e-02 -2.06766382e-01 -2.52126288e-02 -5.87237850e-02 1.01564199e-01 -2.58296579e-02 -1.96926855e-02 -6.77458942e-02 2.73506269e-02 -9.73756313e-02 -5.71117224e-03 -1.82639656e-03 -1.23353191e-01 -1.39479473e-01 -9.22242776e-02 -9.84424129e-02 6.12468738e-03 -7.53571242e-02 5.43711968e-02 -1.56395100e-02 -6.61703991e-03 -2.18997747e-01 1.64431054e-02 -6.92005008e-02 6.84867129e-02 -3.87709960e-02 -2.33761407e-02 -5.34076020e-02 -1.48925819e-02 -7.36705810e-02 6.88055679e-02 -4.30098213e-02 2.41241857e-01 8.12949464e-02 -3.88599783e-02 -7.64795765e-02 1.12654313e-01 -2.74570379e-02 1.15102343e-01 1.07044071e-01 5.81349693e-02 -7.39051998e-02 1.89187974e-02 -3.34552154e-02 -2.65823416e-02 -3.58420075e-03 1.68260008e-01 7.11663887e-02 1.42616540e-01 -1.28496811e-01 -1.67560548e-01 -4.26719822e-02 1.54684260e-02 2.50671711e-02 1.40438722e-02 -2.57253591e-02 1.25686988e-01 1.11151755e-01 7.27543384e-02 -1.27955139e-01 -5.31699806e-02 -1.25354782e-01 9.26296711e-02 -5.79340942e-03 9.15615186e-02 -1.68043092e-01 1.35024518e-01 1.34666070e-01 3.05746719e-02 -9.25912037e-02 1.41498908e-01 8.25588498e-03 -7.36366734e-02 -7.77340755e-02 -1.14016882e-04 -1.51398510e-01 1.61250576e-01 -2.05665585e-02 2.32554793e-01 -4.71040644e-02 -9.01404321e-02 6.09371141e-02 3.79619263e-02 -5.08929379e-02 2.93453932e-02 -4.20525670e-02 6.05628081e-02 1.43939063e-01 3.78363654e-02 1.18290503e-02 6.10129759e-02 4.32887748e-02 -9.31200981e-02 -2.51587294e-02 2.21953958e-01 1.25465142e-02 1.74245995e-03 -1.12917088e-02 7.74075612e-02 -2.11700723e-01 -1.63621884e-02 -1.43929413e-02 -5.85748674e-03 -6.07267469e-02 5.05256467e-02 6.38132244e-02 8.76918882e-02 -2.02019483e-01 -3.45206335e-02 1.90238687e-04 3.90974432e-02 -3.69982272e-02 -1.42620981e-01 -1.20299011e-01 -1.53668635e-02 1.19120162e-02 7.21765682e-02 -2.01056778e-01 1.04547674e-02 1.10858092e-02 -8.42284337e-02 -3.18554901e-02 -1.48855045e-01 -1.30979285e-01 -7.67751690e-03 -1.37380168e-01 1.82942022e-02 3.89572536e-03 1.02558590e-01 1.98698882e-02 3.08104362e-02 -2.01356933e-02 -1.65288206e-02 3.54428068e-02 -2.50241961e-02 -3.10671553e-02 6.68390095e-02 7.96887353e-02 1.42067313e-01 -3.48652564e-02 -7.61070335e-03 -7.58566335e-02 1.27520695e-01 8.92297849e-02 1.04907744e-01 -1.29749507e-01 -1.45695105e-01 -1.05880857e-01 -8.96033198e-02 -6.69911429e-02 4.13408726e-02 -4.56215348e-03 1.35362819e-01 -2.95676291e-02 -8.59960392e-02 -6.66079819e-02 -1.69987120e-02 -7.13376924e-02 -4.97059971e-02 -5.03644571e-02 5.22959977e-02 -1.29486322e-01 5.60139492e-02 1.73641294e-02 3.68665643e-02 -2.29536131e-01 -1.77051760e-02 -1.60783574e-01 -8.95010028e-03 -5.12023754e-02 -3.43379527e-02 -1.51883483e-01 -2.72028074e-02 -9.55217257e-02 1.71499133e-01 -9.09270532e-03 -1.22320410e-02 5.37091754e-02 2.42422125e-03 6.03486598e-02 4.41136807e-02 -7.30567351e-02 1.27676845e-01 2.05897074e-02 -8.59785676e-02 1.31362397e-02 -7.74040772e-03 -1.29482999e-01 1.77552179e-02 -2.45966136e-01 1.69486582e-01 3.68380249e-02 4.05078521e-03 9.18632597e-02 3.96174826e-02 9.80935171e-02 6.56520901e-03 7.33098164e-02 4.57020290e-02 -1.15042038e-01 5.37814572e-02 -4.52219136e-02 -3.14720795e-02 -2.10466638e-01 3.11750472e-02 2.32760590e-02 -6.29084408e-02 -3.24893296e-02 -6.80863531e-03 -8.07200074e-02 -9.56671163e-02 1.13003934e-02 -3.70160267e-02 -7.29655027e-02 -7.74664730e-02 -4.64081727e-02 2.20711175e-02 7.70432800e-02 1.87770054e-02 -1.35281608e-02 4.25001197e-02 -6.31843554e-03 7.38088265e-02 -5.55342212e-02 -4.69366461e-02 2.50992570e-02 7.23990425e-02 -1.19003169e-02 1.17704250e-01 1.46388501e-01 6.32905662e-02 1.65874492e-02 4.12465148e-02 -4.60893512e-02 4.69644815e-02 5.99841736e-02 -1.81045413e-01 -4.89204451e-02 8.17704201e-02 5.64846490e-03 3.30672041e-02 1.23110488e-01 -9.46338195e-03 1.98205605e-01 -5.45010939e-02 -1.54378384e-01 4.48347675e-03 -1.39324870e-02 -1.00784600e-01 -1.98006891e-02 -7.03823194e-02 -9.42189470e-02 5.26867919e-02 -9.22316760e-02 8.60674828e-02 -4.70428020e-02 -1.12415761e-01 -8.35412145e-02 1.90789580e-01 -6.19713869e-03 -3.16090062e-02 -9.69665051e-02 1.61128864e-01 5.65785654e-02 9.83289704e-02 -1.27130896e-01 2.46415865e-02 4.01555672e-02 -7.00367466e-02 -1.17594980e-01 2.05030933e-01 2.22275361e-01 1.47717327e-01 1.35789797e-01 -3.99236567e-02 -2.63705179e-02 5.06164879e-02 -1.79389447e-01 -9.62351188e-02 -6.99748052e-04 1.00257657e-02 1.39877528e-01 8.80948380e-02 1.63567349e-01 1.84331313e-01 1.16856545e-01 -6.70589320e-03 4.84002568e-02 -3.12233344e-02 -1.89035505e-01 -3.46865468e-02 1.77383497e-01 -3.90645742e-01 -1.06288552e-01 -1.31807759e-01 1.08798064e-01 2.23530661e-02 -6.40499815e-02 -2.16000900e-01 -7.61418566e-02 4.73798923e-02 2.90099364e-02 3.42060849e-02 5.67315554e-04 5.21417320e-01 -1.72871239e-02 1.63944185e-01 1.83338076e-01 -3.46573919e-01 1.61331609e-01 2.84251720e-01 -1.90566164e-02 2.81403512e-01 -4.44024265e-01 -1.47550762e-01 -1.41901329e-01 1.51593596e-01 -3.54613140e-02 6.37812242e-02 -3.48169655e-01 1.88253019e-02 3.68823782e-02 4.36733328e-02 -1.87019765e-01 -1.96267471e-01 1.35750383e-01 -2.31582269e-01 1.29682377e-01 -6.19413912e-01 5.59211858e-02 1.27581768e-02 4.48437408e-02 -9.09255538e-03 -4.32639271e-02 4.87443581e-02 -8.41394737e-02 1.95505358e-02 -4.48037162e-02 -1.11019947e-01 1.06787635e-02 -9.56399739e-02 -7.57741183e-02 3.07353921e-02 3.17980535e-02 -1.73014263e-03 9.18995813e-02 7.57624805e-02 -2.20957011e-01 1.03808511e-02 -7.20020458e-02 -2.33724285e-02 6.07573129e-02 1.75951160e-02 -8.25294703e-02 -6.82511553e-03 -5.49592078e-02 -1.21280447e-01 -9.87471715e-02 3.80247645e-02 -4.33128513e-02 5.24255224e-02 9.45393816e-02 6.22290839e-03 2.02111024e-02 8.61314535e-02 4.79373597e-02 1.22532345e-01 4.12782766e-02 1.33525115e-02 5.96171767e-02 -5.60364909e-02 -4.05032299e-02 6.25532642e-02 -4.39091399e-02 6.69830106e-03 -4.21683341e-02 7.00933933e-02 -2.58579291e-02 1.56345833e-02 -4.18114699e-02 -3.94510897e-03 -4.29250635e-02 8.21068808e-02 -7.34987259e-02 3.90709899e-02 1.06249144e-02 3.63961756e-02 -5.63944057e-02 -1.96967237e-02 -8.49287510e-02 -9.79815982e-03 1.09312274e-01 -4.15797345e-02 -4.36863415e-02 5.48563786e-02 -1.39804170e-01 -1.94942877e-02 9.35503766e-02 -2.63775177e-02 -1.51315153e-01 4.55907062e-02 -7.00341314e-02 3.16173434e-02 2.69590300e-02 -8.11200291e-02 -1.05002381e-01 8.24127048e-02 2.49083037e-03 -3.73060182e-02 5.76355532e-02 1.93248242e-02 -3.30179185e-02 7.97312111e-02 1.18219733e-01 8.76453891e-02 3.96795310e-02 -1.00510798e-01 -7.62130395e-02 9.74468235e-03 -2.41131131e-02 2.47895401e-02 1.02787167e-01 -6.52589798e-02 -7.09195957e-02 4.82703280e-03 1.06620111e-01 3.25930752e-02 3.34965847e-02 9.10378620e-02 -1.20954871e-01 1.12914935e-01 -6.78446144e-02 9.40678194e-02 -1.94800086e-02 -3.11132651e-02 -9.87341478e-02 -3.95682231e-02 1.22945726e-01 3.13171111e-02 8.79430845e-02 -5.02814166e-03 -1.13931466e-02 -4.55799140e-03 -1.15225360e-01 -7.20792636e-02 1.94454584e-02 -3.56771536e-02 -1.05365571e-02 1.84798226e-01 3.86727136e-03 1.12139039e-01 -1.25750735e-01 1.20081887e-01 -2.39633098e-01 2.21308589e-01 -1.70543819e-04 -5.75519204e-02 2.33188774e-02 -6.23213127e-02 -3.50714847e-02 3.75263579e-02 -9.02360156e-02 2.17654094e-01 -1.83495246e-02 6.88994396e-03 -1.50605328e-02 -8.93170461e-02 1.13047123e-01 6.84749559e-02 3.94633748e-02 -5.10608405e-02 -1.94179788e-02 2.58198548e-02 3.27935033e-02 1.43441558e-01 -1.21640794e-01 1.07600555e-01 1.67977661e-01 1.38022944e-01 2.21132502e-01 -7.28178620e-02 2.36707315e-01 -1.33479327e-01 6.43606111e-02 -1.77710295e-01 -1.28877452e-02 -1.21835075e-01 1.61666170e-01 1.61111057e-02 -1.19056925e-01 1.18359365e-01 -1.21369891e-01 1.05155021e-01 3.80903959e-01 9.23305470e-03 -3.30685854e-01 -1.95651762e-02 -1.05791256e-01 1.65132582e-01 -8.87101069e-02 1.56798549e-02 -5.14095910e-02 -1.96351912e-02 1.94625333e-01 1.61587551e-01 9.79322717e-02 1.54198885e-01 3.32167238e-01 -7.15644732e-02 -1.35875449e-01 7.13588744e-02 -1.24806829e-01 -1.73428282e-01 2.22192287e-01 -7.10021108e-02 -5.16720023e-03 -2.98848540e-01 -1.08623564e-01 2.27672830e-01 -1.93253443e-01 -1.42051771e-01 -5.34477122e-02 -1.70828208e-01 4.24995609e-02 -1.44891933e-01 -6.77484423e-02 1.68011665e-01 5.74982911e-02 1.45257236e-02 -2.03825668e-01 -3.04697528e-02 -1.06383050e-02 -3.75677459e-02 1.56692177e-01 9.85259265e-02 9.29667130e-02 -8.19671080e-02 -1.94319561e-02 -1.65180769e-02 -3.10177710e-02 2.21672617e-02 -3.71959689e-03 -1.16177112e-01 3.33568640e-02 -7.59315640e-02 -1.52461037e-01 2.27089226e-03 -1.79414432e-02 1.83108691e-02 -1.81793734e-01 -2.71043628e-02 1.66199394e-02 6.37150034e-02 -3.92605402e-02 1.11960486e-01 2.85405684e-02 1.26480743e-01 -1.39557853e-01 1.38073280e-01 -1.34695526e-02 9.47572738e-02 1.54108018e-01 -1.37846589e-01 -2.41481904e-02 -2.07152087e-02 -8.17084685e-02 -1.35694697e-01 -1.33066878e-01 -6.87875599e-02 3.12009864e-02 5.69744147e-02 2.05784842e-01 5.79889305e-02 -8.97987559e-02 1.74640283e-01 -2.41612773e-02 6.56711757e-02 -3.50408368e-02 -8.39723051e-02 9.34761614e-02 -2.16929063e-01 -1.23122521e-01 -4.71123680e-02 7.13571860e-03 -1.05672635e-01 6.29134700e-02 4.97653931e-02 4.16161539e-03 7.16994405e-02 -1.16697349e-01 3.72642204e-02 -1.31080821e-01 5.08066155e-02 -1.47970095e-01 2.05269337e-01 1.05199004e-02 -7.87623301e-02 1.19909830e-01 -1.81892350e-01 7.27578104e-02 -7.89159462e-02 9.62534100e-02 -1.25214264e-01 -2.35633161e-02 1.07193202e-01 4.17525321e-02 1.00356095e-01 -2.03299783e-02 1.99340633e-03 6.40140325e-02 4.44472916e-02 -1.22814968e-01 1.02576921e-02 -1.28617942e-01 -1.66087359e-01 4.95660072e-03 3.89592163e-02 4.68053967e-02 7.61520723e-03 5.33641726e-02 1.09679997e-01 -1.49700344e-02 1.23196587e-01 5.12813963e-02 4.77269496e-04 -2.18778178e-01 2.32065730e-02 -8.38967338e-02 2.10485011e-02 -8.28186646e-02 -1.09779313e-02 -5.43833151e-02 7.37063661e-02 -5.40699027e-02 2.71285269e-02 -1.23289920e-01 2.38032211e-02 6.96135908e-02 -3.80914588e-03 1.04131505e-01 -2.28297245e-02 -1.49836093e-01 7.85467774e-02 -1.20166369e-01 -6.42131257e-04 -1.49675995e-01 -3.50817963e-02 -1.26386002e-01 -7.37752914e-02 -5.63495457e-02 -1.87728152e-01 -1.87894911e-01 8.00821744e-03 1.15409698e-02 1.20945640e-01 1.21026248e-01 3.16803120e-02 6.82181641e-02 -4.70068976e-02 6.67920709e-03 -6.13029897e-02 -1.10956701e-02 -1.15933158e-01 -7.32984021e-02 1.15461618e-01 -1.05375871e-02 4.91271634e-03 -5.41028902e-02 -4.48077470e-02 -8.17469507e-02 1.37756065e-01 1.15866259e-01 -4.56370674e-02 -1.24852978e-01 -6.21863408e-03 1.16873318e-02 2.05755793e-02 1.38667956e-01 -4.43344004e-02 -6.78278357e-02 1.68546345e-02 3.08025554e-02 -1.95447281e-02 -1.80627272e-01 6.08522817e-02 4.37805615e-02 -1.20904697e-02 -5.72504178e-02 4.14171780e-04 -6.86529428e-02 6.96551725e-02 8.52499455e-02 3.40031832e-02 -1.59410104e-01 3.76096182e-02 2.41584405e-02 -4.87724766e-02 -1.20041825e-01 -6.86406018e-03 -2.03970343e-01 -8.10858235e-02 -1.91129018e-02 1.57920927e-01 8.91264081e-02 4.01285738e-02 1.30713999e-01 2.83110365e-02 3.17609077e-03 -3.07692960e-02 4.23817970e-02 3.48641537e-02 3.46833118e-03 -2.19109282e-02 -9.45879705e-03 1.49110444e-02 1.88632701e-02 -5.98489074e-03 -8.88184682e-02 1.24389464e-02 -2.51990161e-04 -6.43667281e-02 5.29409200e-02 6.52195662e-02 -1.63274705e-02 6.24785088e-02 1.80579387e-02 1.31743789e-01 6.60017505e-02 9.17459056e-02 1.91133171e-02 7.71990418e-02 -2.75251180e-01 -8.83485377e-02 -1.80510283e-01 7.44690970e-02 -2.19660494e-02 -1.13341540e-01 -1.07488021e-01 -9.78747532e-02 -5.47178201e-02 -6.99879751e-02 -1.85160208e-02 -1.29999235e-01 4.25072461e-02 9.70445350e-02 2.43921466e-02 1.19837448e-02 9.14015770e-02 -4.27948684e-03 -6.59536943e-02 1.47756353e-01 6.63064718e-02 6.65129870e-02 -4.06934097e-02 1.11400954e-01 -1.49726123e-02 1.01868669e-02 1.49568304e-01 -5.28704049e-03 2.47849505e-02 3.66734676e-02 2.38093771e-02 2.33386364e-02 8.52683112e-02 -3.70331332e-02 -3.49410027e-02 1.42342076e-01 -5.30118532e-02 2.44459342e-02 -8.73555169e-02 8.00107196e-02 -9.81471129e-03 -1.16451167e-01 -7.61112571e-02 2.95671020e-02 1.09338805e-01 9.52017307e-02 -2.22351309e-02 6.14641123e-02 -1.39118448e-01 -4.59531732e-02 4.25522551e-02 1.04007214e-01 2.27311198e-02 -6.67019933e-02 -1.08978823e-01 -3.09537165e-02 -9.37683433e-02 7.95298666e-02 -8.39938745e-02 -2.54310388e-02 -1.03951186e-01 6.44375607e-02 -4.38425317e-02 1.68477092e-02 -8.92259181e-02 8.66615772e-02 1.16239943e-01 1.65219843e-01 6.83151558e-02 4.46240306e-02 9.52086747e-02 -1.62681013e-01 -1.81194451e-02 -2.49500573e-02 -5.79637103e-02 -5.92585281e-03 -2.64199283e-02 2.74677835e-02 6.42032549e-02 -9.18704867e-02 -3.03110071e-02 6.20843982e-03 -3.82351093e-02 5.95102198e-02 -4.41249721e-02 2.79566515e-02 -7.48696998e-02 -3.77936512e-02 7.73072988e-02 1.78863760e-02 -9.07502100e-02 -6.28609881e-02 -1.50514767e-01 -9.37144905e-02 1.45491837e-02 -1.28436806e-02 -5.07356711e-02 -4.10726555e-02 -7.05287531e-02 -1.26442626e-01 1.40689751e-02 8.45217183e-02 -1.36621192e-01 7.81953707e-02 6.87497109e-02 -1.10176280e-01 -1.54983968e-01 -2.12013675e-03 -3.05819400e-02 5.78291453e-02 -7.20365793e-02 1.17027592e-02 -5.93232326e-02 4.39925604e-02 -4.96047698e-02 1.14198729e-01 1.08266108e-01 -2.56724469e-02 1.04217470e-01 2.97512673e-02 -1.33113652e-01 4.32740338e-02 3.08149736e-02 -3.17062587e-02 3.07977647e-02 -1.17160872e-01 1.39706628e-02 -5.84666282e-02 4.86712754e-02 4.51226719e-02 -1.00250468e-01 -1.54478140e-02 9.96625423e-02 -6.06119819e-02 -1.50468633e-01 4.58309390e-02 -5.57643268e-03 2.50791945e-03 -4.90012486e-03 -4.05703150e-02 -6.96116639e-03 5.86655177e-03 9.60716605e-02 9.68152806e-02 -1.04481831e-01 -8.11048597e-02 1.18931336e-02 3.32415886e-02 6.36932924e-02 -5.97041994e-02 -1.45794064e-01 -8.84803757e-02 1.60088316e-01 -6.77272677e-02 -6.62403554e-02 -1.57220572e-01 -1.04002729e-02 1.47538334e-01 -2.89418306e-02 -6.53259177e-03 1.82483308e-02 -3.41649130e-02 -7.70842731e-02 1.10829756e-01 -3.70189734e-02 1.19549921e-02 -8.60348046e-02 3.70550416e-02 1.59903541e-02 -1.63871143e-02 1.30290166e-01 5.47755249e-02 -3.45475674e-02 4.03681919e-02 5.76955862e-02 4.37405184e-02 4.52676415e-02 2.02322915e-01 -9.91502702e-02 8.07090029e-02 8.20361599e-02 -8.35956726e-03 -2.85381563e-02 -7.24987388e-02 1.27537607e-03 2.79875156e-02 -4.41334248e-02 1.15495808e-01 1.32961832e-02 -4.58032377e-02 -6.13906793e-02 -1.47571620e-02 9.47201718e-03 1.45911440e-01 -1.18660897e-01 9.28451642e-02 3.65086459e-02 6.97978074e-03 -1.06330998e-01 2.39288986e-01 -2.84604691e-02 -7.52531067e-02 1.21892259e-01 1.06446305e-03 2.34188259e-01 4.22685556e-02 3.94691527e-02 1.11050718e-01 -3.78516987e-02 -6.10195808e-02 -1.69788375e-01 4.76669781e-02 -2.52931356e-01 -4.63917553e-02 -1.44508913e-01 -9.40315947e-02 -1.48877092e-02 -4.19488810e-02 -5.52425236e-02 1.02467075e-01 -5.35345674e-02 1.85986552e-02 -9.22356099e-02 1.12574898e-01 -5.60785197e-02 2.41041183e-03 -1.66163161e-01 8.73396993e-02 8.30675066e-02 -4.09291871e-02 -3.58570479e-02 -4.55156751e-02 -1.00747786e-01 -2.51148324e-02 -3.98697145e-02 -5.26046045e-02 7.37311766e-02 -4.25141566e-02 -2.50899792e-02 -5.57132922e-02 -2.02014193e-01 -1.93203073e-02 9.27869380e-02 -2.36174818e-02 -3.85768712e-02 -7.59631544e-02 -1.01382077e-01 -6.12527020e-02 -8.45340174e-03 -1.69836823e-02 -1.03388034e-01 3.88144851e-02 2.68702768e-02 2.33888999e-02 -2.48998068e-02 -8.60857591e-02 4.83950078e-02 -3.41170877e-02 -3.97432297e-02 5.42236492e-02 4.47575301e-02 4.64253388e-02 1.42491097e-02 -1.25893124e-03 9.59454942e-03 6.01695292e-02 3.14972289e-02 1.87046081e-01 6.09513894e-02 3.81677486e-02 2.13875212e-02 -9.29864682e-03 2.19423603e-02 -8.81785061e-03 -2.12792337e-01 4.37012836e-02 3.75734530e-02 -8.45494717e-02 -4.72199991e-02 -5.13451472e-02 8.76415614e-03 -2.08849534e-02 -8.39011967e-02 -2.32037082e-02 -7.72303417e-02 -7.59445280e-02 -3.76214087e-02 1.84617117e-02 -2.27747619e-01 2.57481579e-02 5.05623817e-02 -3.85565273e-02 3.83312292e-02 -3.62722240e-02 -6.49454743e-02 -8.60140249e-02 9.35778692e-02 -1.64414272e-02 -8.89550373e-02 -1.13698371e-01 -2.32061949e-02 4.47080657e-03 2.46693417e-02 -4.57154261e-03 3.65402363e-02 8.14152695e-03 8.02891795e-03 4.95757312e-02 5.71966060e-02 -5.43778688e-02 -6.36309851e-03 -1.68209020e-02 -4.27843183e-02 -5.29563706e-03 1.44205108e-01 1.29581764e-02 -8.91916603e-02 2.61118580e-02 5.70494588e-03 -3.19410523e-04 -1.21104732e-01 -5.48985600e-02 -2.21248399e-02 1.82318792e-01 1.04670916e-02 -1.08800502e-02 -2.02219173e-01 -1.88057404e-02 1.44395968e-02 3.24156210e-02 1.28380433e-01 -1.11774378e-01 -3.01646031e-02 -1.90060418e-02 -5.58145940e-02 -1.20449290e-01 -1.38381511e-01 -4.53179441e-02 5.98567575e-02 -5.83498105e-02 2.22108737e-02 4.76006679e-02 -1.26886159e-01 1.04061954e-01 5.61366938e-02 7.48914033e-02 -1.82780176e-01 1.04764879e-01 -6.84372243e-03 6.73854500e-02 -4.32756245e-02 -4.24187966e-02 -1.64034009e-01 -5.50580248e-02 8.19200054e-02 8.16213712e-02 -5.34832366e-02 4.97739390e-02 1.12897381e-01 -1.36823609e-01 -6.91392198e-02 -5.62536828e-02 -1.64283942e-02 -5.17486334e-02 -6.19577728e-02 1.21702634e-01 1.24788046e-01 5.23840114e-02 -1.29272401e-01 -3.35405283e-02 8.11923482e-03 2.84986228e-01 -1.14734070e-02 1.10624261e-01 -2.23031446e-01 -1.29731178e-01 -1.03069499e-01 3.73967476e-02 -6.66588487e-04 -7.30870813e-02 1.14750164e-02 2.63217371e-02 -2.80783568e-02 -3.51798572e-02 -2.40033604e-02 1.96234286e-02 5.67232594e-02 -3.57018821e-02 -1.50876850e-01 3.09403520e-02 -1.00306198e-01 1.58799455e-01 3.16541456e-02 1.22370675e-01 -1.86377704e-01 2.88793148e-04 -5.88843673e-02 1.15802027e-01 -3.27042937e-02 -1.64518114e-02 -1.66300029e-01 2.03418314e-01 -1.05911016e-01 9.37971771e-02 4.03677300e-02 1.62688747e-01 1.20517150e-01 8.92711356e-02 -3.13368253e-02 -2.55085170e-01 -1.18892305e-01 1.85106676e-02 -7.63516650e-02 -1.20018478e-02 1.01067141e-01 4.85180318e-02 -6.40345812e-02 1.06503047e-01 -1.69149145e-01 3.60576063e-01 -1.57906547e-01 3.27263623e-02 1.22591570e-01 -2.27967665e-01 1.03314407e-01 -8.59185085e-02 7.51530156e-02 8.56911391e-02 -7.55416602e-02 -2.10063383e-01 -1.39681906e-01 -1.71276987e-01 4.64651473e-02 1.18074104e-01 5.53305782e-02 8.40205476e-02 -5.07992171e-02 -7.33774900e-02 1.05750181e-01 3.62329602e-01 -8.99913013e-02 -2.15275839e-01 4.20063101e-02 -2.09088489e-01 2.16757387e-01 -5.28448932e-02 -3.80248018e-02 6.53677359e-02 -1.06450014e-01 9.58344787e-02 -8.60284194e-02 1.10632733e-01 5.84212691e-03 1.00670524e-01 7.39232674e-02 3.80815603e-02 -2.06583291e-01 -7.63156340e-02 -4.18203957e-02 -3.34285363e-03 -2.00538691e-02 -8.82350653e-02 2.73882002e-02 4.37928587e-02 7.24972342e-04 1.77243754e-01 7.56089203e-03 8.76395255e-02 -4.39935103e-02 3.94905433e-02 -4.12372574e-02 6.89726472e-02 -2.67979670e-02 -9.59833339e-03 -9.64619294e-02 5.86490752e-03 1.33395165e-01 3.72098535e-02 5.43607511e-02 2.10953895e-02 4.54420075e-02 -6.56210333e-02 -4.58936654e-02 2.31520429e-01 -1.73743106e-02 5.44262491e-02 -5.23963459e-02 2.20143124e-01 1.22797400e-01 -1.88407257e-01 7.36173103e-03 -5.38777448e-02 1.37188464e-01 3.18842828e-02 4.61348258e-02 4.61252183e-02 -7.39166364e-02 -1.15361951e-01 1.26826689e-01 7.21731111e-02 3.02005932e-02 -7.13524073e-02 1.03375599e-01 8.41399748e-03 1.61514983e-01 -1.19623348e-01 1.37712732e-01 -3.72323431e-02 8.05109590e-02 1.12280667e-01 -1.08272232e-01 1.84262440e-01 -5.59099689e-02 -8.28985870e-02 -9.63158756e-02 1.75273895e-01 -7.56449550e-02 6.03938242e-03 3.15066464e-02 -4.72253375e-02 1.08771458e-01 1.03542199e-02 -8.93736444e-03 1.65389553e-02 3.60717289e-02 9.88772884e-02 -1.86288245e-02 -6.82960358e-03 -1.71116710e-01 2.92473733e-02 7.29095638e-02 1.14508299e-02 -2.02790983e-02 -5.64725958e-02 -6.84719384e-02 -9.90281403e-02 -2.61945073e-02 -4.02638763e-02 -1.16472803e-01 -5.60756102e-02 7.14128986e-02 -3.10757402e-02 4.61395755e-02 5.34104854e-02 -1.32593755e-02 1.05538522e-03 2.98884455e-02 1.85133587e-03 -4.77204658e-02 -5.04447892e-02 2.30919030e-02 -2.91994717e-02 3.66918705e-02 -2.21941825e-02 -1.31273328e-03 4.17081565e-02 -3.00544617e-03 4.81273606e-02 -2.84816809e-02 -1.33425696e-02 -1.03365779e-01 -1.66626573e-01 -1.05600737e-01 1.67981595e-01 5.93468621e-02 5.88736646e-02 -1.48518458e-01 -3.80807258e-02 7.47811515e-03 -4.38760407e-02 1.67256176e-01 -1.26343861e-01 -8.99431258e-02 2.75600515e-02 -9.98957083e-02 2.88552009e-02 -8.43795985e-02 9.45298597e-02 3.29800919e-02 5.51454872e-02 1.19896596e-02 7.06470832e-02 -1.42315343e-01 1.36634186e-02 -4.91835177e-02 -1.78383768e-03 -2.00384393e-01 -8.60089660e-02 -4.12504748e-02 4.59553301e-02 -4.19236422e-02 -7.48268068e-02 -8.98844749e-02 -6.95705181e-03 -8.94412249e-02 8.67096242e-03 -1.31085053e-01 4.98975348e-03 1.13147445e-01 -1.20059386e-01 -1.64393127e-01 8.19850042e-02 9.63856000e-03 1.52640988e-03 9.47275907e-02 6.98489621e-02 4.49909419e-02 2.83610076e-02 1.81798145e-01 3.24339815e-03 -1.08550027e-01 1.21650316e-01 9.59396660e-02 1.37964427e-01 -1.34793386e-01 -1.40355173e-02 -6.44635707e-02 -7.90622011e-02 7.76799843e-02 3.16948183e-02 6.74872324e-02 -3.62323858e-02 2.21572053e-02 3.93999033e-02 -1.03084661e-01 -3.16662900e-02 -1.96597613e-02 -5.16176783e-03 3.09373289e-02 -5.25394008e-02 -5.51573075e-02 1.16704181e-01 4.95109260e-02 -3.01952437e-02 -1.77748904e-01 8.88242945e-02 -1.15706837e-02 1.34343043e-01 -1.28324777e-01 2.42194943e-02 7.88919628e-02 -5.59476055e-02 6.45978153e-02 5.94787262e-02 -7.39646405e-02 -1.36355627e-02 -9.79041755e-02 3.70885767e-02 -5.87022826e-02 -1.20399008e-03 -9.99508128e-02 2.89273052e-03 -1.06842645e-01 1.46269184e-02 -6.51002452e-02 -3.51853184e-02 -1.82322785e-02 -3.64860073e-02 -9.67121199e-02 1.06041238e-01 3.51757044e-03 -1.09500950e-02 1.96247697e-02 -8.43990967e-03 -5.06552719e-02 -3.45558152e-02 -4.70658615e-02 4.88561131e-02 7.12064281e-02 2.70089763e-03 6.46648407e-02 8.98961276e-02 -2.47454122e-01 -2.45945659e-02 1.26214966e-01 3.49676833e-02 -1.25545925e-02 -8.87945760e-03 -8.01197588e-02 -5.63737750e-02 -1.55877188e-01 7.11071398e-03 -1.05257921e-01 -7.45149283e-03 -3.33583308e-03 3.72617394e-02 -7.03301514e-03 -6.59117103e-02 -4.91785351e-03 2.69524604e-02 9.61330086e-02 -1.66250300e-02 8.27831477e-02 6.72147647e-02 4.01252694e-02 2.15708092e-02 -5.04626334e-03 6.31785020e-02 6.62454143e-02 -7.66462833e-02 -4.15853448e-02 -2.30506435e-02 7.92244747e-02 5.76506965e-02 1.14606865e-01 2.64832228e-01 -1.73700694e-02 -1.43393591e-01 1.09368071e-01 1.39118344e-01 -1.43159300e-01 -2.82605678e-01 1.40812293e-01 -2.12399960e-01 -3.89893986e-02 2.65824124e-02 -9.07887667e-02 8.44089463e-02 -5.52548766e-02 9.21684578e-02 -1.01506282e-02 8.08334798e-02 7.53051043e-02 5.74727058e-02 7.24735707e-02 -1.25101507e-01 -1.04270913e-01 2.33429000e-01 -2.32588146e-02 -3.50868404e-01 -1.18210167e-01 1.10829405e-01 2.14565426e-01 -9.31397155e-02 -2.47631595e-02 3.91346887e-02 -4.56862263e-02 -7.64612034e-02 7.06120655e-02 -3.69231790e-01 1.12078115e-01 -1.07184656e-01 -6.25479221e-02 -6.93239421e-02 1.07557580e-01 1.30109608e-01 3.61897081e-01 -9.46067423e-02 2.17069127e-02 5.17424047e-02 3.01303547e-02 -4.02644277e-03 6.67277575e-02 1.60028487e-02 -9.30102170e-02 2.93368138e-02 -8.03446099e-02 -1.00201957e-01 -3.93257290e-02 -8.67913589e-02 3.53079736e-02 9.07833651e-02 -2.58673802e-02 