-3.68286110e-02 2.28411872e-02 -8.92563313e-02 -1.75410971e-01 -8.68105590e-02 3.99622880e-02 3.38593982e-02 3.95455323e-02 -8.58972743e-02 5.64373955e-02 1.06259681e-01 7.93897286e-02 4.02370915e-02 -9.19004604e-02 -9.68585834e-02 5.98431099e-04 8.88985991e-02 -1.51676863e-01 3.91332358e-02 -2.06587929e-02 1.09979272e-01 -7.86639005e-02 8.42791200e-02 1.90785378e-02 -3.20510305e-02 -6.02646470e-02 -6.02447614e-02 -5.38895391e-02 7.24329576e-02 -2.88238600e-02 5.12511330e-03 -1.78310350e-01 1.22910477e-01 1.40921578e-01 -2.93138307e-02 7.82662164e-03 7.14347661e-02 1.65295556e-01 -2.92925294e-02 2.36315429e-02 -1.93099352e-03 -4.69236588e-03 -1.25707313e-02 -1.48756310e-01 -8.56513456e-02 1.76329240e-02 -4.58322763e-02 2.52032518e-01 8.53563696e-02 6.21215142e-02 -9.05381814e-02 1.26170129e-01 -8.90186802e-02 1.89532135e-02 -2.36431852e-01 6.47063479e-02 8.22055060e-03 2.18824241e-02 5.68489134e-02 2.28016041e-02 1.10104874e-01 -9.27852467e-02 -9.19511765e-02 -2.33026389e-02 3.88062513e-03 1.33565575e-01 -4.65320535e-02 2.80341059e-01 3.78668047e-02 -4.11316827e-02 -7.75710330e-04 4.48375531e-02 -1.39441818e-01 8.81740004e-02 1.66357800e-01 -5.57128154e-02 1.43938109e-01 7.04368725e-02 -9.76883397e-02 -5.17254025e-02 3.51447277e-02 -4.05384265e-02 3.65063995e-02 -4.52203117e-02 5.04276492e-02 1.04951479e-01 3.14517438e-01 -5.14217187e-03 -3.26556899e-02 3.57190557e-02 1.27921909e-01 -3.69688161e-02 9.83618200e-02 3.86309884e-02 6.47448227e-02 -8.09312537e-02 1.02861851e-01 1.16127409e-01 -4.95682880e-02 -7.54732043e-02 1.14140004e-01 -4.35425304e-02 1.79034323e-01 1.21343650e-01 -6.45489618e-02 -1.36529049e-02 1.25288993e-01 3.10499761e-02 4.46244664e-02 3.49495262e-02 -7.45790899e-02 -1.18063353e-02 -8.38785395e-02 -1.43595442e-01 1.45540163e-01 -1.85810059e-01 -4.34516445e-02 3.05368528e-02 1.36295217e-03 -6.51825070e-02 -3.76851745e-02 1.88689917e-01 -1.76123157e-01 -1.18581943e-01 -7.70505443e-02 1.05849445e-01 -1.14400506e-01 3.10055390e-02 6.69137314e-02 -5.41888364e-02 -5.32847494e-02 -1.03107365e-02 9.95432287e-02 -1.11432649e-01 3.63836922e-02 6.75940001e-03 -2.81980839e-02 -3.99573967e-02 -5.77057637e-02 -1.12385780e-01 1.19704694e-01 -2.67070651e-01 4.90909442e-02 -3.98878334e-03 7.03387186e-02 -1.69786096e-01 -1.57870784e-01 1.55503556e-01 1.16241470e-01 2.82467087e-03 -1.88065186e-01 -1.48217874e-02 -8.01942945e-02 7.18540847e-02 -1.52780980e-01 1.09639384e-01 1.58788666e-01 1.14865139e-01 7.60645643e-02 -4.88358065e-02 -2.88268011e-02 -1.67861462e-01 5.00438968e-03 -5.03985658e-02 -5.31645454e-02 6.96067652e-03 4.80820797e-03 -9.65852663e-02 -4.08791043e-02 1.14361465e-01 -4.42700684e-02 -1.08410846e-02 -4.81468961e-02 -4.54366170e-02 1.02612816e-01 -2.39244150e-03 -3.47743705e-02 -4.35259938e-02 -2.15779424e-01 -9.26651657e-02 5.45029156e-02 6.13043867e-02 1.40197538e-02 -6.73600957e-02 -8.41047168e-02 -8.93829390e-02 2.12818980e-01 -9.72512644e-03 -1.21074533e-02 -7.51024708e-02 7.38241756e-03 1.20204441e-01 -1.53548373e-02 -4.31735208e-03 8.03459585e-02 1.25809237e-01 -2.90559858e-01 -7.82719329e-02 -2.00553074e-01 2.21509129e-01 -1.09282713e-02 3.84949669e-02 1.29080072e-01 1.04412986e-02 -1.76512703e-01 -9.29375514e-02 -4.06327806e-02 5.39485179e-02 3.24467570e-01 -1.00360185e-01 1.43271923e-01 9.20954570e-02 -2.35619470e-01 -6.18802616e-03 -7.81735464e-04 3.85628715e-02 9.76345316e-02 1.28025234e-01 -1.32114545e-03 6.06126077e-02 5.60510196e-02 -1.18532933e-01 -1.73721090e-02 -1.80794252e-03 1.08029678e-01 -2.12503728e-02 3.39446180e-02 8.99727121e-02 1.63280813e-03 3.95455584e-02 3.42494696e-02 -1.22202910e-01 2.40566824e-02 1.16906166e-01 -3.16085696e-01 -1.67494684e-01 -6.39832318e-02 -3.17249596e-02 2.02601090e-01 -1.07599869e-01 -1.38165966e-01 -2.03902759e-02 -1.29798174e-01 -3.04951780e-02 -6.87355921e-02 -3.98709625e-02 8.17928463e-02 1.05097815e-01 6.15040176e-02 -8.90533719e-03 -5.35242222e-02 7.38137662e-02 1.32951647e-01 -4.87088934e-02 3.72994468e-02 1.14427179e-01 -2.94537656e-02 -1.31447464e-01 -1.13917753e-01 -4.95350696e-02 3.88818718e-02 -1.23446926e-01 -9.47111472e-02 1.22012235e-02 7.16136172e-02 -3.80360447e-02 -2.53286324e-02 -2.12918893e-01 4.91343029e-02 1.01115920e-01 -5.38997762e-02 1.52821029e-02 4.25790288e-02 -4.17769961e-02 -2.33587995e-02 -9.91195627e-03 6.51681423e-02 -7.99254104e-02 -4.48294878e-02 -2.35266641e-01 4.23414335e-02 -1.50304218e-03 -8.23019296e-02 -1.72530055e-01 -4.70744632e-02 -1.11430539e-02 -2.88042277e-02 1.70483470e-01 6.56229407e-02 3.85033228e-02 -4.13847156e-03 2.54162043e-01 3.85643542e-02 7.82996640e-02 4.85748015e-02 1.36022878e-04 3.02592460e-02 -8.24318081e-02 1.19576566e-01 -6.33880645e-02 -1.74616337e-01 3.00648119e-02 -7.42534623e-02 6.93519264e-02 1.18030645e-01 1.53717861e-01 -8.48423243e-02 -6.62542880e-02 1.02706710e-02 -1.49444789e-02 -1.02007523e-01 4.00567353e-02 1.30597176e-02 -1.95946544e-01 -1.10263303e-01 9.72636640e-02 -1.49773508e-01 -3.58123749e-01 -3.32197815e-01 9.68661755e-02 -8.26481078e-03 -3.62995267e-02 -5.13218977e-02 4.32312265e-02 -3.10328789e-02 2.86559105e-01 -4.06694179e-03 6.68673962e-02 -1.66964516e-01 1.44992292e-01 -1.93608925e-01 -1.55683339e-01 -4.87928577e-02 -6.63930774e-02 -8.17048624e-02 -2.60460991e-02 -4.65469621e-02 9.26536620e-02 9.27462578e-02 -9.49955583e-02 -1.43539230e-03 -1.18715763e-01 4.79312800e-02 8.10850598e-03 3.54650430e-02 -7.50083923e-02 5.83623983e-02 4.40108264e-03 -2.13994026e-01 -9.70751196e-02 -6.02008179e-02 -1.44674733e-01 -1.39480367e-01 7.52480850e-02 -2.64573470e-02 -2.29849681e-01 -6.62835464e-02 1.17016524e-01 3.93720418e-02 8.24837536e-02 -8.47835187e-03 -1.37885600e-01 -1.28502855e-02 -1.30360320e-01 1.58947468e-01 -2.02164724e-01 -4.37901281e-02 -1.93481699e-01 -1.86958462e-02 -1.88652966e-02 -6.21280409e-02 -1.13723250e-02 9.56203416e-03 -1.03233881e-01 -9.61989984e-02 3.61941606e-02 2.04244666e-02 2.94857342e-02 -3.64882909e-02 -1.80845886e-01 -5.61111160e-02 9.28709581e-02 -4.90303226e-02 -8.70677382e-02 8.62535834e-03 1.75304204e-01 -1.25032201e-01 -2.03870609e-02 -2.37273779e-02 -3.21183294e-01 2.13475138e-01 -4.12190594e-02 -7.54720643e-02 -3.16754798e-03 -7.05058277e-02 4.59417552e-02 -1.33698285e-01 5.85424043e-02 -9.85566825e-02 -1.78312641e-02 1.70901529e-02 -5.98053597e-02 -1.05521180e-01 -2.67243292e-02 9.31811705e-02 -2.82130577e-03 -3.82366125e-03 -3.17670584e-01 4.01919186e-02 -6.28774464e-02 -1.17788389e-01 -2.74414271e-01 -7.34465569e-02 9.90905240e-02 -2.04928547e-01 2.79372241e-02 -1.87313363e-01 -9.90667418e-02 2.71289870e-02 -1.21993512e-01 8.21471065e-02 -6.23760521e-02 1.25465289e-01 1.07844837e-01 1.16197422e-01 -6.70197755e-02 -1.27184521e-02 -3.14759254e-01 -1.36445299e-01 -7.32741728e-02 -9.01950523e-03 1.73569456e-01 1.23476639e-01 -1.19432183e-02 -1.09353393e-01 -8.51321893e-05 -7.68110901e-02 -1.12281375e-01 -2.12166443e-01 -4.95178141e-02 -2.37469256e-01 -9.90146585e-03 -2.02023193e-01 1.09293193e-01 -5.50634302e-02 3.56726982e-02 -6.19288906e-02 1.07369497e-01 2.33007073e-01 1.10074133e-01 5.75554818e-02 -1.92432720e-02 -1.06192566e-01 5.54746091e-02 6.41018823e-02 -5.66497408e-02 -3.62133421e-02 3.64370784e-03 -4.53689918e-02 1.68558180e-01 1.06379814e-01 1.08770456e-03 6.02630824e-02 6.45413343e-03 -8.47302563e-03 3.34631167e-02 7.90686458e-02 -9.96974111e-02 -1.39600947e-01 -1.52740562e-02 -6.14253804e-02 -3.52267846e-02 -1.42468676e-01 -1.68345585e-01 3.93043384e-02 1.37093604e-01 -7.77415335e-02 1.35651520e-02 -5.31760529e-02 6.18573092e-02 -2.15685498e-02 -1.13561586e-03 1.23982586e-01 -9.45333093e-02 -1.03870824e-01 5.66311926e-02 4.58310582e-02 -9.74748358e-02 -5.77004924e-02 1.85016226e-02 2.94352379e-02 2.33254526e-02 -1.18192090e-02 1.58116326e-01 8.35446268e-02 -6.78982288e-02 -3.41393463e-02 -1.03914924e-01 2.02752259e-02 -1.09276496e-01 -3.23479235e-01 -1.50858760e-01 -7.48100579e-02 8.03973153e-02 5.56201786e-02 -9.77163985e-02 1.00297973e-01 -8.16275403e-02 -9.47648436e-02 1.19991437e-01 -2.11149324e-02 -8.82750452e-02 2.80204462e-03 1.60291955e-01 6.33775219e-02 -4.15257290e-02 -1.93170875e-01 9.15432721e-03 -3.56618352e-02 7.81860873e-02 -3.17165516e-02 3.22506465e-02 1.12467529e-02 4.70377915e-02 1.73532348e-02 -7.12094456e-02 1.38794616e-01 5.85601218e-02 1.05998412e-01 -1.36518732e-01 1.53196990e-01 2.92681251e-02 -2.79950108e-02 3.13119777e-02 -3.43708321e-02 -8.57688040e-02 -5.14527922e-03 6.91687539e-02 6.54257387e-02 2.86953654e-02 -1.57545522e-01 -1.05970427e-01 1.72177553e-01 -1.36807874e-01 1.03653394e-01 -1.10553764e-01 -4.80972044e-02 -3.38819548e-02 6.69896379e-02 -8.22675526e-02 1.38564017e-02 8.33588317e-02 6.32275864e-02 1.75255798e-02 2.44140923e-02 1.04083633e-02 2.76392302e-03 -1.85722392e-02 2.43835710e-02 2.12065771e-01 -8.37380998e-03 4.00226675e-02 -8.90837144e-03 -1.23693310e-01 3.17426957e-02 -3.86584103e-02 -1.75072309e-02 -4.31154668e-02 2.81277224e-02 2.41035700e-01 6.24938868e-02 -1.23400003e-01 -7.80143142e-02 1.43244965e-02 -5.71760386e-02 6.18680157e-02 -1.76031798e-01 2.02064496e-02 -1.27258211e-01 3.16898748e-02 -4.88920808e-02 1.34278148e-01 2.30225269e-02 -7.06245005e-02 2.25928836e-02 -2.57122442e-02 -1.42249435e-01 4.97746728e-02 -4.38821502e-03 1.20716002e-02 -1.78977102e-02 -1.61800478e-02 1.65690675e-01 -3.34325954e-02 -1.00457564e-01 4.24100496e-02 -2.51772664e-02 -1.97897404e-01 1.57813933e-02 1.06992535e-02 8.13954249e-02 -1.00854807e-01 -1.55780017e-01 -3.43544595e-02 -1.63543895e-01 -4.33585048e-03 5.57787046e-02 -1.29713848e-01 7.95018822e-02 4.25865911e-02 3.81181359e-01 -2.24625263e-02 -8.29720572e-02 6.46004379e-02 -1.12432018e-01 -4.00924273e-02 2.00850908e-02 -1.42542705e-01 -5.60790449e-02 -6.27659587e-03 -7.63391256e-02 -1.85529306e-03 -3.86031829e-02 -1.38096303e-01 -1.84616059e-01 -3.36325876e-02 9.54490378e-02 -4.59314249e-02 -6.94478527e-02 4.36847620e-02 3.83217596e-02 1.37156993e-01 5.16398549e-02 -2.01283023e-02 6.23625405e-02 2.74952620e-01 -4.81466250e-03 5.11365868e-02 2.23309040e-01 -3.72731775e-01 9.50869266e-03 6.37041479e-02 -1.05902880e-01 1.28627017e-01 -5.65878600e-02 7.32974708e-03 2.45802030e-02 1.28798261e-01 6.24526888e-02 -8.22378322e-02 -4.82945666e-02 2.03323588e-01 5.79859968e-03 -4.23535630e-02 2.27468275e-02 -1.50187567e-01 4.93391864e-02 -2.78373957e-02 4.95222770e-02 8.82400572e-03 9.59748626e-02 -1.14760712e-01 -5.48323616e-03 -6.47513643e-02 -3.94653436e-03 3.26242782e-02 -6.90348744e-02 1.58060983e-01 6.19244576e-02 9.90200881e-03 -2.67025195e-02 -1.10783070e-01 -1.56339407e-02 -1.69783775e-02 -4.51909602e-02 3.09374556e-03 1.58634543e-01 -5.43210693e-02 2.69229654e-02 -1.26153946e-01 -2.39773914e-02 -6.43898696e-02 7.01889098e-02 2.54516572e-01 -9.86260623e-02 5.16813900e-03 4.87262011e-03 -8.65370221e-03 -2.90686078e-02 -1.24524469e-02 1.11234784e-01 -1.42460287e-01 5.05065136e-02 1.12381177e-02 -1.33079723e-01 3.59101743e-02 -1.12487100e-01 -8.15672874e-02 1.43298760e-01 7.86556676e-02 -1.87846527e-01 -9.58531499e-02 -8.51783529e-02 -1.16582818e-01 -2.45725666e-03 -1.20609783e-01 5.80055192e-02 -8.70500430e-02 3.56110632e-02 -9.06666461e-03 -1.01133972e-01 3.62828337e-02 -6.33240715e-02 -1.50908111e-02 7.80949369e-02 1.24646701e-01 2.96443496e-02 1.37463465e-01 3.14975940e-02 1.58501044e-01 1.76855072e-01 5.38756922e-02 -1.11628659e-01 -2.15185478e-01 -3.50270793e-02 -4.98114862e-02 1.33748399e-02 -5.81730343e-02 2.29758978e-01 -4.98836599e-02 1.04319580e-01 -2.71914457e-03 9.94031690e-03 8.05300078e-04 1.08490791e-02 -5.11534512e-02 1.61843583e-01 1.56506166e-01 -3.87680829e-01 4.76747677e-02 5.78127615e-02 -1.57804161e-01 1.38729298e-02 -5.90211153e-02 -7.89873078e-02 -3.33465226e-02 -4.62287031e-02 -2.77295411e-01 2.59182882e-02 3.49310488e-02 -2.03600138e-01 1.02503322e-01 -5.43260798e-02 6.83385208e-02 1.46219179e-01 -5.97426258e-02 3.45684178e-02 5.42537570e-02 -9.49528366e-02 -9.64685753e-02 4.61028516e-02 -2.82763898e-01 9.67117250e-02 -6.83669671e-02 1.66166753e-01 2.31645614e-01 -9.00782719e-02 7.33862296e-02 -1.53050814e-02 9.12402347e-02 6.64917529e-02 -1.81958675e-01 1.75712481e-01 5.07061332e-02 2.21937932e-02 -1.38371382e-02 -3.26541476e-02 -4.17488851e-02 2.01071292e-01 4.76765931e-02 -3.69369835e-02 -1.69219121e-01 1.76355466e-01 -3.03914156e-02 -1.45092353e-01 -1.81233406e-03 1.17376968e-02 2.57661976e-02 1.88252419e-01 -8.61465186e-02 -2.29774922e-01 -3.98030095e-02 -2.77515072e-02 4.67261672e-03 3.33532542e-02 -1.24399096e-01 3.62008035e-01 9.88370851e-02 -8.45735148e-02 -2.35849116e-02 1.02570809e-01 3.12921144e-02 -2.06787232e-02 1.50168508e-01 4.61375974e-02 -3.46123660e-03 -4.13555354e-02 1.62705451e-01 -6.80098012e-02 -3.04728389e-01 1.34639628e-02 -3.65003385e-02 -1.22692369e-01 6.16906881e-02 3.65113430e-02 1.06468976e-01 -5.99996038e-02 4.54712771e-02 1.78088188e-01 3.66360322e-02 -7.78472498e-02 -7.16137467e-03 2.58522686e-02 -2.21126173e-02 2.46316176e-02 8.73292610e-02 -1.72805503e-01 3.25045511e-02 -9.43887457e-02 -1.53663144e-01 -6.26140907e-02 -3.01701367e-01 1.08128965e-01 7.46968761e-02 2.75301225e-02 6.50694668e-02 -4.50607389e-03 -1.18481785e-01 4.72245775e-02 1.75855935e-01 -1.05805444e-02 6.26853034e-02 -1.37661919e-01 3.52054797e-02 -1.19313244e-02 -1.60407513e-01 -1.48935542e-01 -1.33554965e-01 -1.36336768e-02 3.77267972e-02 8.81558284e-02 -1.78566761e-02 -2.46365238e-02 -6.94509819e-02 3.61746252e-02 -1.71339791e-02 1.46035254e-01 4.36091311e-02 -1.84519157e-01 1.68667044e-02 2.95629390e-02 -8.41020495e-02 1.08212091e-01 -4.08404693e-02 3.68248343e-01 2.02850793e-02 -4.46719602e-02 1.28380135e-01 7.10874051e-02 -2.78283536e-01 7.60118589e-02 7.49128759e-02 -2.45004460e-01 -2.70774569e-02 -8.93227533e-02 4.93326485e-02 1.37786612e-01 2.69305110e-02 8.64894837e-02 5.03024571e-02 -1.01681024e-01 5.11882156e-02 -9.36985463e-02 -8.28013346e-02 -1.99291945e-01 1.13920875e-01 3.27665210e-02 -9.53938961e-02 -7.15224817e-02 -1.15349300e-01 3.38885300e-02 1.25011355e-02 -2.44872957e-01 -6.90938383e-02 -8.74559581e-02 8.57846513e-02 6.53808191e-02 2.04211045e-02 -1.05315514e-01 4.14230525e-02 -7.20833093e-02 -4.46456522e-02 -9.00430903e-02 8.55018795e-02 -7.43997023e-02 -2.31566466e-02 2.39397660e-02 -3.80612500e-02 -1.05184671e-02 1.83574423e-01 6.11034594e-02 2.25043446e-02 3.23632616e-04 -2.96755284e-01 -5.96339218e-02 2.23787099e-01 -3.02512255e-02 2.13167779e-02 -1.57592744e-01 -9.42304507e-02 -8.04191083e-02 7.92966504e-03 -4.68080398e-03 -9.32888419e-04 -6.70681298e-02 -1.92059472e-01 -1.61652669e-01 1.18617781e-01 -1.28681725e-02 -1.75000280e-01 1.52672958e-02 -4.27407742e-01 1.86708957e-01 2.69616731e-02 7.03334957e-02 -3.05771440e-01 -3.26925702e-03 1.47396624e-01 -1.16553336e-01 -5.05502559e-02 2.99001914e-02 -2.59532452e-01 1.23830527e-01 -3.88871618e-02 3.01890969e-02 -4.30123582e-02 1.06383443e-01 -1.37776986e-01 -8.54149759e-02 -4.96624224e-02 5.99956885e-02 -5.53335883e-02 -1.01722345e-01 5.15652113e-02 1.21460028e-01 7.63732567e-02 -1.10944696e-01 4.40601222e-02 -4.08837460e-02 -1.78347602e-01 -5.09213060e-02 1.11430250e-01 5.27041033e-02 -3.29658302e-04 -1.02521833e-02 -3.85107137e-02 4.39647511e-02 5.93382008e-02 -9.60860774e-03 -7.56453797e-02 -6.03587814e-02 4.55022454e-02 4.06612568e-02 7.66683072e-02 1.35020107e-01 -4.93154414e-02 -1.18506640e-01 1.37162328e-01 3.87961902e-02 4.70483005e-02 -1.00062504e-01 -7.23736137e-02 6.51809275e-02 1.32155478e-01 -7.88270012e-02 5.62860221e-02 9.16178711e-03 -2.91346043e-01 -1.28356665e-01 -2.59586275e-02 3.10212225e-02 -2.31355019e-02 -7.45588019e-02 -1.97158858e-01 1.09612890e-01 4.45452258e-02 1.38188913e-01 3.67736667e-01 -1.09227382e-01 -2.07315125e-02 -9.72098112e-02 -4.35109772e-02 -7.88451806e-02 -1.56757355e-01 9.65676829e-02 1.32731751e-01 -7.40041435e-02 -7.51035437e-02 -1.31237313e-01 5.61016873e-02 9.96336937e-02 -7.40614980e-02 1.14112675e-01 2.53136251e-02 8.53089914e-02 5.81567772e-02 8.09268206e-02 -9.74280685e-02 1.37529269e-01 2.64931638e-02 -1.12448066e-01 1.66807190e-01 -1.28854141e-01 7.33737051e-02 2.47880414e-01 -5.80101460e-02 -5.16841933e-03 2.08342567e-01 6.55536801e-02 2.26893321e-01 -2.30367571e-01 3.30279320e-02 4.66571562e-02 -1.63934648e-01 -8.59220996e-02 -3.03067844e-02 1.07862495e-01 6.00661226e-02 9.37207490e-02 -7.56396428e-02 3.19747254e-02 -3.22359763e-02 9.23295915e-02 -2.26285541e-04 -1.44960862e-02 -1.29585758e-01 1.55869266e-02 4.42310534e-02 4.18151207e-02 -2.32464150e-02 -4.91462685e-02 2.07034126e-01 1.11830659e-01 -7.55556766e-03 -1.22534081e-01 7.71412849e-02 -1.40526593e-01 2.05806438e-02 -1.85273260e-01 -1.81726664e-02 -4.80855927e-02 -2.12324679e-01 -3.50558721e-02 5.66352718e-02 1.56113710e-02 -1.83817595e-01 1.34584263e-01 1.75971538e-01 1.54701471e-01 -1.29885934e-02 1.94089953e-02 2.87305377e-02 -6.96379021e-02 -4.65257987e-02 1.75550580e-02 -1.22589916e-01 -7.31648505e-02 -7.02408925e-02 3.59245613e-02 1.95708522e-03 -7.75087103e-02 6.62320992e-03 9.63912532e-02 -9.87751931e-02 1.25120118e-01 -1.12075262e-01 1.29187293e-02 -2.69278705e-01 4.26921621e-02 1.85006982e-04 7.43379667e-02 -2.99909770e-01 2.01792553e-01 -5.39848022e-02 -1.54289871e-01 1.42996237e-01 1.40400371e-02 -1.37079149e-01 3.48486416e-02 2.44526342e-02 -1.16971172e-01 -1.21563608e-02 -4.72674295e-02 4.94532958e-02 9.17483419e-02 -8.21794122e-02 5.24021052e-02 1.54802343e-02 -7.67578334e-02 -1.76803306e-01 -4.18660343e-02 -8.05245116e-02 6.15179131e-04 8.57236683e-02 6.43996224e-02 5.92222717e-03 -2.10182175e-01 5.33758365e-02 9.89111364e-02 -3.18505347e-01 -7.05729425e-02 -1.40773775e-02 1.72655899e-02 1.94119468e-01 -1.15118317e-01 -1.64751053e-01 1.35261506e-01 7.76050985e-02 8.33374262e-03 -3.47500257e-02 -1.33843143e-02 1.15241237e-01 5.06062934e-04 -1.91798545e-02 6.69856817e-02 9.87470672e-02 -1.76628353e-03 5.97671866e-02 -2.75307540e-02 1.29479289e-01 1.43738180e-01 -5.28310016e-02 1.09419515e-02 -2.97906119e-02 -3.48261371e-02 3.89581523e-03 6.25464087e-03 -1.54708907e-01 -1.49050839e-02 -8.33688378e-02 -2.95020193e-02 3.82101297e-01 2.07097623e-02 1.22011267e-01 -5.03039248e-02 1.87797341e-02 1.12723652e-02 -7.96096921e-02 -2.99054623e-01 -7.22924173e-02 1.23177700e-01 7.60942176e-02 3.74112802e-04 -6.75257994e-03 -5.30244857e-02 -1.51128257e-02 5.36076277e-02 5.19267507e-02 1.26104742e-01 1.45617023e-01 -1.25622883e-01 2.52746884e-02 7.29057863e-02 -5.77700920e-02 -3.23113576e-02 5.76757491e-02 6.49974272e-02 2.48668157e-02 -1.27290949e-01 -4.47051115e-02 -8.05701762e-02 -1.18197456e-01 5.08964732e-02 2.62806360e-02 -2.92630434e-01 -2.29708795e-02 7.35734329e-02 2.61279970e-01 -1.54207125e-02 8.31179172e-02 2.37838924e-02 -7.37922713e-02 3.36399041e-02 -1.51878111e-02 -3.29354331e-02 -2.25784760e-02 1.75538305e-02 1.28023382e-02 -6.92197457e-02 -6.84228837e-02 1.00623332e-02 -2.97838319e-02 4.10960726e-02 -5.18385023e-02 -7.47029185e-02 8.91258121e-02 2.30088048e-02 5.17699309e-02 8.38728622e-02 -3.59871611e-02 8.19818825e-02 9.70614105e-02 4.54842858e-02 -1.47021607e-01 -3.24614681e-02 -2.01484814e-01 1.03016980e-01 6.96854889e-02 -2.09726006e-01 -2.26012692e-02 6.50657564e-02 -9.43841785e-03 -7.03376159e-02 -2.35566884e-01 -1.05267420e-01 5.00184223e-02 -8.67246315e-02 2.08657254e-02 -1.44107209e-03 -8.52336735e-02 -1.73910916e-01 1.45744592e-01 -5.69923036e-02 -1.15401775e-01 -4.05043028e-02 6.09737970e-02 3.76462638e-02 9.75500941e-02 -5.82981184e-02 -2.93137878e-02 2.26593576e-02 1.44003406e-01 -1.60067976e-02 -5.25107495e-02 1.51347771e-01 -7.50868618e-02 -8.39295536e-02 -1.80703402e-02 1.22018814e-01 -1.69652607e-02 -3.85447335e-03 -7.52171576e-02 -3.72964181e-02 -4.44465913e-02 -1.35040849e-01 5.38938567e-02 -1.59965798e-01 -2.09261887e-02 8.03871900e-02 -4.25161421e-02 1.22166924e-01 1.21721886e-01 -3.65492515e-02 -1.61842793e-01 9.29840952e-02 9.78434235e-02 3.24543193e-02 5.87133691e-02 1.98913500e-01 9.21171904e-02 -5.50994975e-03 2.10603401e-02 8.92353058e-02 -1.40113279e-01 1.28337997e-03 -1.08606681e-01 -1.61646575e-01 -1.68069959e-01 -1.37630671e-01 2.71180980e-02 -2.09611773e-01 1.44787068e-02 -1.46585116e-02 2.80701499e-02 -2.90297344e-02 -1.93191245e-02 -6.64178804e-02 -1.05464216e-02 1.74378201e-01 1.38711825e-01 -1.40708208e-01 -9.74137634e-02 -1.76845014e-01 -3.97996306e-02 -4.57701795e-02 -2.26163194e-02 -2.73348168e-02 2.86204088e-03 -6.01648130e-02 -9.90448892e-02 1.58315033e-01 1.20578725e-02 -1.75505593e-01 -9.08678770e-02 9.45295319e-02 -6.18362799e-03 -3.62469889e-02 7.70539045e-02 -1.30787715e-01 -3.19515467e-02 -5.52202687e-02 5.02771474e-02 8.91397893e-02 -2.49263749e-01 2.09197238e-01 -3.43193188e-02 -1.94948733e-01 1.75961070e-02 7.94332027e-02 7.61037916e-02 6.28816858e-02 -1.03024304e-01 1.34937510e-01 -6.79803789e-02 -1.52125627e-01 5.90211377e-02 -1.40616111e-02 1.28478810e-01 -4.27424833e-02 1.50611147e-01 -2.70923618e-02 -1.44015238e-01 -3.32701057e-02 2.09191386e-02 4.01202440e-02 -2.27143746e-02 6.11611307e-02 1.06270581e-01 1.37532717e-02 6.54502958e-02 3.13321501e-02 -1.89461727e-02 1.36148497e-01 2.10249629e-02 4.49192524e-02 4.64480184e-02 -1.46497414e-01 -1.11349829e-01 -7.06144348e-02 1.75213650e-01 2.15498522e-01 2.20739916e-02 -8.77518654e-02 -9.91866663e-02 1.30487710e-01 4.73934561e-02 1.13114547e-02 -3.69680002e-02 5.77664636e-02 3.78110968e-02 1.07690237e-01 2.39285007e-02 -4.03370075e-02 2.77947504e-02 2.94967485e-03 1.55560952e-03 2.32721895e-01 1.97356179e-01 -6.05232120e-02 6.30117506e-02 3.35381255e-02 3.47006530e-01 -1.26436025e-01 -6.63875975e-03 -1.69515327e-01 9.27429125e-02 -9.17099975e-03 -1.76072985e-01 -9.82582420e-02 -2.42646341e-03 4.27115262e-02 2.02291951e-01 6.00326732e-02 -1.83683991e-01 1.46314472e-01 -1.13043487e-01 3.77234928e-02 1.18975103e-01 -3.74405499e-04 -9.71671715e-02 -3.74439918e-02 1.03808098e-01 -9.64488983e-02 -2.20220257e-03 2.60362238e-01 2.91344207e-02 -1.24676630e-01 6.78532645e-02 -1.98352933e-02 -3.91831668e-03 1.17678069e-01 1.55811638e-01 1.42095936e-02 1.23654120e-02 5.11287525e-02 5.23154810e-02 7.99541362e-03 -1.18469894e-02 5.99878430e-02 9.25259069e-02 -6.47920892e-02 1.33913130e-01 -5.20177111e-02 -1.03648901e-01 -5.48965205e-03 -4.01483625e-02 7.31614325e-03 9.65647027e-02 -6.55012205e-02 -1.39480494e-02 8.99818912e-02 8.30349233e-03 -6.16712030e-03 1.34183735e-01 -6.14078790e-02 1.68442279e-01 7.72028193e-02 -2.97174435e-02 -2.54679602e-02 -1.64133132e-01 9.44619477e-02 5.60148293e-03 -4.38742386e-03 -1.40021041e-01 -1.92514714e-02 -6.26850203e-02 7.16265664e-02 1.43251464e-01 -1.54374912e-01 1.41755462e-01 -3.03850353e-01 -6.45064861e-02 -3.69520746e-02 -6.76669925e-02 -7.11286813e-02 -1.46966390e-02 -2.09316939e-01 -2.05697164e-01 -1.18755050e-01 -6.43844679e-02 1.12274043e-01 -1.31913707e-01 -1.31293023e-02 7.17676207e-02 -1.80979714e-01 1.32471934e-01 -5.66200763e-02 2.23569721e-02 2.21918635e-02 1.36480913e-01 -1.17752880e-01 -9.69698280e-02 5.07457815e-02 2.17829049e-02 1.92063600e-02 2.10474562e-02 3.62761430e-02 -3.61494459e-02 1.50510818e-01 1.06490389e-01 3.03582065e-02 7.43268356e-02 4.01070267e-02 -2.03295454e-01 -3.67926031e-01 1.91110577e-02 -1.39185721e-02 3.10558360e-02 1.12253474e-02 -8.58636424e-02 1.87113762e-01 -1.38701305e-01 9.10832807e-02 -1.92986101e-01 -3.97496782e-02 -1.90690935e-01 2.29681600e-02 -1.00956827e-01 -1.13035828e-01 -2.79868424e-01 8.08633212e-03 3.05069312e-02 6.07576706e-02 4.73260172e-02 5.85475052e-03 5.69891185e-02 6.57253712e-02 1.36300474e-01 -1.57619324e-02 7.76268402e-03 8.68557990e-02 -1.46956379e-02 -1.06430992e-01 4.35467903e-03 7.39727914e-02 1.25083685e-01 9.94643345e-02 -5.11295237e-02 8.32637995e-02 -1.24588206e-01 -7.89574534e-02 -9.87305269e-02 1.03322715e-02 -1.51875779e-01 8.02513808e-02 6.76411297e-03 -1.24874048e-01 8.86502042e-02 -9.28777233e-02 -1.12919146e-02 1.35121688e-01 2.28458773e-02 -1.74596235e-01 1.97998192e-02 -8.07179362e-02 -1.03987791e-01 -4.29034606e-02 -3.15697044e-02 5.79747967e-02 7.72756478e-03 1.87660381e-02 -5.23982011e-03 -9.49450303e-03 9.23565030e-03 4.17613015e-02 1.97519556e-01 -7.89705738e-02 -4.76326607e-03 4.83960472e-02 -3.08385231e-02 2.01349407e-02 1.82860461e-03 -2.62387134e-02 9.18223336e-02 -1.43691013e-03 -8.81990697e-03 2.25663092e-02 -1.08833043e-02 -8.28175470e-02 -8.58968198e-02 -5.74387312e-02 -4.71077412e-01 3.69728357e-02 -5.32980189e-02 -7.56818131e-02 1.07062403e-02 -1.02206683e-02 1.20139703e-01 -5.07934503e-02 7.25988969e-02 9.27799791e-02 -3.73138636e-02 2.70164534e-02 9.31856856e-02 6.38029277e-02 -3.91780026e-03 3.39118019e-02 -2.30902527e-02 5.48023218e-03 -1.17507018e-01 -3.74899283e-02 3.75454798e-02 1.21593513e-02 3.76778431e-02 -8.82547721e-02 7.99028426e-02 -6.67488649e-02 1.53179213e-01 4.66062762e-02 -1.41878560e-01 -1.62031837e-02 4.58150022e-02 2.37974804e-02 -3.45089361e-02 1.95166066e-01 -7.91077614e-02 2.33302135e-02 -3.63193303e-02 -4.89242598e-02 7.82849714e-02 2.93465778e-02 -3.82929333e-02 -4.41253558e-02 1.98184103e-02 -4.20750380e-02 -5.08857705e-02 2.11625956e-02 -5.27451299e-02 6.24078028e-02 -8.53887722e-02 -1.01497404e-01 -1.94224238e-03 1.30457297e-01 -7.34307095e-02 -2.65798550e-02 1.45690754e-01 6.83965720e-03 4.22493070e-02 1.99336279e-02 -4.19886447e-02 -5.59265679e-03 -9.73668545e-02 2.49356758e-02 3.88709619e-03 2.17247070e-04 -8.76072049e-02 -1.03240646e-02 8.70364606e-02 -2.80895419e-02 3.16266567e-02 -1.01711508e-02 3.96944396e-03 5.44562116e-02 3.94236743e-02 3.88279222e-02 2.68528201e-02 -7.16886520e-02 4.97135185e-02 -1.39389336e-01 2.84059830e-02 9.14325342e-02 9.84376669e-03 6.23095222e-02 1.70381460e-02 -8.71843309e-04 -7.60296360e-02 8.13830048e-02 -4.67063747e-02 -1.86749563e-01 4.85406630e-02 -7.95933604e-02 -4.70854202e-03 -1.97074097e-02 -4.40055393e-02 1.55290842e-01 -3.66793096e-01 -4.92393449e-02 -2.46987282e-03 3.72603424e-02 -4.78952471e-03 -3.25556062e-02 -1.18710816e-01 -1.28487363e-01 -1.47846332e-02 4.33280319e-03 -3.85398082e-02 -1.14237122e-01 1.59020033e-02 -2.57906336e-02 2.82345805e-02 -3.13291023e-03 -1.19356975e-01 -8.51666704e-02 -1.44114584e-01 3.14424187e-02 -7.69573683e-03 1.27313018e-01 -1.04048356e-01 -6.34976327e-02 -6.32943064e-02 -1.91569384e-02 2.02200245e-02 6.06825531e-01 4.76952409e-03 -4.97903943e-01 3.26067172e-02 8.91904458e-02 -6.98929951e-02 2.99276978e-01 -3.47937122e-02 -7.00872689e-02 -1.20562464e-01 -1.15765244e-01 -1.76879056e-02 -9.10753235e-02 5.87146655e-02 3.68188083e-01 4.51263487e-02 9.52738598e-02 1.14017524e-01 -1.17122598e-01 2.16906518e-03 3.02138980e-02 -8.36617723e-02 -6.18822575e-02 2.20522080e-02 2.24388205e-02 -3.19684818e-02 9.22389887e-03 -2.01244541e-02 4.62979190e-02 9.99905244e-02 -7.72308856e-02 -1.74367465e-02 2.38242699e-03 1.36907166e-02 5.04047563e-03 -2.75373459e-01 -1.05809845e-01 -1.90247953e-01 9.48922650e-04 8.05365145e-02 6.54292181e-02 -5.36032543e-02 3.54793575e-03 9.53085124e-02 -1.24685159e-02 -2.54977923e-02 1.78042412e-01 4.97682989e-02 -5.11905514e-02 -5.57503067e-02 4.52824775e-03 -1.17553003e-01 9.05025825e-02 -5.30690663e-02 -6.87623490e-03 -1.07931696e-01 -1.81582104e-02 -2.95622982e-02 2.93240007e-02 1.30216807e-01 1.25516234e-02 5.01735099e-02 4.95989695e-02 -2.40273289e-02 2.06465740e-02 -7.44911954e-02 -4.90073301e-02 -3.91270444e-02 -1.41175881e-01 2.11874396e-01 -2.39139684e-02 8.75123143e-02 1.60870869e-02 -1.94496904e-02 -1.07536033e-01 1.91246234e-02 1.22004719e-02 6.02069460e-02 4.99497242e-02 1.71515737e-02 -3.96721475e-02 2.81848293e-02 3.19394981e-03 -1.71028495e-01 -1.17455728e-01 2.92582083e-02 -1.46946192e-01 -2.83170003e-03 1.08686395e-01 1.57721639e-02 -1.65110491e-02 -4.65354957e-02 1.64749831e-01 2.45211180e-02 8.05700012e-03 5.17880544e-03 2.44538654e-02 6.75766170e-02 9.86097530e-02 4.05838564e-02 -6.46971911e-02 8.64501670e-02 -1.29457898e-02 -9.03167129e-02 5.17634340e-02 6.03622086e-02 2.46698018e-02 3.70901302e-02 2.67158933e-02 -3.89002590e-03 -8.87956023e-02 -4.62121359e-04 -1.48633746e-02 2.99425479e-02 -5.15479408e-02 3.86593165e-03 -5.54940403e-02 2.79706754e-02 -1.41567057e-02 1.50320590e-01 -3.90987955e-02 -9.40370783e-02 7.80209973e-02 4.92008915e-03 2.44459957e-02 2.15977151e-03 -8.28444958e-02 -8.66349861e-02 2.58887354e-02 -4.53779884e-02 7.74040669e-02 3.74043286e-02 4.37447010e-03 1.39705464e-03 -2.78270803e-02 -9.13151167e-03 -3.54136154e-02 3.41663063e-02 7.15994556e-03 -2.97732353e-02 -1.48346729e-03 -2.59868093e-02 -6.87716529e-02 1.86416321e-02 9.51030198e-03 3.20173404e-03 -1.90629847e-02 7.96994492e-02 -5.14540710e-02 1.20637063e-02 3.44669744e-02 -1.08346865e-02 5.62640019e-02 -1.33279050e-02 -3.35566215e-02 9.38252732e-02 -7.97512680e-02 -5.46204858e-02 4.82565276e-02 -3.37476395e-02 -2.03936398e-02 2.79374942e-02 -1.60680324e-01 5.40160351e-02 -1.53464749e-02 -1.32602572e-01 2.03890260e-02 5.75863719e-02 2.02920870e-03 -1.49016362e-02 1.53027758e-01 4.31522653e-02 -1.38856351e-01 7.08479341e-03 -6.38002455e-02 -5.90659380e-02 -4.47950792e-03 6.07275404e-02 5.64436568e-03 -9.64368228e-03 5.09149511e-04 6.25998527e-02 -1.78638056e-01 -4.23028693e-02 4.64046299e-02 6.86719120e-02 -1.52854212e-02 -2.55881418e-02 -2.23995030e-01 3.32814306e-02 -5.51762879e-02 -3.85367833e-02 -8.70386325e-03 1.13474287e-01 1.93319540e-03 -1.04870901e-01 -4.34052348e-02 -2.07027748e-01 4.57567461e-02 3.85218784e-02 -8.79666433e-02 -3.03367190e-02 -5.83567247e-02 -1.39808906e-02 1.88564099e-02 -1.73853133e-02 -3.67954344e-01 -6.08022138e-02 -5.81838749e-02 1.19411796e-01 -1.24046523e-02 7.30741918e-02 -7.75260031e-02 -1.37551934e-01 7.07382783e-02 4.88264263e-02 -2.70394478e-02 -6.13427162e-02 -1.68985222e-03 3.88999283e-02 -4.56847325e-02 -2.51787841e-01 -3.35499197e-02 -1.19443402e-01 1.60414968e-02 -4.34488244e-02 2.73409262e-02 7.41020544e-03 -8.46030749e-03 -1.68622375e-01 -1.76963564e-02 -5.36104254e-02 -5.94164804e-02 -1.71792835e-01 2.74363142e-02 -2.67794784e-02 1.63293281e-03 3.51380259e-02 -7.61265904e-02 -8.09126422e-02 -2.94092372e-02 -9.55250859e-02 5.10921441e-02 6.15320243e-02 -5.19611277e-02 4.06123558e-03 -2.10064277e-02 -5.34510333e-03 1.30567607e-02 -1.42273828e-02 -2.37063318e-02 -2.09993105e-02 -7.57663921e-02 -7.23062903e-02 -4.83847484e-02 -1.10567659e-01 -7.28781754e-03 -2.62136590e-02 -4.10162099e-02 -7.24926367e-02 7.94293880e-02 3.85460183e-02 1.27967903e-02 -2.65615255e-01 7.01583624e-02 -3.43552493e-02 6.65396824e-02 -2.36701667e-02 2.33487953e-02 -9.21408683e-02 -3.79349217e-02 5.87054864e-02 3.49107124e-02 -7.96309114e-02 -5.49279302e-02 6.73153326e-02 -3.04462630e-02 -9.04899836e-03 8.52572322e-02 8.63947049e-02 -9.95905176e-02 -1.20853916e-01 3.43075357e-02 -3.48644215e-03 -3.37461084e-02 -2.20001601e-02 1.30833648e-02 2.12367475e-02 -1.19869150e-02 3.48124392e-02 -3.80805843e-02 1.05156578e-01 3.30631658e-02 8.37892890e-02 -1.66405570e-02 -1.08924722e-02 -2.84894537e-02 2.29485184e-02 1.13306597e-01 1.02392711e-01 4.24432643e-02 -5.59212677e-02 -1.70663670e-01 -1.06913678e-01 -1.18792489e-01 1.76669266e-02 -1.44417688e-01 -1.63442940e-02 -4.53728177e-02 -3.98708731e-02 -6.70522824e-02 9.34534743e-02 -1.04442507e-01 -4.13836772e-03 4.06481884e-02 -1.62889540e-01 -4.29033898e-02 4.75082174e-02 -8.11380241e-03 2.76406296e-02 -3.51670273e-02 8.20559543e-03 -1.52319416e-01 4.27514352e-02 1.13723539e-01 5.28300628e-02 -1.44441649e-01 3.83983599e-03 3.49853262e-02 -3.81964222e-02 5.87063795e-03 5.41780405e-02 -1.76986028e-02 -1.74214523e-02 -1.59323569e-02 -9.94579215e-03 1.47979625e-03 -1.45550996e-01 1.95737202e-02 -1.14370555e-01 2.15372965e-02 5.27560227e-02 -1.69861205e-02 -5.75952232e-02 -1.12723410e-02 3.46545912e-02 4.36178874e-03 -1.07942335e-01 -1.82971105e-01 -4.59272601e-02 -5.24530234e-03 -8.23983699e-02 1.74731389e-01 -1.64040960e-02 -9.60107222e-02 3.18171233e-02 1.61285728e-01 -6.18269518e-02 -9.20568779e-03 -1.78824645e-02 5.02558537e-02 5.68921939e-02 -4.36671823e-02 6.74282983e-02 -2.59922799e-02 -5.45582287e-02 -7.04666153e-02 4.75335568e-02 9.26961377e-02 3.32987048e-02 3.48119438e-02 -1.35770679e-01 -1.07530840e-01 -7.71355107e-02 -3.20927277e-02 -2.45158607e-03 4.36911024e-02 6.00527674e-02 -5.79298707e-03 -1.88458133e-02 -6.73624426e-02 -9.73983854e-02 -4.90405150e-02 -4.63024620e-03 -1.69890095e-02 4.96006832e-02 5.23393676e-02 1.47845015e-01 6.57995716e-02 -2.31466927e-02 -7.50448853e-02 -5.42178862e-02 4.99307066e-02 -1.71172187e-01 1.30575411e-02 2.55834647e-02 7.73646384e-02 2.76394631e-03 3.85917202e-02 -2.44267732e-02 -1.05260285e-02 -7.29370937e-02 -9.07772407e-02 8.19457695e-02 -1.65776968e-01 -4.72366363e-02 2.47474574e-02 -7.90040940e-02 2.03315425e-03 -7.10760504e-02 -2.51142010e-02 2.85267793e-02 8.79417174e-03 -1.86231527e-02 2.97668613e-02 6.08196072e-02 2.21136920e-02 -1.35735720e-01 -1.93778411e-01 7.19738156e-02 -8.14281926e-02 3.98975350e-02 -1.08689293e-02 5.30462563e-02 6.25363272e-03 -4.16966267e-02 -1.34028168e-02 1.23239952e-04 9.99655426e-02 -2.03033894e-01 -8.18401054e-02 -6.56190095e-03 -1.82227969e-01 5.47835752e-02 -3.24595980e-02 2.34391596e-02 -5.47440983e-02 1.21928612e-02 -9.93257482e-03 7.18453676e-02 -5.88126741e-02 -2.63519250e-02 7.05731520e-03 -5.23169994e-01 4.01408561e-02 -4.76689562e-02 -6.41183183e-02 9.10408422e-02 1.24503030e-02 8.16551745e-02 -5.03315091e-01 -7.38151148e-02 7.24210367e-02 -1.81393474e-01 -1.76912341e-02 -3.95249724e-02 -6.09897897e-02 -1.71533972e-02 -6.69543296e-02 1.80516317e-02 9.46604833e-02 -1.23004206e-01 1.24474736e-02 3.45984325e-02 -1.84172601e-01 -1.92104559e-02 4.60599251e-02 -2.06138436e-02 -6.43206835e-02 -6.22442812e-02 -3.19412462e-02 -4.11676383e-03 5.09809563e-03 8.09663255e-03 -1.26286075e-01 2.10177954e-02 -2.01575924e-03 -7.58215599e-03 -2.45040916e-02 -3.09116822e-02 -1.02066688e-01 -1.00645311e-02 6.43034838e-03 1.12429090e-01 -1.14645148e-02 8.33251402e-02 5.87700456e-02 2.95744184e-02 -3.92615572e-02 -4.04793676e-03 4.12693918e-02 -2.71044094e-02 -5.80126382e-02 -7.93591794e-03 4.30179127e-02 -5.64520545e-02 1.47352996e-03 2.10293438e-02 -6.86621815e-02 9.55298170e-02 1.45824224e-01 -2.94640940e-02 -1.09244488e-01 -5.52900471e-02 5.68607822e-02 1.81420073e-02 5.72036318e-02 4.10839580e-02 -2.92405300e-02 1.34440705e-01 -1.10488810e-01 4.09658290e-02 7.89212808e-02 -3.62627301e-03 1.14770839e-02 4.70007360e-02 1.64057463e-02 7.41704600e-03 2.22104609e-01 2.89610699e-02 -7.42244571e-02 -1.19708121e-01 5.47379069e-02 -2.14649662e-02 -1.41249910e-01 4.33345139e-02 -3.29577476e-02 -9.39278957e-03 -2.91264784e-02 1.03966994e-02 -1.12898923e-01 -6.08760826e-02 1.39702968e-02 -1.65542460e-03 1.46958604e-01 7.83507153e-02 -9.78067797e-03 8.02644715e-02 4.47110943e-02 2.67057307e-03 -1.78136989e-01 -2.75888890e-02 -2.74771489e-02 1.31750315e-01 -3.04047279e-02 -3.76632325e-02 -2.21796543e-03 -2.53817197e-02 -1.36337593e-01 1.91844348e-02 -2.46188194e-02 -1.42006958e-02 5.41999266e-02 -5.61164059e-02 -3.58633860e-03 -2.52731834e-02 9.08417627e-03 1.80273652e-02 -2.33680978e-02 2.35242844e-02 -2.17299312e-02 5.31782061e-02 -1.02733664e-01 -3.93692926e-02 -1.77457300e-03 1.13757037e-01 -5.76607399e-02 4.41683605e-02 -1.91698633e-02 -8.54507461e-02 -4.87574264e-02 7.54506066e-02 -1.86319932e-01 3.30212601e-02 8.48690271e-02 6.37515038e-02 -9.11137164e-02 2.96022128e-02 -2.75754426e-02 2.51224148e-03 -2.80430634e-03 2.93857902e-02 -5.34793697e-02 5.00264429e-02 -1.14095666e-01 1.58855300e-02 -1.14077916e-02 9.68565866e-02 -1.72812641e-01 -3.94387431e-02 5.01583554e-02 -6.05235286e-02 -6.04811199e-02 -2.03147065e-02 -4.17932309e-03 -6.50677457e-02 -7.81756416e-02 1.60303768e-02 -7.91392699e-02 -5.53612299e-02 8.13082457e-02 4.49811816e-02 -1.51061758e-01 1.86946556e-01 -3.15183364e-02 -7.12500662e-02 -6.54082820e-02 -2.98842508e-02 8.59268606e-02 -1.41592383e-01 3.47648859e-02 5.75073957e-02 -8.54917169e-02 -1.92120597e-02 1.68449864e-01 5.38325757e-02 -5.34699224e-02 -4.71555209e-03 -8.68094265e-02 7.29238689e-02 -8.97816122e-02 4.47800802e-03 3.01651806e-01 3.69130336e-02 3.32564153e-02 -6.35631010e-02 -4.56418246e-02 -5.07058389e-02 3.48435268e-02 2.27059931e-01 4.67917509e-02 2.12828979e-01 -2.46372707e-02 7.64922574e-02 -1.17360177e-02 -5.26686423e-02 -7.27896243e-02 -2.61793416e-02 3.92895192e-02 -7.02631027e-02 1.57917999e-02 1.45811411e-02 4.84090932e-02 -9.93816834e-03 5.94946649e-03 -3.77968848e-02 -1.59869149e-01 -4.86767516e-02 -4.36973162e-02 -6.74869269e-02 -2.04048529e-02 -7.47254258e-03 1.88286677e-01 -2.03269143e-02 -4.88130841e-03 -2.22986229e-02 3.64796072e-02 -5.41096590e-02 -4.47535608e-03 -4.53734435e-02 -6.99273571e-02 5.15580038e-03 -9.58463848e-02 -1.11149773e-02 1.58104394e-02 5.07380292e-02 -8.59223083e-02 6.64588511e-02 8.15568343e-02 -4.85493653e-02 -2.42862385e-02 -9.11304876e-02 -8.81518349e-02 1.22822963e-01 -1.36505827e-01 1.82574503e-02 -1.78405613e-01 -2.35628963e-01 1.74753323e-01 3.78132612e-02 3.83271575e-02 -8.20366442e-02 1.51772238e-02 -1.08726919e-02 -3.78514593e-03 -9.28557217e-02 -5.46628423e-02 -1.25598773e-01 5.07523566e-02 -9.80676897e-03 -1.12692313e-02 -1.89116329e-01 -1.57427359e-02 1.21209919e-02 2.96998676e-02 -1.87882390e-02 3.75108048e-02 -7.95274600e-02 -1.70094036e-02 -4.05501984e-02 6.96145743e-02 -1.45056406e-02 -6.54271245e-02 9.75373313e-02 8.56780559e-02 3.11546978e-02 2.95390356e-02 -1.33756787e-01 -2.44375803e-02 6.02874756e-02 -3.10264900e-03 -2.90634595e-02 -3.14151347e-02 1.13753825e-01 2.66073979e-02 6.89662695e-02 -1.05767902e-02 -1.07983127e-02 -3.63649800e-02 -9.81319919e-02 5.60588166e-02 -1.05487742e-02 2.87891012e-02 2.07381882e-02 -1.75068468e-01 6.16169274e-01 5.56437150e-02 -6.80440962e-02 1.43600972e-02 -1.80524345e-02 -2.21732445e-02 -4.48479876e-02 -3.74025461e-04 5.63422963e-02 1.09748021e-02 1.10389188e-01 6.94211712e-03 6.28116205e-02 -6.36705756e-03 1.57983638e-02 -7.26907998e-02 -4.03008237e-02 3.79162584e-03 -6.55468479e-02 4.00810008e-04 7.73868561e-02 4.09044698e-02 4.86658178e-02 -5.29150255e-02 -8.98753572e-03 -9.84745398e-02 5.07075479e-03 5.25140539e-02 -1.82862673e-02 -2.98579838e-02 3.09184496e-03 -1.14680275e-01 -5.46349064e-02 5.93795162e-03 5.57002388e-02 -3.04242168e-02 3.31758372e-02 -9.44119841e-02 -2.95324355e-01 1.62031520e-02 -6.77478442e-04 -1.54886782e-01 -2.22402196e-02 2.25770585e-02 5.90277165e-02 2.32257079e-02 -1.14754356e-01 1.15162939e-01 1.62003643e-03 3.32604200e-02 -7.77595788e-02 3.71144637e-02 -1.11387581e-01 7.82390777e-03 -3.81756239e-02 -7.92755410e-02 -6.99325800e-02 -5.14679886e-02 -7.64248371e-02 -9.56968125e-03 -7.96182139e-04 -9.48167518e-02 -2.14101537e-03 -2.46369671e-02 6.11916464e-03 -1.92277331e-03 -1.38071068e-02 1.00888126e-02 5.91647513e-02 -1.26913087e-02 4.32660282e-02 -2.17422083e-01 -8.69057849e-02 5.00892289e-02 -4.85145040e-02 -4.47637290e-02 1.19405851e-01 2.05232456e-01 -2.19944455e-02 3.02815530e-02 8.34747590e-03 -1.15686543e-01 7.76818097e-02 -4.09752578e-02 -1.08565704e-03 1.38397798e-01 1.41837403e-01 -4.87573165e-03 -6.90800175e-02 -2.44961251e-02 1.24858553e-02 4.58424799e-02 -2.76860408e-02 -8.38600397e-02 1.25535548e-01 3.56336944e-02 -2.90030125e-03 1.44694177e-02 2.26936471e-02 -7.30603235e-03 -4.25042287e-02 1.96034703e-02 -9.71990637e-03 1.00616571e-02 -2.47224551e-02 3.22704688e-02 2.77657043e-02 -6.23925179e-02 2.13284753e-02 -8.82958248e-02 1.11558124e-01 -4.08564843e-02 3.59263197e-02 -1.87272318e-02 5.50725088e-02 -2.29191631e-02 -4.40594449e-04 -1.24762114e-02 -1.29500292e-02 -6.67279586e-02 5.91465039e-03 -5.44433407e-02 2.01010153e-01 2.61314269e-02 1.05357720e-02 -9.93265063e-02 1.66609918e-03 6.14256831e-03 1.23041095e-02 3.03146220e-03 -3.81156243e-02 -7.72277489e-02 -3.72510701e-02 3.23934071e-02 -3.92390452e-02 -1.39923722e-01 1.33200541e-01 -1.69975013e-02 -1.36768061e-03 2.98439115e-02 -2.01717764e-02 -1.85119044e-02 -2.67483294e-02 -1.28370360e-01 -6.49357662e-02 -2.64306590e-02 -7.70156831e-02 -8.19238499e-02 -9.29116085e-02 6.92038471e-03 6.66465387e-02 3.34896520e-02 -7.83767402e-02 3.22954031e-03 -8.43305513e-02 -4.56162579e-02 -2.33144090e-02 -1.93665456e-02 -3.71510461e-02 3.38843875e-02 1.36248872e-01 3.72051932e-02 3.05831409e-03 -1.61340892e-01 -4.48694341e-02 4.88119125e-02 -3.10673006e-02 4.06293012e-02 -1.82143971e-02 -5.92299215e-02 -6.77167810e-03 -7.19516128e-02 6.42448291e-02 7.53298327e-02 -6.58647791e-02 1.10605368e-02 -9.20571480e-03 -5.13664149e-02 1.27504882e-03 -8.80943462e-02 -2.43375264e-03 -8.44270438e-02 3.25435549e-02 5.08819260e-02 2.24942751e-02 1.18307218e-01 -6.79918453e-02 -4.98446636e-02 -2.04606913e-02 3.05790361e-02 -7.14231655e-02 2.87987646e-02 6.44794777e-02 8.30787513e-03 5.20416088e-02 -1.49995182e-02 -7.45827239e-03 -5.66255581e-03 -5.77503145e-02 1.17253670e-02 -2.75422842e-03 1.82991922e-01 6.28255084e-02 3.31183597e-02 -8.31402466e-02 1.62696928e-01 9.14270710e-03 -3.71918529e-02 -8.73709470e-03 -4.59597260e-02 9.39204991e-02 -4.65971912e-04 2.86210366e-02 2.89130546e-02 5.03232367e-02 1.01588674e-01 -4.48280089e-02 -9.32263657e-02 -2.50004400e-02 -1.75945833e-01 4.33450788e-02 6.67711124e-02 -3.67882848e-02 -3.33740711e-02 5.07031083e-02 4.58661020e-02 -2.28241071e-01 -1.55236823e-02 -1.29401967e-01 3.42961550e-01 -1.10616915e-01 -2.10514683e-02 -7.65418932e-02 -2.43212119e-01 3.06751430e-02 -1.69483144e-02 1.23048946e-02 -1.41553506e-01 -2.02196632e-02 -8.01160261e-02 -1.17609777e-01 -4.29015383e-02 3.14815901e-04 1.21791281e-01 1.32037640e-01 -2.21786574e-01 -9.79988351e-02 8.05463567e-02 1.21806100e-01 -8.15619307e-04 1.35577485e-01 4.21037041e-02 -1.51268532e-02 4.64622267e-02 1.29586263e-02 3.82014364e-02 6.60302266e-02 1.22415245e-01 7.08956271e-02 1.16226256e-01 -3.76670361e-02 -3.43989134e-02 1.32180015e-02 -8.52150992e-02 -5.82971983e-02 -1.31546415e-03 -2.70147063e-02 -8.12954232e-02 -3.23901651e-03 2.81863362e-02 -2.12439820e-02 -2.40650051e-03 5.68732526e-03 -3.99396718e-02 -6.60439208e-02 -3.35150808e-02 -2.14604568e-02 1.15357740e-02 1.12255789e-01 4.25581224e-02 -2.26161280e-03 1.68257707e-03 -5.62287159e-02 -7.77800288e-03 -6.48667514e-02 1.10663762e-02 -4.05369312e-01 6.48153499e-02 -1.34103224e-01 -1.63197964e-02 -1.17725246e-01 7.82976747e-02 3.38758016e-03 1.48713067e-02 7.91925937e-02 3.33990492e-02 6.65455461e-02 -9.06360000e-02 -1.35639980e-01 -7.78678432e-03 -5.40990941e-02 -4.90198471e-02 -2.78202072e-02 -5.35504147e-02 -3.08602229e-02 9.07703713e-02 -1.74976699e-02 -1.81579951e-03 3.92907448e-02 -3.40058208e-01 1.37509406e-01 -1.47787491e-02 -1.29307404e-01 -2.65083183e-02 -2.32380861e-03 -2.39211559e-01 -1.64609924e-02 -1.22237615e-02 9.06915497e-03 -3.92548852e-02 -3.11870933e-01 6.75860839e-03 3.80924679e-02 2.63746649e-01 -5.76264523e-02 2.68853339e-03 1.22385286e-01 9.30222124e-02 -1.05646793e-02 -1.37241885e-01 3.19681652e-02 1.19996689e-01 5.09893410e-02 6.88937530e-02 1.08370855e-01 3.64140458e-02 2.46493146e-02 -2.28547193e-02 -1.57600120e-02 -9.73485690e-03 3.43383290e-02 -2.00055577e-02 3.25500332e-02 -5.76456077e-03 1.53477088e-01 2.81974860e-02 -9.93218049e-02 -5.09224981e-02 -2.29003634e-02 5.58749177e-02 2.11175848e-02 2.63392292e-02 7.69466758e-02 -1.54691259e-03 2.26089984e-01 -8.31109956e-02 -1.41164903e-02 5.41353971e-02 5.29692182e-03 -3.36507373e-02 -1.06900753e-02 -3.74989331e-01 1.23175427e-01 -1.71583250e-01 -3.19667868e-02 4.01580567e-03 3.76649648e-02 4.24817875e-02 1.09715194e-01 5.59110269e-02 8.45074132e-02 1.51671497e-02 -6.55943304e-02 -9.05681029e-02 7.11061731e-02 3.93181108e-02 -5.19794188e-02 8.34761932e-02 -1.19194789e-02 1.24336012e-01 1.07537406e-02 -3.51553001e-02 2.12132875e-02 1.44180194e-01 1.75409596e-02 -1.36610210e-01 7.71957859e-02 -6.99500516e-02 -8.19182321e-02 -3.88635672e-03 -9.01505630e-03 -3.90524529e-02 -1.88582987e-02 8.68736058e-02 -7.03241825e-02 1.31350890e-01 7.54635930e-02 -2.63240188e-02 1.48317767e-02 -5.78203015e-02 -7.07980944e-04 -1.15510277e-01 -9.37815607e-02 -2.03854337e-01 -3.47942747e-02 9.07162800e-02 1.47032827e-01 -2.67921109e-02 -2.13675439e-01 2.56326105e-02 -8.89316946e-03 -1.48256151e-02 4.58579175e-02 -5.23642823e-02 -5.28291799e-02 3.81336696e-02 4.39261422e-02 -1.86521858e-01 -5.22978455e-02 1.19257450e-01 -5.81307672e-02 -4.46594805e-02 3.71708907e-02 4.15383577e-02 -1.67849695e-03 -1.23319561e-02 -4.80991183e-03 -1.82896312e-02 -7.49054551e-02 -9.89679396e-02 -3.17172869e-03 3.79854403e-02 7.51325339e-02 1.06098754e-02 -1.18556004e-02 5.06227789e-03 1.35836110e-03 -7.37541690e-02 -3.40307467e-02 -7.85641223e-02 -3.58011872e-02 -2.42935102e-02 7.15802684e-02 -5.68141304e-02 -7.90007636e-02 3.74465529e-03 -3.18247303e-02 -4.95555624e-02 2.59436071e-02 -1.01281367e-02 2.88510267e-02 -8.98464173e-02 -1.14428669e-01 -4.60108742e-02 1.09110877e-01 7.92106763e-02 4.52063121e-02 1.35510892e-01 -4.53570038e-02 -2.08024636e-01 -1.41840540e-02 -1.79844588e-01 -5.85469306e-02 6.11115284e-02 1.55179074e-03 -1.27545828e-02 2.17197444e-02 4.60715741e-02 -3.70344967e-02 -1.24269903e-01 -6.67952746e-02 2.69179065e-02 -1.07763045e-01 3.69713455e-02 -1.90047361e-02 8.74583200e-02 5.91662712e-02 2.12085456e-01 -4.33917297e-03 8.14995021e-02 2.25956719e-02 8.50403234e-02 -4.12848927e-02 3.72798666e-02 -8.48408267e-02 1.17045911e-02 -1.28612161e-01 -3.70154902e-02 9.15056653e-03 -9.06847939e-02 3.37657146e-02 7.26081878e-02 -2.06966233e-02 -1.07509433e-03 2.41956636e-02 -3.99030261e-02 4.25445884e-02 -1.00955002e-01 2.16661841e-02 -3.70140746e-02 6.98671164e-03 -8.49378994e-04 1.18505046e-01 -1.60438828e-02 7.20638931e-02 -1.09423079e-01 4.71049175e-02 -3.24413739e-02 3.96737829e-02 -1.77948158e-02 -1.54200062e-01 5.67798056e-02 1.74322203e-02 9.23971087e-02 -1.78616215e-02 -7.96740577e-02 1.90531444e-02 1.05682209e-01 -6.58391491e-02 -2.12622266e-02 -1.08129010e-01 -8.28592777e-02 1.56066388e-01 4.92371172e-02 -2.14487705e-02 3.92023213e-02 5.26881255e-02 2.78258026e-02 -9.14334413e-03 4.67344048e-03 8.89665335e-02 1.35394819e-02 -1.11072781e-02 1.74406871e-01 -6.02352805e-02 -5.99976070e-02 -1.77983264e-03 7.43043283e-03 -5.57309389e-02 -8.05203523e-03 -1.73745260e-01 2.67467666e-02 4.19770542e-04 8.50888994e-03 -1.79765131e-02 1.08739221e-02 7.09299073e-02 -7.51567110e-02 -8.50422606e-02 -5.16507506e-01 -1.93993170e-02 1.07727079e-02 -4.74144444e-02 5.34441471e-02 5.95451593e-02 4.69859689e-02 -9.30969864e-02 -1.86733678e-02 4.12688628e-02 2.53148265e-02 -6.39189035e-03 3.48663256e-02 1.33526372e-03 7.71271288e-02 -3.36433239e-02 9.90770087e-02 -1.30461171e-01 5.49214073e-02 -5.24073578e-02 -5.53875007e-02 -1.11223459e-02 -3.27375019e-04 -1.30519718e-02 9.73538011e-02 -3.06061935e-02 -2.23915558e-02 -2.39379294e-02 7.28385746e-02 -5.33194058e-02 4.87499051e-02 5.84997274e-02 -2.67529637e-01 4.21973132e-02 -4.48071398e-02 -5.04688546e-02 7.48451473e-03 3.54872458e-02 3.41056287e-02 -1.28016202e-02 -1.27368337e-02 -7.98809901e-02 3.99055779e-02 -6.30598888e-02 -1.11504778e-01 9.49861202e-03 -5.41968122e-02 1.18914478e-01 1.07770534e-02 4.03818674e-02 -3.89835089e-02 6.02969266e-02 -2.28271279e-02 -4.00409885e-02 1.34904590e-02 -4.01156507e-02 1.20971380e-02 4.51086685e-02 3.40621099e-02 2.73099709e-02 -1.27019852e-01 3.96715058e-03 -9.08922777e-02 1.00088865e-01 3.35604115e-03 3.59419803e-03 1.88127887e-02 -5.41324669e-04 1.08887609e-02 1.67759769e-02 -3.73551883e-02 -1.22962169e-01 -1.06545694e-01 4.43480574e-02 -2.82769017e-02 -3.01377662e-02 1.79066695e-02 -2.98465103e-01 1.96117861e-03 -2.14382827e-01 4.77554910e-02 7.94106070e-03 -9.44627915e-03 -1.08142355e-02 1.35352165e-01 7.38361999e-02 3.84032056e-02 2.36295871e-02 6.70334026e-02 -7.90056065e-02 9.79425460e-02 -1.10597508e-02 2.15971619e-02 -4.29298878e-02 1.50811389e-01 -1.86169185e-02 -8.24611858e-02 -4.75722216e-02 1.60192266e-01 -1.31581044e-02 -7.24544050e-03 -1.37781138e-02 3.79970968e-02 -5.42638339e-02 -2.41890014e-03 4.57837544e-02 -3.56109664e-02 1.16416156e-01 -2.05483139e-02 2.17982195e-02 1.94879882e-02 6.40003160e-02 3.41754742e-02 -4.66391742e-02 -1.10046566e-02 8.20849538e-02 -5.57727227e-03 -4.04506661e-02 -8.17845166e-02 2.61240527e-02 2.70064385e-03 -6.42573833e-02 8.85884613e-02 1.51399346e-02 -4.08654008e-03 -1.76114932e-01 5.45529462e-02 4.07104753e-02 -3.09202634e-02 -2.13229749e-03 7.52064586e-03 -8.78954493e-03 -2.55870656e-03 -9.81372315e-03 3.81768644e-02 -4.57343757e-02 1.31153669e-02 1.16542159e-02 -9.02976468e-02 1.16267102e-03 -4.12327014e-02 -4.16327678e-02 -6.06547669e-02 -3.96049842e-02 -1.00234084e-01 3.90949212e-02 -5.69281913e-02 9.44459997e-03 4.54149358e-02 4.20802347e-02 -5.05462661e-02 1.69739246e-01 -5.18987589e-02 1.30392434e-02 -4.23573852e-02 -8.19037110e-02 -7.12041743e-03 3.49086635e-02 1.49800450e-01 2.03344017e-01 1.08162679e-01 6.41893372e-02 4.99190949e-02 -5.78815080e-02 -3.94751877e-01 2.89590843e-03 9.02587101e-02 -9.23832506e-02 1.32830627e-02 -1.12121375e-02 6.63715973e-02 2.85491627e-02 -6.38368055e-02 -7.02963676e-03 -9.75628290e-03 4.73229811e-02 4.88389544e-02 -2.00792719e-02 -1.18037112e-01 3.18636862e-03 1.70638949e-01 -6.33203145e-03 -2.52068453e-02 1.52562466e-02 1.76789779e-02 -1.38609400e-02 1.35433793e-01 -4.48541194e-02 2.91685034e-02 5.95537834e-02 5.49338274e-02 -1.71256244e-01 6.70379773e-02 -1.24611259e-01 5.36381565e-02 2.73553026e-03 9.86563861e-02 8.53161886e-02 -3.29469927e-02 -3.18101905e-02 2.38156408e-05 -4.68188524e-02 4.23097610e-02 -4.77291867e-02 4.93195131e-02 8.19282979e-02 6.04770891e-02 -1.43140331e-01 2.92232987e-02 -4.11751010e-02 -5.85363097e-02 8.94352570e-02 -8.46255347e-02 1.09806314e-01 6.32167310e-02 1.21102251e-01 6.23126468e-03 -5.41462600e-02 4.57869135e-02 -5.06360456e-02 -8.71152151e-03 -2.88995504e-02 9.49097723e-02 5.67921326e-02 -6.72601312e-02 -2.74674292e-03 3.84035036e-02 1.31102633e-02 1.63958907e-01 7.92533532e-02 -4.65775505e-02 -7.83243775e-02 4.47732843e-02 2.82019600e-02 7.60641173e-02 1.24009214e-01 -1.26282901e-01 -5.45879640e-02 -6.51012436e-02 2.87876669e-02 1.06561147e-02 -1.48164943e-01 -5.34447879e-02 -1.96047332e-02 -2.88090203e-02 4.50574942e-02 4.15526219e-02 1.49658471e-02 -2.63982713e-01 4.98553626e-02 -3.53599191e-02 2.07321928e-03 1.25101939e-01 -1.24457546e-01 -9.03001353e-02 2.39911545e-02 2.89962608e-02 1.47958901e-02 -3.99745442e-02 -2.35301964e-02 4.96318303e-02 4.55312664e-03 2.87043363e-01 3.50389890e-02 -6.96090087e-02 1.60582855e-01 -6.75891936e-02 -1.06689483e-01 -1.07416415e+00 4.16046456e-02 -1.10581599e-01 1.11886412e-01 -1.22626191e-02 -7.18143061e-02 2.94165332e-02 8.48622248e-02 -1.86028462e-02 -6.29800186e-02 -4.73070927e-02 -4.69796918e-02 -3.84128578e-02 -4.15058993e-03 -1.17757171e-01 -9.89384353e-02 -1.26882225e-01 -6.80747181e-02 -5.87639138e-02 -3.95648414e-03 -1.16878979e-01 1.39280349e-01 1.75394807e-02 -4.93974686e-02 1.68806940e-01 -2.15517380e-03 1.11149378e-01 -2.22008470e-02 -2.32651066e-02 6.68847114e-02 2.40788143e-02 -8.66573378e-02 -2.04894599e-02 5.98081276e-02 3.41374092e-02 1.02170929e-01 6.95458874e-02 9.38468128e-02 -2.52790395e-02 -1.08871993e-03 1.95114449e-01 -2.39616670e-02 -2.86832135e-02 -4.48154025e-02 -3.32626887e-02 -1.00890145e-01 5.66903222e-03 -3.48374434e-02 8.37815702e-02 -8.43893960e-02 -4.49197134e-03 -8.13336149e-02 5.24970517e-02 -2.13618219e-01 -8.61365870e-02 -5.74449450e-02 -6.07689656e-03 3.31716016e-02 -6.89851120e-02 -5.30253537e-02 1.67746865e-03 1.09539427e-01 -2.32710063e-01 1.17595389e-01 -1.35092884e-01 1.34087220e-01 -3.60700004e-02 -1.23819560e-01 -1.36551978e-02 6.47438541e-02 -6.35847449e-02 -4.28795293e-02 3.38145681e-02 -8.39141943e-03 -1.34599069e-02 5.25830016e-02 -7.29817599e-02 -1.64493825e-02 2.08054427e-02 1.34961709e-01 6.99431300e-02 -2.46975403e-02 2.17729117e-04 -8.29099268e-02 -6.89877197e-02 1.88967079e-01 8.45989585e-02 1.30909067e-02 -8.52382705e-02 -1.51422411e-01 5.65102920e-02 -2.62556635e-02 -5.27345724e-02 1.93873905e-02 3.13641839e-02 7.51039237e-02 -2.43206252e-03 -1.87029187e-02 9.90132391e-02 1.42498026e-02 2.69117020e-02 -8.08063447e-02 6.94947243e-02 -4.03448287e-03 -9.34381336e-02 3.97924487e-05 -1.67509504e-02 5.55360913e-02 -3.20173614e-02 -1.59127153e-02 5.27060078e-03 -1.00226156e-01 3.77999917e-02 7.46403337e-02 -2.46167779e-02 1.26487657e-01 3.63342352e-02 -7.32479692e-02 5.78307360e-02 -2.31526066e-02 -5.32261878e-02 -3.16193290e-02 5.92907071e-02 1.71734303e-01 5.28187640e-02 2.56175362e-02 2.17682887e-02 2.66432930e-02 1.32633979e-02 7.46029392e-02 7.72634298e-02 7.37383887e-02 2.10172459e-02 1.03462655e-02 7.51479641e-02 1.77990701e-02 9.70895812e-02 -2.36146525e-01 -4.02962863e-02 -2.73687020e-02 1.26770965e-03 1.10872611e-01 -2.74089985e-02 1.00027062e-02 -1.81386787e-02 -4.72512208e-02 -2.34462153e-02 -6.24216162e-02 4.12314795e-02 -6.57333434e-03 -3.97141241e-02 1.19521149e-01 -2.13607270e-02 1.13168433e-02 1.24248127e-02 -2.18752269e-02 1.57321736e-01 -2.08769757e-02 3.89540493e-02 -4.18675877e-02 4.03339379e-02 7.48415813e-02 -1.95962377e-02 8.89011696e-02 -1.99801940e-02 1.45709030e-02 -2.72167493e-02 -1.89549178e-02 2.22604826e-01 -8.37727264e-02 3.74331325e-02 -2.46101506e-02 -2.99262796e-02 1.08351417e-01 3.38613777e-03 3.90774868e-02 -5.85956946e-02 1.24812722e-02 -4.89998981e-02 6.54640347e-02 -3.25724222e-02 -7.85494298e-02 -1.14012122e-01 -3.67327314e-03 2.84565799e-02 8.69965181e-02 -3.03098862e-03 -4.83853966e-02 1.89208761e-01 4.50802147e-02 1.66551657e-02 -1.22564845e-01 1.18102995e-03 2.89276242e-02 -4.83945757e-02 -2.78989170e-02 -6.45478442e-02 7.40288151e-03 -1.47843182e-01 3.68078873e-02 -1.70242369e-01 2.37360131e-02 -2.43753582e-01 3.50868739e-02 2.11010668e-02 -3.24919112e-02 -7.86119029e-02 -6.47346675e-02 -3.23899351e-02 -3.65876108e-02 1.40443549e-01 -2.32476052e-02 4.92848568e-02 -5.35216182e-02 8.73143673e-02 9.52305458e-03 -6.85363263e-02 6.81494623e-02 1.89496472e-01 1.52670443e-02 3.18453684e-02 -1.89623591e-02 -2.15974189e-02 -6.72104536e-03 7.01787099e-02 8.97437334e-02 1.17787160e-01 1.00942701e-03 -1.92844421e-02 1.06389098e-01 -6.12034835e-02 4.30775993e-02 -2.30768099e-02 6.08160347e-02 1.09870620e-02 -1.18393090e-03 8.13350901e-02 2.67235469e-02 -9.62460637e-02 7.86826238e-02 3.24599887e-03 2.90009938e-03 1.27832424e-02 2.68523227e-02 -3.78349088e-02 6.60013556e-02 2.98483782e-02 1.12069972e-01 -3.36527452e-02 -2.85427831e-02 -8.43940079e-02 6.01173267e-02 -3.98699194e-03 -1.97954550e-02 2.68378500e-02 -2.11233664e-02 1.66142985e-01 -2.43254527e-02 -7.53123984e-02 3.74204144e-02 6.62424229e-03 -2.94740498e-02 3.26197632e-02 -2.26131193e-02 5.83191738e-02 -2.99682617e-02 1.52870268e-02 -2.34862347e-03 1.33484185e-01 2.77597100e-01 -3.39051313e-03 6.10088557e-03 1.20333053e-01 -6.30173162e-02 2.25707237e-02 -3.80120650e-02 1.00586444e-01 2.48305555e-02 3.22361067e-02 -1.20289661e-02 6.38452023e-02 1.81242917e-02 4.00260352e-02 3.61319631e-02 1.21074235e-02 7.24808276e-02 3.17121074e-02 1.42802194e-01 -4.19897474e-02 6.92671984e-02 1.25096068e-02 3.13992113e-01 8.32962021e-02 6.37204424e-02 -3.37445103e-02 3.99795920e-02 3.73049378e-02 -1.42506525e-01 6.39504343e-02 -1.59070753e-02 -9.51870233e-02 -2.48565525e-02 -1.55523404e-01 -1.73836946e-03 -1.88842919e-02 3.96962054e-02 2.01009400e-02 -2.71280974e-01 -6.27604723e-02 -1.79770812e-01 6.90968931e-02 -4.46858397e-03 2.41604750e-03 5.48296608e-03 4.54380400e-02 -3.16789784e-02 5.42284064e-02 -7.43698850e-02 -8.97673815e-02 1.62418503e-02 -7.37774894e-02 6.75662160e-02 1.82080343e-02 2.47678190e-01 4.68127728e-02 -1.24715306e-02 -3.73014919e-02 6.44673733e-03 1.68736503e-02 5.20312227e-02 -8.82774033e-03 -9.41621363e-02 -8.21722075e-02 2.23284841e-01 2.99427733e-02 -1.20789744e-02 -1.83113161e-02 2.44891625e-02 4.81371861e-03 6.93946257e-02 -7.25810509e-03 -5.87170906e-02 -1.02389596e-01 5.40608056e-02 -1.16953783e-01 -3.00120693e-02 1.26312092e-01 -3.97020094e-02 -4.44778502e-02 3.06036137e-02 -9.33556110e-02 -5.80158085e-02 -4.61390279e-02 -3.45765278e-02 -1.34016111e-01 7.17269778e-02 1.74105037e-02 -3.86349857e-02 1.70847416e-01 9.29704681e-02 2.85828449e-02 -2.98231319e-02 -9.91023844e-04 -5.45065925e-02 -2.99145561e-02 4.77561355e-02 -5.05390652e-02 -5.49070314e-02 -7.98087101e-03 -1.76438764e-02 -3.71771827e-02 6.29971325e-02 -3.16619165e-02 -6.00341428e-03 7.23634521e-03 8.28320235e-02 2.57302169e-02 -3.19462195e-02 3.74581851e-02 -1.01084627e-01 1.39770597e-01 2.20680162e-02 3.34475413e-02 -8.98714215e-02 -1.05709881e-01 -5.61510883e-02 6.71555698e-02 -6.35739835e-03 -1.17504885e-02 -9.44234505e-02 -2.26088353e-02 2.54597720e-02 -1.20588681e-02 -3.76871787e-02 1.20281778e-01 7.22784176e-02 4.49074991e-03 3.34980451e-02 3.55661176e-02 4.16626334e-02 1.25621483e-01 -4.32609245e-02 -5.03209680e-02 -3.58005017e-02 -2.03416664e-02 3.06665637e-02 -2.85806786e-02 7.50536099e-02 -4.93477471e-02 -8.63529369e-03 1.40529886e-01 -2.43482232e-01 -1.40057057e-01 6.10725656e-02 4.29199226e-02 4.85749990e-02 -3.77011311e-04 -9.98027530e-03 -1.52805550e-02 3.19163166e-02 1.79491490e-02 -7.60943070e-02 9.47234854e-02 1.51671935e-02 2.34270059e-02 -7.90706053e-02 1.28444150e-01 1.59539375e-02 4.98680165e-03 1.54395308e-02 -2.66917516e-02 1.52036753e-02 -4.46372144e-02 -1.58277884e-01 -6.60700426e-02 -1.11578070e-02 -5.40405922e-02 8.88901204e-03 2.98167989e-02 1.09037408e-03 1.65978763e-02 1.62916914e-01 3.89206968e-02 5.55315912e-02 1.01445254e-03 9.14313719e-02 4.56367843e-02 6.80264086e-02 2.77212635e-03 -1.32295027e-01 2.62636021e-02 -1.35452691e-02 -7.17105418e-02 -1.29237501e-02 -1.25861555e-01 -1.60665903e-02 -1.13851931e-02 3.42471674e-02 3.04353293e-02 1.60371084e-02 -1.63331911e-01 3.84962894e-02 -1.09390594e-01 -1.97295398e-02 -8.71381685e-02 4.06472059e-03 -5.89383617e-02 -7.85557255e-02 2.73747176e-01 -2.36165896e-02 4.67918254e-03 5.20317033e-02 -6.20439053e-02 -4.56869230e-02 -3.07624005e-02 1.23789042e-01 6.82125753e-03 2.26729304e-01 -2.11585071e-02 5.88813871e-02 -9.16208476e-02 -3.25041637e-02 1.24348789e-01 -3.27458940e-02 -2.78072692e-02 1.28571704e-01 1.94783993e-02 5.45979403e-02 4.45665754e-02 3.57271470e-02 1.53013617e-02 1.08184993e-01 -8.99553881e-04 -1.13622732e-01 2.71479547e-01 4.97399941e-02 1.31230414e-01 -3.25053334e-02 4.94987033e-02 -1.93888023e-02 1.44707281e-02 3.13034356e-02 1.94439050e-02 -4.54244800e-02 -8.14187750e-02 3.13490108e-02 -3.48407812e-02 5.67483827e-02 1.90527171e-01 -2.02756673e-02 -1.01570353e-01 -3.05527672e-02 -2.38523364e-01 -5.84059730e-02 1.43234059e-01 4.68104035e-02 2.76001878e-02 3.94869335e-02 -2.82983761e-02 2.14869708e-01 2.08745152e-02 3.54152396e-02 -5.30786254e-02 8.75191763e-02 1.33154929e-01 6.07450195e-02 1.49340257e-01 -2.14425530e-02 -4.48465385e-02 -8.61330852e-02 -1.71173830e-02 5.90555137e-03 3.58127872e-03 1.66457277e-02 5.08871563e-02 3.51091959e-02 1.16318779e-03 -1.22703835e-02 7.10043125e-03 -9.54981074e-02 -1.09281559e-02 2.74659917e-02 1.69701174e-01 -4.27246429e-02 4.85178754e-02 -4.10165958e-04 -3.24145481e-02 -1.28820449e-01 -3.79685909e-02 -1.79924313e-02 5.32823689e-02 -3.49358059e-02 4.50069495e-02 9.83573124e-03 -4.05297801e-02 2.35631634e-02 -5.62106669e-02 -1.40986085e-01 7.67230242e-03 -1.35393485e-01 1.01361819e-01 7.02672824e-02 -4.55301255e-02 -1.56365745e-02 -1.11079821e-02 -9.67279673e-02 -4.64981645e-02 4.95784432e-02 -8.34584702e-03 -1.40570104e-01 -8.14383104e-02 5.96135743e-02 -1.87355980e-01 -9.00900885e-02 -5.28865233e-02 1.13999136e-01 4.25324477e-02 1.44263953e-01 6.01564683e-02 8.44152495e-02 1.41012236e-01 2.50588451e-02 1.02323711e-01 -6.26380742e-02 -6.12881333e-02 -1.17716417e-02 1.29147172e-01 -6.84593543e-02 -1.52478209e-02 -6.91128746e-02 -5.37548102e-02 4.78625819e-02 2.19946444e-01 2.31532250e-02 -8.25531185e-02 -8.90286416e-02 5.25995120e-02 -4.47953865e-02 6.69983551e-02 -2.06843368e-03 9.95358080e-03 -2.27832776e-02 -2.96487123e-01 6.82358295e-02 -2.12604906e-02 -3.43114398e-02 2.67574123e-05 -8.24914426e-02 6.16675802e-02 1.14743076e-02 -1.78639423e-02 2.13825971e-01 1.15071917e-02 -5.65021597e-02 -3.67988497e-02 4.47935946e-02 -9.23026919e-01 1.10750712e-01 4.20394354e-02 -4.51289155e-02 -1.21069991e-03 2.91526802e-02 -9.58768427e-02 4.11061905e-02 4.61479276e-02 2.22382501e-01 2.56996863e-02 1.12663396e-02 1.94486394e-03 -1.20590907e-03 3.65778431e-02 1.15944587e-01 -5.12978211e-02 -4.94725741e-02 2.84585916e-02 7.94683769e-02 5.93431480e-02 -2.28412412e-02 -1.31437173e-02 5.68803139e-02 -5.08453287e-02 -1.10952459e-01 -3.21447826e-03 1.06271803e-02 -5.59584610e-02 1.21300794e-01 9.56864730e-02 -7.88123161e-02 3.03081181e-02 6.38138056e-02 -8.95826519e-02 1.86055183e-01 8.15201402e-02 7.75121301e-02 -2.07691580e-01 1.09423526e-01 1.26317963e-01 -3.82134356e-02 -2.06749775e-02 4.32863249e-04 -9.24626291e-02 1.11880980e-01 -1.21244108e-02 -4.25226688e-02 2.00865809e-02 8.43639858e-03 -1.13823339e-01 1.85047891e-02 2.37352904e-02 -1.87806133e-02 -1.57253221e-01 -1.05854705e-01 3.02763525e-02 -1.71201732e-02 -1.39382526e-01 -4.82526720e-02 2.81317443e-01 -7.31491391e-03 9.93912444e-02 1.36507511e-01 -6.44451082e-02 -8.61242265e-02 -2.47537531e-02 -1.83855724e-02 9.60955396e-02 1.84671745e-01 8.42070282e-02 -9.39765349e-02 8.68271515e-02 1.05324030e-01 -3.93769471e-03 8.91401172e-02 1.24826193e-01 -1.03581268e-02 7.48033226e-02 -3.38432454e-02 -1.10273100e-01 -4.32290249e-02 -1.10424951e-01 3.30790207e-02 1.30505534e-02 1.14156948e-02 -1.58225317e-02 2.55712867e-02 -2.00329963e-02 2.02650744e-02 7.57171884e-02 -3.34220827e-02 -3.65235507e-02 -1.17767245e-01 -8.46518427e-02 -4.39437367e-02 -3.15892510e-02 -7.33639449e-02 7.32072145e-02 1.41152963e-01 -5.04274592e-02 7.06668422e-02 3.41712013e-02 1.39775977e-01 5.27660325e-02 1.66437268e-01 1.94317028e-01 1.86658967e-02 1.07722171e-01 6.68477640e-02 -2.32363865e-03 -1.27597794e-01 5.88242672e-02 6.19542226e-02 1.98975503e-02 -1.30208330e-02 5.75159118e-02 -2.51104683e-01 -1.07210174e-01 -2.77139191e-02 -2.99517959e-02 -1.72716205e-03 -7.12066889e-02 -2.45741233e-02 6.41244575e-02 9.29822475e-02 -1.74352109e-01 3.47952545e-02 -2.75123795e-03 5.71293905e-02 2.11470425e-01 2.65299343e-03 2.30062157e-02 4.70318161e-02 7.54816607e-02 -3.89591306e-02 -2.41730399e-02 1.19865879e-01 4.09683809e-02 -1.50877610e-01 1.70874923e-01 -6.36925474e-02 1.03628360e-01 -4.84560393e-02 3.69223654e-02 -8.12052116e-02 1.32273436e-01 -3.40943784e-02 8.51441582e-04 -3.06382552e-02 -1.02453887e-01 -2.45469948e-03 -2.30291928e-03 -2.00767089e-02 4.41263951e-02 -3.70565914e-02 -1.35784345e-02 7.44388103e-02 -4.41208221e-02 -1.35442466e-02 -4.87623438e-02 -3.04887872e-02 -4.67388742e-02 1.34200141e-01 -3.80020365e-02 2.58889142e-02 2.91727297e-02 -2.56092325e-02 9.32410508e-02 -4.11473541e-03 9.98797361e-03 2.08968326e-01 -4.02755402e-02 6.28796592e-02 8.14047679e-02 -3.83429676e-02 2.53475364e-03 -3.18522364e-01 7.31030032e-02 -5.59241213e-02 1.43705592e-01 3.26674208e-02 -1.16985291e-02 -1.31927971e-02 -3.33327800e-02 4.58831191e-02 -1.86840426e-02 -2.65122131e-02 -8.57782364e-01 1.41834253e-02 -4.69995886e-02 -1.48330033e-01 -2.13426054e-02 8.68448392e-02 1.68716118e-01 5.43440841e-02 7.53626646e-03 1.01751179e-01 -7.10040405e-02 -4.05806825e-02 2.61923503e-02 1.29034510e-02 -6.25438914e-02 -5.95588684e-02 -2.80778445e-02 5.24011329e-02 -6.47327024e-03 -5.47384173e-02 8.20669234e-02 1.35701029e-02 1.04637938e-02 -3.76570150e-02 4.66164500e-02 2.99266819e-02 7.98503496e-03 -2.46089939e-02 1.09571338e-01 -4.53975163e-02 2.63918173e-02 8.77637416e-03 -9.32575315e-02 8.63295346e-02 -5.06041851e-03 -4.53498252e-02 -1.09992556e-01 9.11898240e-02 3.48656019e-03 3.13620605e-02 -3.98974493e-02 1.02920547e-01 6.77149221e-02 -9.53102205e-03 -2.15975530e-02 -8.09321739e-03 -1.25895843e-01 -1.42654240e-01 7.96434656e-02 4.86272462e-02 -1.98970791e-02 -8.31719041e-02 -6.15562079e-03 7.16723967e-04 -7.06538558e-02 7.49766231e-02 3.71730700e-02 -4.74083833e-02 1.01829000e-01 3.37663032e-02 6.54964615e-03 -8.00344199e-02 1.32396415e-01 -6.37226850e-02 -1.29402593e-01 -3.97926383e-02 -1.04363915e-02 -3.49837393e-02 1.93043277e-02 -1.08226491e-02 -9.99434292e-02 -2.45493371e-02 1.50633287e-02 -7.88019598e-03 5.47753088e-03 -1.28121212e-01 -5.21870777e-02 -4.74055298e-02 -2.86625326e-01 3.46034393e-03 -8.52377445e-04 1.83658794e-01 -6.45255074e-02 1.25372231e-01 -4.62279795e-03 3.93067710e-02 -5.16360514e-02 -7.29760528e-02 6.28719479e-02 1.59603909e-01 -2.79806610e-02 1.37203103e-02 -3.57559435e-02 8.04264769e-02 2.93621980e-02 -2.72679329e-03 -1.90587804e-01 4.18945588e-03 3.89990099e-02 -5.99779375e-03 2.63591912e-02 4.25399616e-02 -2.10908358e-03 -2.35804357e-03 -3.08896918e-02 -1.79629251e-01 -7.29039311e-02 3.10081523e-02 2.67098937e-02 5.34599535e-02 -5.43708652e-02 7.96931982e-02 -6.23184517e-02 5.76311089e-02 5.64036630e-02 1.05354503e-01 1.50640011e-01 2.42419943e-01 7.30458349e-02 -1.39401138e-01 -4.53586839e-02 3.77537347e-02 -1.64614059e-02 5.46349585e-02 3.49686109e-02 1.29065374e-02 -4.00111340e-02 9.06288475e-02 -5.37932292e-02 -9.22123566e-02 -5.36725298e-02 -8.63476992e-02 -9.03999526e-03 1.09808356e-01 1.02871165e-01 1.08771212e-01 1.20828584e-01 -4.98827025e-02 1.74418539e-02 8.75566993e-03 4.34378982e-02 3.59366804e-01 8.60659312e-03 8.43179524e-02 5.54770380e-02 7.18694925e-03 -7.34879449e-02 -1.40778318e-01 -1.44891843e-01 3.64552401e-02 -5.36324643e-02 6.26737699e-02 -2.43225805e-02 7.34420419e-02 -1.07640205e-02 1.25348032e-03 -4.23911074e-03 2.99829189e-02 1.49562489e-02 1.11341037e-01 5.68423271e-02 -2.50010006e-03 6.61466131e-03 -3.91199708e-01 6.44652620e-02 -1.12388551e-01 3.31354421e-03 -1.21168025e-01 3.37292627e-02 1.37290647e-02 2.06324402e-02 -3.94078083e-02 -4.22139496e-01 -1.96891576e-02 1.01429403e-01 1.86531252e-04 2.25007311e-02 -1.44521967e-02 -1.56731352e-01 -2.74514826e-03 7.35020265e-02 1.95135158e-02 -9.22841020e-03 3.13860737e-02 1.88582968e-02 2.17188150e-02 -6.45326972e-02 3.89355496e-02 -5.04225343e-02 4.99370769e-02 5.49260117e-02 -1.13191478e-01 -1.85482055e-02 -8.78672749e-02 2.88264360e-02 6.07207678e-02 2.75756344e-02 -4.63886783e-02 -2.05917694e-02 -1.27769724e-01 -1.66412722e-02 -1.37878627e-01 -1.16776869e-01 -1.69451199e-02 1.60755813e-02 7.06226230e-01 1.03957273e-01 -7.10047856e-02 -5.44144437e-02 9.77503974e-03 -4.18330841e-02 -6.96120188e-02 -3.62941831e-01 -3.88239399e-02 -7.48069212e-02 8.64976738e-03 3.21386755e-03 -7.87528753e-02 1.77462511e-02 -1.25468457e-02 3.21027748e-02 4.24822159e-02 2.88374964e-02 1.09252129e-02 1.93695631e-03 2.22601439e-03 -1.80656523e-01 -1.63342431e-02 3.18007693e-02 1.24539159e-01 1.32428542e-01 6.95264572e-03 1.20559679e-02 -3.59208174e-02 5.89636676e-02 3.34543735e-02 2.97345743e-02 4.94824201e-02 1.16716765e-01 -9.76092741e-03 -6.58735260e-02 9.15010273e-02 -7.26913139e-02 2.12647114e-02 -1.65705368e-01 -8.18676203e-02 5.25655635e-02 1.03133373e-01 -4.11542542e-02 -3.81382555e-02 -4.56745476e-02 -2.06146184e-02 -7.04091340e-02 -6.32713214e-02 9.83323380e-02 -1.33912161e-01 6.75050914e-02 1.37113091e-02 7.76498346e-03 -3.70455198e-02 8.99962708e-02 -3.19843851e-02 -6.82439581e-02 -2.01224256e-02 -3.92055213e-02 1.92963779e-02 4.68441024e-02 1.90401617e-02 1.00101680e-01 6.80427775e-02 3.20840767e-03 2.54924651e-02 1.10090584e-01 1.41937863e-02 -2.32261084e-02 4.63122651e-02 -1.43090785e-01 -7.18237609e-02 -2.46566534e-02 1.54938638e-01 -1.47858039e-02 -4.12919857e-02 4.58938107e-02 -2.79926453e-02 1.85759082e-01 -4.99754287e-02 5.33718169e-02 -3.55346203e-02 -1.93618480e-02 -3.61880548e-02 -7.80209675e-02 1.00697808e-01 -3.05043394e-03 -7.76390061e-02 7.14034885e-02 1.25220999e-01 -2.54722871e-02 -8.49395152e-03 4.78855744e-02 -9.38829854e-02 -9.35958549e-02 1.84743758e-02 -2.63347477e-02 4.87199426e-02 -5.33857524e-01 -1.81707798e-03 -2.32207384e-02 -9.13150683e-02 -1.21669643e-01 -4.65097651e-03 6.49244152e-03 6.18430413e-02 1.10455245e-01 -1.54690705e-02 -8.82875249e-02 4.90534343e-02 2.30035260e-02 -1.24364793e-01 -1.31111041e-01 8.98991004e-02 -3.72595750e-02 3.14969718e-02 -1.57487839e-02 -1.31275356e-01 2.16067787e-02 1.45423990e-02 5.73787689e-02 2.67148484e-02 6.21729307e-02 9.67676416e-02 -8.40863809e-02 9.10913572e-03 -2.44315878e-01 3.96417342e-02 4.44355235e-02 -1.62774436e-02 -6.87361583e-02 -4.29225564e-02 4.00427990e-02 -3.51703987e-02 4.81638126e-02 -2.09338918e-01 5.18864468e-02 3.79954502e-02 7.19503462e-02 1.76628698e-02 1.12132579e-01 1.28241897e-01 -1.11884408e-01 2.05369457e-03 -3.24946456e-02 -7.00557604e-02 -8.53628740e-02 -1.43273519e-02 9.81754810e-02 4.81614582e-02 -7.63959959e-02 2.71461736e-02 -4.20054309e-02 -3.95431593e-02 -4.62675244e-02 3.21171619e-03 -1.23312622e-02 -4.28633653e-02 -6.29047304e-03 -4.14842553e-02 7.71187292e-03 -1.30930156e-01 2.63665140e-01 2.18489408e-01 -7.70704029e-03 -6.80897236e-02 6.44263104e-02 5.77818323e-03 -1.05856508e-01 -4.29451726e-02 6.52676150e-02 3.18673216e-02 -3.11229043e-02 1.93287036e-03 2.09451478e-04 5.87225333e-03 -4.15703058e-02 7.00962171e-02 1.44802704e-01 -7.40459710e-02 -7.84053579e-02 -5.59010766e-02 1.89061724e-02 -3.82448323e-02 5.16547589e-03 5.81723303e-02 2.00852364e-01 -9.55127105e-02 1.19334273e-01 -2.04083733e-02 -1.82240456e-01 5.50811440e-02 -4.51915562e-02 -8.56544524e-02 -3.24807689e-02 1.03302419e-01 -6.95483666e-03 6.75398111e-02 7.87905455e-02 3.31662968e-02 9.50344186e-03 -8.41150433e-03 3.40262614e-02 6.83273897e-02 -1.63006470e-01 -8.96975864e-03 1.31368846e-01 -6.10008799e-02 -8.43464732e-02 1.87072139e-02 4.91719581e-02 1.84053615e-01 2.59852074e-02 -1.01518705e-02 1.87937394e-01 1.52867436e-02 4.01552320e-02 -2.33815107e-02 -6.66232184e-02 2.27897957e-01 -9.66979489e-02 -1.80547871e-02 7.35763535e-02 5.23151718e-02 -5.96765010e-03 4.05272767e-02 1.30125254e-01 -7.43655954e-03 3.41516063e-02 1.07418895e-01 3.39835882e-02 -2.70797648e-02 -9.32898372e-02 -2.22906959e-03 9.46735814e-02 -6.72008321e-02 -4.87272255e-02 1.05939647e-02 -5.37894592e-02 6.25145854e-03 -6.78379089e-02 -1.56161696e-01 2.36820400e-01 6.61321059e-02 -3.09496969e-02 1.01166377e-02 -2.20762156e-02 -9.63249356e-02 -3.80494483e-02 6.49403501e-03 3.65025550e-02 3.33757810e-02 -7.74423257e-02 7.14514256e-02 -6.90013170e-02 -1.04671866e-01 9.27275885e-03 -4.55137789e-02 -1.03366682e-02 -3.02139688e-02 3.61938514e-02 1.17994789e-02 -5.33933528e-02 2.43930593e-02 -1.53198205e-02 2.58144550e-02 -8.27468336e-02 2.14548349e-01 1.72676593e-02 4.13837517e-03 5.22032045e-02 2.50305049e-02 -7.85844401e-02 3.48502174e-02 3.39314751e-02 1.23313971e-01 9.61241797e-02 -7.71564767e-02 -9.52890143e-03 -5.58485053e-02 -6.09699860e-02 1.03850663e-01 1.50544867e-02 -6.71937317e-02 1.34217054e-01 -3.90906408e-02 8.72800779e-03 -8.35572556e-02 -9.34664458e-02 5.99499885e-03 2.14475289e-01 -1.97733170e-03 -4.16114070e-02 -5.09204529e-02 8.30578059e-02 -2.07469985e-01 -3.50749642e-02 -4.19902839e-02 3.50722186e-02 -5.56287542e-02 -1.60045940e-02 -3.33157144e-02 -1.37672156e-01 -3.89657542e-02 -9.35502257e-03 -3.19355093e-02 3.81748863e-02 -1.08241938e-01 -1.61450028e-01 2.51696631e-02 8.16924963e-03 -8.01631659e-02 5.40747587e-03 -1.44140288e-01 -4.58741225e-02 3.02051920e-02 -5.52719757e-02 1.63315877e-01 -2.02533334e-01 2.79678162e-02 2.24385560e-02 1.62845030e-02 -2.11319160e-02 1.65449418e-02 -6.37472421e-02 -3.31072062e-02 4.31297198e-02 -2.12096665e-02 -1.47949485e-02 -1.53055057e-01 2.88692284e-02 -2.03293711e-01 1.46762887e-02 -1.11936731e-02 2.88328547e-02 -8.18570107e-02 -4.00396101e-02 7.20775872e-02 -2.47131623e-02 -1.34847695e-02 7.65164495e-02 8.45408626e-03 1.55075639e-01 1.46858037e-01 -4.43822518e-03 -2.42732894e-02 1.32820336e-02 7.08560124e-02 -1.60752162e-01 -2.18506251e-02 -7.71486480e-03 -1.03203423e-01 -1.32346064e-01 1.23228848e-01 -1.44537713e-03 1.21792257e-01 -6.47366121e-02 -3.31345797e-02 -6.37735426e-03 7.77485669e-02 2.75460165e-02 -4.71621342e-02 -5.89206107e-02 -4.95959111e-02 -1.25188269e-02 2.67749932e-02 -1.99586883e-01 -4.29437160e-02 1.52225746e-02 -1.03110537e-01 1.25266230e-02 8.16757157e-02 -5.14871925e-02 7.03287916e-03 2.02059112e-02 3.45900878e-02 1.72794998e-01 1.65537558e-02 3.88793275e-02 -2.27017477e-01 -8.13472569e-02 -3.83149721e-02 4.33337204e-02 -1.10518232e-01 -1.02368981e-01 3.17272916e-02 -4.17926796e-02 -1.53762903e-02 6.96421117e-02 -5.81802875e-02 -5.10497317e-02 -9.92865711e-02 -2.72706710e-02 -1.02409208e-03 1.69258952e-01 3.29905488e-02 -2.22219452e-02 3.13912146e-02 -8.83632898e-02 -5.49207091e-01 3.76763679e-02 -2.68444903e-02 -3.31630558e-03 2.72377264e-02 1.14044823e-01 4.97374758e-02 -3.08596548e-02 -2.92909723e-02 -5.59787685e-03 -1.57108530e-01 4.16420996e-02 -8.83159861e-02 -1.08374115e-02 8.00392777e-02 -1.72985140e-02 -3.84900346e-02 -1.91714793e-01 5.10668866e-02 -6.26242012e-02 4.74638604e-02 5.32492204e-03 -9.30404291e-02 -7.80278072e-02 -5.90332747e-02 -5.05054928e-02 8.85150731e-02 -2.90964264e-02 -9.19354905e-04 -4.00810800e-02 -4.94538061e-02 -9.92021523e-03 8.65895972e-02 7.08558485e-02 -2.16821441e-03 1.45238023e-02 4.03071241e-03 -4.95924912e-02 7.98481330e-02 -1.16026709e-02 4.81432937e-02 -7.76345730e-02 -1.93759501e-02 1.36397015e-02 -1.70416851e-02 -1.37395263e-01 5.87342568e-02 4.41958457e-02 -3.64980102e-02 -2.17681620e-02 6.94962516e-02 -4.46770340e-02 -8.25365260e-02 -8.69602617e-03 6.03094837e-03 6.34923205e-02 -3.71187888e-02 -1.24874033e-01 1.81450776e-03 7.16994554e-02 4.93053272e-02 -1.92675943e-04 -8.63260590e-03 -9.22205374e-02 -3.29768695e-02 7.53400251e-02 -2.20933817e-02 4.97319251e-02 -4.03429866e-02 -1.57851186e-02 -1.47019178e-01 4.08592932e-02 -3.06050815e-02 9.33212228e-03 -5.11685200e-02 -1.15213385e-02 1.44396707e-01 1.77401569e-04 3.13643627e-02 -2.40107868e-02 -7.15424446e-03 8.99404637e-04 -1.26462122e-02 -2.49562357e-02 1.77458748e-01 -1.17125884e-01 -1.08230729e-02 1.28466100e-01 -1.66800749e-02 2.09540036e-02 -2.63843872e-02 7.98683316e-02 5.00105768e-02 1.39113948e-01 3.98023427e-02 -5.27811609e-02 7.74758449e-03 4.18821685e-02 -1.32639915e-01 -1.42722249e-01 -3.51498398e-04 2.44872794e-02 4.75699687e-03 1.37084833e-04 -8.83210152e-02 8.90482068e-02 1.75866485e-02 6.56556487e-02 -3.09805982e-02 -7.12539162e-03 -2.55441107e-02 7.79862553e-02 -9.85288993e-02 -3.43409516e-02 -8.54423344e-02 2.68223807e-02 2.11627278e-02 -2.57636756e-02 -6.66795000e-02 -6.58079097e-03 -1.80999469e-02 7.92587876e-01 2.02865638e-02 -1.95835605e-02 -4.10838285e-03 2.52651051e-03 1.25291757e-02 8.18664193e-01 2.14899275e-02 -9.55737457e-02 -1.23089790e-01 -1.64231241e-01 9.25506745e-03 7.11212680e-02 7.83323795e-02 -1.30785462e-02 6.73103109e-02 2.66483158e-01 -3.93047668e-02 9.59869251e-02 -5.97348511e-02 -2.30049714e-01 5.88988652e-03 -5.88228134e-03 7.97435120e-02 7.24499626e-03 -3.73973809e-02 4.22930829e-02 -2.05873307e-02 -3.28290723e-02 5.05618416e-02 -1.45429885e-02 -4.99152113e-03 -6.06330261e-02 -4.09421325e-02 2.76565365e-02 -7.32759312e-02 -1.03795759e-01 -1.43919393e-01 2.12832801e-02 -2.23824009e-02 -6.60659224e-02 -9.38295498e-02 -3.88522334e-02 -1.26056178e-02 5.98528013e-02 -2.42830049e-02 -5.62123628e-03 -2.26176139e-02 -5.12285419e-02 -7.33815273e-03 1.31882027e-01 9.20658559e-03 -1.16854534e-02 -2.42567472e-02 1.72980744e-02 -8.16660672e-02 3.71067529e-03 1.29798576e-01 -6.03356920e-02 1.48978680e-01 -1.08451210e-03 -6.28211573e-02 5.24196401e-02 -1.28147736e-01 9.59470943e-02 6.78345039e-02 -3.38978693e-02 -6.54355995e-03 -1.72192156e-02 2.55448818e-02 -3.25387791e-02 2.50548474e-03 5.60006872e-02 -3.22915874e-02 -3.59116197e-01 -4.52876789e-03 -4.42948118e-02 -3.19574680e-03 -1.37500823e-01 6.43237215e-03 -3.38547751e-02 6.47087917e-02 3.14768180e-02 -9.66121778e-02 2.04012580e-02 1.98460054e-02 -5.74683324e-02 3.11224665e-02 1.50177166e-01 5.77467941e-02 6.76954091e-02 -5.78164309e-02 1.23238124e-01 2.12485846e-02 7.40466118e-02 -2.83311326e-02 -6.75236881e-02 -1.06285736e-01 -2.46596951e-02 -4.51119319e-02 2.50550974e-02 -6.03768462e-03 9.86014828e-02 -2.54850239e-02 8.38816538e-02 2.44720653e-02 1.46002825e-02 -4.13286649e-02 1.00454085e-01 1.92576610e-02 3.56922671e-02 -7.85556436e-02 6.47172555e-02 5.05387411e-03 -3.97806875e-02 -2.06336789e-02 -5.19400984e-02 -3.99479903e-02 -5.44745140e-02 -7.08362879e-03 -6.76204488e-02 -1.48139805e-01 1.02070840e-02 2.26545259e-02 8.97000134e-02 3.35894972e-02 -6.86341673e-02 9.23116226e-03 -2.81867348e-02 -3.48393977e-01 -3.39316875e-02 -1.34181753e-02 1.67116895e-02 -2.26569213e-02 2.77731866e-02 5.14180176e-02 -5.38626406e-03 -1.57843642e-02 3.26180272e-02 5.11274412e-02 -8.87950510e-02 -1.54405236e-02 -1.38477357e-02 1.13632619e-01 -1.35048693e-02 -1.38500901e-02 -4.77976538e-02 1.35591730e-01 1.94995254e-01 -2.47467402e-02 2.70064864e-02 1.17367161e-02 -2.44594850e-02 2.28530243e-02 3.49795930e-02 7.38797933e-02 8.32230002e-02 -4.92738895e-02 -5.08792326e-02 -3.44088078e-02 -7.58293718e-02 1.64157823e-02 -1.61743388e-01 -3.66666354e-02 -1.48052601e-02 -1.06675252e-01 -8.84445012e-02 3.03167198e-02 -9.96601069e-04 1.07519133e-02 -6.08933866e-02 -1.45397410e-02 7.01572150e-02 8.93949866e-02 -2.43339196e-01 1.07432446e-02 -4.43715230e-02 1.57766700e-01 -1.56315174e-02 -1.25545338e-01 -2.23171338e-02 7.80373365e-02 -1.56865418e-02 -2.34326273e-02 1.15925828e-02 4.95163500e-02 -2.14193109e-02 4.98906411e-02 4.21612822e-02 3.44518460e-02 9.47215110e-02 3.09917945e-02 -4.89977077e-02 -3.42126557e-04 -3.66086699e-03 -5.00071533e-02 -5.88251762e-02 -1.60508931e-01 -5.81180677e-02 -2.60294750e-02 -6.07467443e-02 -1.94626059e-02 6.38069957e-02 1.89131014e-02 -3.30787897e-03 3.79200429e-01 9.17197540e-02 -6.44796491e-02 2.03218739e-02 -7.23404512e-02 2.17261203e-02 6.56704307e-02 5.30838929e-02 -3.47693004e-02 5.14048487e-02 1.68549925e-01 8.79237577e-02 1.85244549e-02 6.13761228e-03 -2.75469199e-02 -6.58484474e-02 -1.01249859e-01 -1.66090131e-02 6.87195826e-03 -1.79713294e-02 7.90031720e-03 9.09615457e-02 -1.19770281e-02 -4.61826250e-02 -4.77753766e-02 3.37129049e-02 -1.33053079e-01 -9.81493592e-02 -1.78738777e-02 -2.14337762e-02 4.50766496e-02 -6.13857480e-03 -3.63309011e-02 2.70592142e-02 -6.47589937e-02 -7.30013773e-02 -4.20931131e-02 5.75714931e-02 7.26844519e-02 2.51513451e-01 -4.90542408e-03 3.55244242e-02 1.31110223e-02 1.40836257e-02 -3.82849760e-02 -4.68950756e-02 -7.47959018e-02 -4.40123565e-02 -2.36696780e-01 5.88428713e-02 -3.31900045e-02 2.23696996e-02 3.61292623e-03 1.96700115e-02 -5.97718032e-03 -1.15569450e-01 -6.57037199e-02 -8.87119919e-02 -3.27351652e-02 -6.74447184e-03 2.28861086e-02 -1.19760297e-02 -1.44823164e-01 -1.49798408e-01 1.39859002e-02 -5.33712804e-02 -9.64370146e-02 -3.72193046e-02 3.88218500e-02 -1.72993764e-01 -2.98095435e-01 -1.27189942e-02 -1.21322530e-03 1.53443158e-01 3.22813243e-02 3.98524292e-02 9.47696641e-02 1.09254897e-01 -3.22409756e-02 3.11584026e-02 -3.76360789e-02 -7.96501637e-02 -1.11757638e-02 -5.84505573e-02 -2.13681217e-02 1.62379667e-02 1.55281037e-01 -1.69409011e-02 7.85203278e-02 3.68632302e-02 8.56042728e-02 2.65492667e-02 -1.48186907e-01 2.12336466e-01 -8.55194777e-02 9.84903425e-03 -4.69991565e-02 1.08728828e-02 3.30400933e-03 1.82528257e-01 -8.48393142e-02 1.90929156e-02 6.97267503e-02 -2.16788352e-01 5.83734876e-03 -6.01890609e-02 5.09551875e-02 4.33885641e-02 1.76747683e-02 1.38382958e-02 1.63834989e-01 -4.33415174e-02 -3.66138853e-02 -6.32733339e-04 4.38953452e-02 1.06825531e-01 -2.71309111e-02 -6.86764568e-02 4.20687385e-02 8.75331461e-02 -4.42497246e-03 -5.67838475e-02 -1.53046414e-01 -4.34325077e-02 -2.16270816e-02 5.92641681e-02 -1.78496877e-03 -6.00371137e-02 -1.46015557e-02 -4.50087190e-02 5.41671365e-02 5.91183491e-02 -5.31118847e-02 7.57664666e-02 6.32151514e-02 9.15266573e-02 8.12269151e-02 -3.55313197e-02 5.26642464e-02 2.04125582e-03 -1.14884563e-01 -2.11099703e-02 1.79781079e-01 8.54383484e-02 -4.88269106e-02 1.20781977e-02 3.86007577e-02 4.74872030e-02 -9.19450149e-02 1.47935897e-02 7.96196014e-02 9.70182940e-02 -2.03500371e-02 -2.06802506e-02 3.01618166e-02 7.86509216e-02 1.93265937e-02 5.04783466e-02 2.09184036e-01 1.54602051e-01 -2.76700985e-02 -2.91837808e-02 -7.23833358e-03 -3.24598365e-02 -8.38646591e-02 -6.27775444e-03 -1.07073955e-01 -2.22586859e-02 -4.59238105e-02 -1.21934498e-02 -2.11215019e-02 -3.04102129e-03 -8.26072022e-02 -2.05795392e-02 1.58490688e-02 -2.56627984e-03 -1.98511690e-01 6.51318068e-03 -4.93825115e-02 -1.07046872e-01 -4.78491187e-03 1.25590805e-02 -2.66738180e-02 -3.98914255e-02 1.29307851e-01 -1.01955466e-01 1.57063976e-02 1.79758817e-01 -1.22320920e-01 -1.00378565e-01 1.22920284e-02 1.46910563e-01 1.19332084e-02 4.98655625e-02 9.75946151e-03 -9.09645855e-02 -3.52055207e-02 -6.32924307e-03 -8.73808712e-02 2.91678488e-01 8.30299333e-02 1.68225408e-01 4.81834300e-02 -3.05549234e-01 3.92821133e-02 4.03903536e-02 1.00433372e-01 -5.61879314e-02 -4.04749140e-02 -4.39568656e-03 -3.05984560e-02 1.13297500e-01 7.14457855e-02 -1.67268626e-02 4.57646558e-03 4.96740751e-02 -1.99062582e-02 -2.22907364e-02 4.17780988e-02 -4.37017418e-02 1.77275222e-02 -2.80642025e-02 1.16395988e-02 -3.49893942e-02 -5.98112606e-02 4.51533683e-02 4.64694649e-02 6.37975475e-03 5.14831021e-02 2.13969443e-02 1.28277808e-01 4.77423985e-03 5.18553816e-02 1.33901518e-02 -1.85137480e-01 -2.14696303e-02 -4.91191000e-02 7.58937299e-02 -2.24253279e-04 -8.19307119e-02 -1.47136301e-01 -1.20574245e-02 1.15159690e-01 -2.32640162e-01 -5.66878654e-02 -4.05900061e-01 -5.77215222e-04 -2.29337458e-02 3.16944830e-02 -9.53033417e-02 1.74965471e-01 6.46447986e-02 -3.65059488e-02 -9.68663022e-03 3.86614688e-02 7.81631991e-02 1.42555609e-01 -3.59203890e-02 -6.23581419e-03 -3.68976742e-02 4.19890285e-02 1.29935160e-01 4.90471895e-04 1.06684476e-01 -1.09612262e-02 3.21289189e-02 -2.98938788e-02 -2.46726219e-02 -1.68817639e-02 -2.50203282e-01 -3.56437750e-02 -6.18523285e-02 -9.07003414e-03 1.44766897e-01 8.14438984e-03 6.15439489e-02 -1.08018965e-01 2.76188888e-02 -5.03420681e-02 -3.49649526e-02 5.60301803e-02 2.17780545e-02 -1.55176502e-03 -1.11546896e-01 -9.16098827e-04 -5.51401228e-02 -5.39856777e-02 -4.66830730e-02 -7.64786229e-02 -1.94496568e-02 -1.90973971e-02 1.52040552e-02 -1.47495866e-02 5.28139882e-02 2.08127409e-01 -5.09551801e-02 -2.59779096e-02 -4.52996455e-02 9.04569477e-02 -5.76077551e-02 8.19655061e-02 -1.69588234e-02 2.75053247e-03 1.40261706e-02 -4.76337783e-02 -1.08369552e-01 -4.16799933e-02 1.47710681e-01 5.85352704e-02 -4.20356579e-02 -3.85571942e-02 7.57680554e-03 -4.95314307e-05 -5.38687296e-02 -9.07126535e-03 1.30212709e-01 -1.64437462e-02 -2.72727255e-02 -7.48702651e-03 6.95108026e-02 -6.64377436e-02 -4.23641223e-03 2.73724701e-02 -3.59304510e-02 -4.42692563e-02 1.93163939e-02 -1.21732056e-01 3.56666967e-02 6.77435026e-02 -1.73274777e-03 6.47420660e-02 3.37628536e-02 -1.16398688e-02 -8.54024477e-03 -6.04180358e-02 -1.15884729e-01 1.10017762e-01 -6.98642433e-02 -1.65903717e-01 3.78456824e-02 -2.11475387e-01 -3.31406929e-02 -2.38375187e-01 -2.77931064e-01 3.65337804e-02 -1.52421454e-02 -4.19654213e-02 2.88662408e-02 -8.25207494e-03 -2.77936999e-02 -2.88424715e-02 6.07407492e-05 -8.42788517e-02 6.16986901e-02 1.85117703e-02 -7.52633512e-02 5.61219938e-02 4.34483625e-02 4.84663732e-02 -7.53217377e-03 9.26730037e-03 1.26228016e-03 8.53608549e-02 -1.61303040e-02 2.08987128e-02 1.89359840e-02 -8.99978206e-02 9.94438305e-02 -7.95405880e-02 -1.10241696e-02 -1.19871192e-01 4.40524742e-02 5.95794804e-02 3.80560637e-01 1.25918806e-01 4.25831461e-03 7.19069615e-02 -2.79263239e-02 -1.62558630e-02 -1.72794446e-01 1.33720394e-02 -1.09198466e-01 -1.99509151e-02 -2.80185193e-01 7.22869709e-02 3.83765884e-02 -3.62543985e-02 3.83143015e-02 -5.61564416e-02 -9.04465392e-02 8.86927098e-02 -9.75899175e-02 -6.12173676e-02 -5.56956865e-02 -1.05557375e-01 9.20818970e-02 2.95031480e-02 1.35693967e-01 1.76872477e-01 1.67979244e-02 -1.67267293e-01 1.46506568e-02 3.54674943e-02 1.88558474e-01 -2.59458143e-02 -4.55758311e-02 -8.45918134e-02 7.99510404e-02 6.96057081e-02 2.43641794e-01 4.49474640e-02 -6.48885891e-02 4.73938463e-03 -4.16748710e-02 -1.92922894e-02 1.02078445e-01 2.06292383e-02 7.63245821e-01 -3.86856049e-02 5.04603572e-02 1.43371327e-02 -2.03863159e-02 -1.80196185e-02 8.41494724e-02 2.96248905e-02 -8.57200846e-02 -5.46710826e-02 -4.02951315e-02 -2.44641509e-02 -3.23739722e-02 1.65218100e-01 5.70173450e-02 -8.76432806e-02 3.89070697e-02 -2.23228876e-02 -6.81721494e-02 -1.79776158e-02 -4.91545647e-02 -3.41890380e-02 -1.30839702e-02 -2.43769363e-01 -4.77683842e-02 1.12703420e-01 5.97997345e-02 -6.07374832e-02 5.59046939e-02 -1.03198050e-03 -5.12481406e-02 -3.74035835e-02 -1.79480448e-01 -1.68509305e-01 4.02305685e-02 2.07151845e-02 3.04525252e-03 -2.65516602e-02 -6.77841827e-02 -3.39962691e-02 1.89451221e-02 5.31302430e-02 -4.05242061e-03 2.01069899e-02 3.67161632e-02 3.23938504e-02 -1.04084142e-01 -2.64566373e-02 -4.29026149e-02 -7.25581869e-02 -1.09133825e-01 2.58156747e-01 9.14142728e-02 2.41664782e-01 -9.49874446e-02 -2.04092696e-01 -5.30388989e-02 2.06059217e-02 6.46796003e-02 -1.06974691e-01 -4.67125438e-02 -4.39462140e-02 -3.86892371e-02 6.04544654e-02 2.45732758e-02 7.78077394e-02 -1.48998732e-02 1.27700478e-01 2.85610631e-02 -4.81947184e-01 -2.20701750e-02 8.28500018e-02 -5.12738787e-02 1.22689590e-01 5.37753142e-02 7.89281800e-02 -7.78011456e-02 -5.51897250e-02 -1.08779289e-01 -8.01331997e-02 3.27169932e-02 2.85941996e-02 7.87056312e-02 4.33676317e-02 2.13147420e-03 2.07190782e-01 -5.61341010e-02 -5.37295304e-02 -7.60360435e-02 -1.45960391e-01 -2.16713063e-02 -9.23686028e-02 4.45087329e-02 6.38411567e-02 -2.36245971e-02 -1.39100850e-02 -3.59581038e-03 -1.22743901e-02 -3.85389291e-02 -2.74461340e-02 6.58079088e-02 1.69062056e-03 -2.03176245e-01 3.58866788e-02 -1.00590110e-01 -4.34124097e-02 4.69030619e-01 1.21703975e-01 -1.43395951e-02 -4.96245138e-02 1.00847343e-02 2.07609404e-02 -2.32389122e-02 2.52003805e-03 5.82371652e-02 -1.00166515e-01 -1.80114508e-02 2.80991405e-01 1.04349189e-01 7.25072809e-04 6.79873154e-02 -1.09313447e-02 -2.31504757e-02 1.33434728e-01 -7.14129135e-02 -7.42461309e-02 1.05446994e-01 1.71650164e-02 -6.79402351e-02 -7.54249282e-04 4.89637163e-03 2.96499841e-02 -2.21674535e-02 7.61893913e-02 2.78926864e-02 -1.38727762e-02 1.12665957e-02 1.22790374e-02 -7.97846988e-02 -2.43333541e-02 -1.72861785e-01 -6.60096183e-02 1.94405336e-02 -3.72550115e-02 1.79680903e-03 -3.94017436e-02 -3.76284905e-02 3.40250432e-02 -5.95773617e-03 -1.69621691e-01 1.41765848e-01 1.86576486e-01 3.25884856e-02 -5.72395623e-02 7.20062628e-02 4.07913439e-02 2.39719041e-02 -5.05341217e-03 -9.29960459e-02 3.33405398e-02 -5.19803092e-02 -6.33609965e-02 1.80220548e-02 -1.28379345e-01 1.01044595e-01 5.41170686e-02 1.14769451e-02 3.64301465e-02 1.07251130e-01 -4.15062644e-02 -3.54544446e-02 -3.73081453e-02 8.50342214e-02 -1.68844417e-01 4.94900206e-03 7.12236837e-02 -2.30023395e-02 1.39466792e-01 8.08013529e-02 -1.16087861e-01 -1.91998303e-01 -3.32688242e-02 4.27641980e-02 2.82844417e-02 9.04300623e-03 -1.11468107e-01 -3.12391613e-02 -9.49507765e-03 8.51066411e-01 -6.81595877e-02 -3.56344618e-02 3.91109549e-02 -9.91853233e-03 -1.00958526e-01 -2.40174741e-01 -6.59117475e-03 -2.05072705e-02 6.71287924e-02 -3.31602991e-02 -8.24600086e-03 2.72674114e-03 -9.14696231e-02 -8.56787711e-02 -5.63535243e-02 -4.38221134e-02 -4.43838462e-02 -3.71806957e-02 1.10106692e-02 -7.95802400e-02 -6.77071065e-02 -3.84794734e-02 1.32411895e-02 4.39016372e-02 6.98195100e-02 -6.70071319e-02 -4.25505750e-02 1.04529239e-01 1.70208126e-01 -2.56421473e-02 -2.99482755e-02 1.74040273e-02 -3.86114158e-02 3.56030129e-02 -6.26019016e-02 1.90546422e-03 1.39428541e-01 3.69553850e-03 -7.61885568e-02 4.51019444e-02 -1.56568978e-02 8.92966520e-03 2.59616692e-03 1.05956309e-01 -5.99852018e-02 6.81440756e-02 8.27092081e-02 6.57089576e-02 -4.11076052e-03 -2.81134304e-02 1.00819767e-01 5.04118092e-02 2.96638254e-02 4.89424653e-02 5.21092415e-02 -2.63883844e-02 4.95165884e-02 -1.49947733e-01 -1.09550729e-01 -7.96896871e-03 -5.36607653e-02 -1.05975218e-01 6.76932931e-02 5.20132035e-02 -3.12302969e-02 2.37743929e-01 7.73241669e-02 -1.03478596e-01 9.40862000e-02 3.56238693e-01 2.46977303e-02 4.82758656e-02 -3.78203318e-02 -9.40543972e-03 1.69148654e-01 -6.91028908e-02 1.21416133e-02 5.91013581e-02 1.79223213e-02 -1.86739303e-02 1.16084501e-01 2.28051804e-02 -1.26996219e-01 -4.30442356e-02 -5.13997786e-02 -1.26540929e-01 -9.78420079e-02 -5.61037026e-02 4.70760986e-02 -1.27034456e-01 -5.51773235e-02 4.54627611e-02 -3.31928134e-02 9.18251462e-03 7.57936612e-02 -1.09288767e-01 -2.70310231e-02 -7.26746023e-02 5.92958964e-02 1.03142321e-01 5.83767965e-02 5.17550893e-02 -1.58969089e-01 3.24886665e-02 1.93216596e-02 1.24089159e-02 1.08439743e-03 3.11913155e-02 1.10585373e-02 5.37037514e-02 -3.59171182e-02 2.11141985e-02 2.59959903e-02 -8.47588852e-03 -1.33068681e-01 -5.85686900e-02 -1.42557904e-01 2.44114578e-01 9.45401657e-03 1.34970859e-01 -2.14406177e-02 -4.66857590e-02 -1.40323061e-02 4.61863950e-02 1.32465102e-02 4.20401543e-02 -1.54641524e-01 -3.54973376e-02 -3.42344306e-02 -8.01148638e-02 3.38800885e-02 -2.28759330e-02 -6.27115890e-02 3.04259267e-02 -4.19277735e-02 2.93864962e-02 5.10255732e-02 -7.71089196e-02 3.21989283e-02 -1.42380707e-02 -3.64694506e-01 4.24017049e-02 -1.98599510e-02 -2.12166741e-01 8.94459412e-02 2.83741485e-02 -1.48690730e-01 -1.20823421e-01 6.92502633e-02 2.91177798e-02 -1.22343479e-02 5.61897866e-02 -2.74552149e-03 1.32802762e-02 7.19713867e-02 -6.66604331e-03 -3.30095142e-02 7.47314915e-02 2.59240121e-02 -3.68006885e-01 -3.96011546e-02 5.83967019e-04 -4.41595554e-01 -3.14660221e-02 1.10440135e-01 1.98066165e-03 -9.73202512e-02 2.13278849e-02 -3.65669802e-02 2.74333470e-02 -5.72831742e-02 1.92378029e-01 -9.52345692e-03 1.73658188e-02 3.06078829e-02 4.00267690e-02 -6.47417754e-02 -1.79437399e-01 4.10462394e-02 -9.35415551e-02 1.23175643e-02 -2.90564932e-02 -8.45778584e-02 -1.86272133e-02 -2.61239428e-02 4.69078682e-02 -3.55873555e-02 4.30910103e-02 -1.00388318e-01 1.84764154e-02 1.09305762e-01 -3.99761945e-02 2.81266011e-02 -1.02351932e-02 -1.21179121e-02 -1.02800079e-01 4.22718450e-02 2.97899432e-02 1.29952222e-01 -3.56290974e-02 -2.07068473e-01 1.09554172e-01 -1.02476947e-01 -2.95546092e-02 2.56919917e-02 4.90300078e-03 5.77754062e-03 -2.20013335e-02 3.70349027e-02 -1.48327118e-02 -7.84809608e-03 2.24580839e-01 -1.01496533e-01 1.64130311e-02 -2.57617205e-01 -7.62182251e-02 -3.59965931e-03 -9.72255017e-04 -2.95445719e-03 1.29964147e-02 -2.23441771e-03 -1.14407977e-02 -5.82672134e-02 -2.98908371e-02 1.80017248e-01 6.38742968e-02 1.37902535e-02 -3.57683785e-02 -1.16918936e-01 3.26350629e-01 -2.73458119e-02 -1.20109199e-02 7.69993067e-02 -1.58301163e-02 -7.59049058e-02 -8.01114812e-02 -2.22844575e-02 9.02452022e-02 2.66345125e-02 -3.76762263e-03 9.65431333e-02 -5.61419502e-02 -2.20558122e-02 -1.05886884e-01 2.39748154e-02 -9.14595053e-02 2.70648431e-02 7.03830197e-02 -1.10748904e-02 6.93690926e-02 8.25740620e-02 5.81835173e-02 1.07087322e-01 4.94653434e-02 -7.99941793e-02 2.37137258e-01 3.54751572e-02 -1.03169650e-01 -1.19159906e-03 -5.11453440e-03 4.76324037e-02 2.83126254e-02 -6.50667697e-02 3.70696769e-03 -3.27362604e-02 5.71845658e-02 3.40852886e-02 -1.17464758e-01 -2.10745305e-01 -1.85259152e-02 5.71467578e-02 -6.78749606e-02 4.65235598e-02 6.44192565e-03 -9.56849456e-02 -1.31815791e-01 -5.17729484e-02 -1.19576693e-01 2.14551359e-01 1.35342572e-02 7.08599389e-02 1.28452331e-02 2.72105169e-02 1.61812767e-01 -8.61016810e-02 6.06922340e-03 -5.35601191e-02 4.72988300e-02 -4.40832078e-02 -3.85807008e-02 -9.67963040e-02 -3.09097879e-02 -8.42228532e-02 3.60249467e-02 -8.51839930e-02 -5.60830608e-02 -3.33804525e-02 -6.66789263e-02 -7.56582320e-02 -6.28701225e-02 -2.12096199e-02 2.14043204e-02 -4.30466458e-02 1.73311681e-02 -4.09595631e-02 1.31566599e-01 -4.60582152e-02 -8.18909891e-03 1.04476169e-01 6.17498942e-02 2.74875155e-03 -1.07151140e-02 -7.05249310e-02 -2.24869736e-02 9.90352128e-03 -2.15923437e-03 -5.30333742e-02 -2.66019031e-02 -3.76652479e-02 -8.32486600e-02 1.51839659e-01 -2.64396276e-02 1.07389808e-01 1.27684539e-02 3.51904631e-02 6.87687472e-02 -6.66384622e-02 -7.74951056e-02 8.88727698e-03 -1.66608579e-02 -1.19595369e-02 5.81458032e-01 3.95801216e-02 -9.85793546e-02 -2.02981033e-03 -5.51280566e-02 7.20088780e-02 5.75945340e-03 1.17326807e-02 1.92368105e-02 3.47124673e-02 1.43937111e-01 7.22065568e-02 4.33311649e-02 1.47464182e-02 9.26058292e-02 2.89676934e-02 -5.49323708e-02 -1.45837758e-02 -1.28971459e-02 4.01122347e-02 -1.01969719e-01 4.23103833e-04 2.02310294e-01 -6.26247451e-02 5.21234944e-02 1.65569946e-01 5.26864380e-02 -4.53376845e-02 -3.22209820e-02 -5.43708839e-02 -2.54373979e-02 4.44954522e-02 4.30554859e-02 5.31071099e-03 -1.06434837e-01 -3.97612192e-02 -3.28179210e-01 -6.72442392e-02 -4.23398688e-02 1.73792280e-02 3.21222730e-02 3.55409854e-03 -1.49733452e-02 -3.51987146e-02 -5.20891324e-02 -2.81311292e-02 -7.66028240e-02 -1.32189468e-02 5.12668379e-02 3.90347578e-02 -2.46761683e-02 -3.53103690e-02 -1.77580550e-01 7.41582504e-03 -7.49549344e-02 6.15734905e-02 7.65554681e-02 7.54815340e-02 -3.99679951e-02 -1.14556059e-01 -1.16105042e-01 -8.29112232e-02 3.55896056e-02 5.62474178e-03 7.90292248e-02 1.20005840e-02 6.94991350e-02 8.74553025e-02 -4.99434136e-02 5.14159203e-02 -6.62555685e-03 -1.13443226e-01 3.44082825e-02 -5.49750738e-02 -3.66834477e-02 -1.06249405e-02 -3.36449631e-02 -2.21369751e-02 -3.06601301e-02 -6.32646726e-03 4.50769216e-02 -1.01771317e-02 2.87172869e-02 -4.90039624e-02 2.37404536e-02 1.18522577e-01 -1.36284679e-01 1.27438337e-01 -1.40819445e-01 1.11997321e-01 -1.17826425e-01 1.96101908e-02 5.62821217e-02 -9.91751552e-02 6.67948574e-02 4.19973172e-02 8.59600529e-02 2.50738934e-02 -4.01196666e-02 -2.24161800e-02 9.80459005e-02 1.14770055e-01 -7.92695768e-03 -5.41613698e-02 -1.24096714e-01 4.68388796e-02 1.47439182e-01 1.78936776e-02 8.25645849e-02 5.28433211e-02 4.99313697e-02 -2.34864838e-03 1.36033085e-03 -4.81922179e-03 -3.32267918e-02 4.60968204e-02 2.57040977e-01 5.06828725e-02 -8.50012526e-02 -9.65084285e-02 7.95982704e-02 3.70701440e-02 -9.53667015e-02 -1.96927991e-02 -7.18709454e-02 6.80219531e-02 1.66933373e-01 -2.95135379e-02 1.94599922e-03 8.14261883e-02 -1.17949195e-01 -4.96758707e-03 -3.18013787e-01 -8.61888006e-02 2.63418742e-02 1.58800315e-02 6.26889914e-02 -7.66650913e-03 4.18188833e-02 -1.41699761e-01 -3.03483810e-02 -3.57812755e-02 2.05654092e-02 -5.28636314e-02 -1.08218379e-02 -7.08090886e-02 2.50854921e-02 -6.63449839e-02 -3.66179063e-03 -1.02074921e-01 -5.12488419e-03 -2.33999267e-02 2.89529515e-03 1.55288382e-02 2.88016405e-02 -1.08020388e-01 -1.03278749e-03 -2.17872933e-02 -4.68395874e-02 -1.50250837e-01 -3.05380020e-02 7.49961883e-02 3.13437171e-02 -2.69832741e-03 2.92631425e-02 -4.65908833e-02 -2.46234387e-02 1.44183666e-01 8.34878013e-02 7.48160928e-02 6.66766465e-02 1.14664212e-02 -1.45240650e-02 -3.27206962e-02 -1.77132845e-01 -3.16990584e-01 -2.19152808e-01 -5.47290444e-02 3.14696580e-02 -1.13986209e-01 -4.37175035e-02 -5.59692532e-02 3.28458771e-02 2.03561801e-02 7.76099637e-02 -5.25725028e-03 -1.40191317e-01 2.21822467e-02 -5.45809790e-02 -1.93054192e-02 -4.65377271e-02 -1.94684386e-01 5.20194471e-02 -4.12134603e-02 -2.87715364e-02 -5.45525998e-02 -3.44817303e-02 -2.34737042e-02 2.31904745e-01 1.95725374e-02 -3.38560380e-02 -6.32116497e-02 -1.76063888e-02 -6.50732443e-02 -4.26237658e-02 1.32691100e-01 -6.60058036e-02 5.99585660e-02 7.31834322e-02 -4.53268766e-01 -1.64355692e-02 1.98082700e-02 4.68182936e-02 3.74153890e-02 6.24942593e-02 -4.78393631e-03 1.60127789e-01 -1.20398635e-02 1.39026693e-03 6.73720688e-02 4.30278629e-02 -5.02833687e-02 5.65060489e-02 -1.05304411e-02 2.50458885e-02 -1.41298641e-02 -2.80723162e-02 7.51493825e-03 -7.21914470e-02 -6.45474941e-02 1.58801600e-01 7.22880736e-02 -6.51105633e-03 -2.69495286e-02 7.23674474e-03 -6.23125881e-02 -5.22332452e-02 -7.36450106e-02 -7.12729394e-02 1.47219449e-01 -1.92487352e-02 1.90685429e-02 -8.56026709e-02 -5.66554116e-03 -2.84042098e-02 1.18587464e-01 -7.34172091e-02 3.28688808e-02 -5.75380288e-02 -7.72759169e-02 -3.99567008e-01 -2.08590608e-02 -5.57062253e-02 4.06508707e-02 1.56752765e-01 1.61974672e-02 -1.45392910e-01 -1.69570461e-01 1.68185923e-02 -1.21400923e-01 -7.69668296e-02 1.42355934e-01 2.97087096e-02 -6.49676425e-03 -1.34729184e-02 7.64787272e-02 5.62170520e-02 -2.64180116e-02 -9.47214216e-02 -1.84211414e-03 2.83839684e-02 -1.13822669e-01 1.89369380e-01 1.39101341e-01 -2.83322763e-02 -1.23332506e-02 9.84501839e-03 -6.22565039e-02 5.94469532e-03 -2.94421375e-01 5.16035706e-02 8.35620053e-03 -4.57804687e-02 3.57450135e-02 5.97979166e-02 -1.22925892e-01 3.45138870e-02 1.71943530e-02 -2.18470931e-01 1.49048315e-02 -1.21483639e-01 3.52581382e-01 -1.19092368e-01 -7.78490491e-03 1.58374365e-02 6.42750114e-02 1.98722184e-02 -1.16595492e-01 2.65691429e-02 -1.33986890e-01 -1.71114039e-02 6.38597682e-02 -2.23537609e-02 -1.12729836e-02 6.81801513e-03 1.35895442e-02 4.64440547e-02 -3.58480476e-02 -1.94278341e-02 -3.60512398e-02 -1.06746092e-01 -3.66463475e-02 -3.82711180e-02 -5.96852824e-02 1.18780799e-01 5.30218557e-02 5.43497950e-02 -3.24092396e-02 1.57211181e-02 9.88999233e-02 2.71706246e-02 1.13219768e-01 1.64733961e-01 3.72199751e-02 -1.43678591e-01 -1.98339537e-01 -3.40593569e-02 -1.09251458e-02 -5.87614328e-02 3.60270850e-02 6.64774776e-02 5.78486696e-02 3.43748964e-02 -4.53565829e-02 7.48939067e-02 -5.91722829e-03 -4.23040427e-02 -6.20700642e-02 -1.13187313e-01 -1.41378716e-01 -9.02669784e-03 -2.29388297e-01 -1.51515871e-01 1.85999081e-01 2.17707962e-01 2.00365558e-02 3.64336669e-01 1.62016466e-01 -3.14727575e-02 4.65124026e-02 3.75557505e-02 5.55078201e-02 4.74843867e-02 2.16341037e-02 5.49069047e-02 -8.78497437e-02 -1.22992806e-01 -1.76575363e-01 -1.23340808e-01 1.50216604e-02 9.53889415e-02 1.88139707e-01 1.16710842e-01 5.21789230e-02 -8.20320100e-02 4.27003466e-02 1.23269863e-01 -1.57725185e-01 -5.04448190e-02 -7.17044696e-02 -1.24754384e-01 -1.02406941e-01 2.13030158e-04 1.65242180e-01 9.30783572e-04 1.26230881e-01 -1.82819348e-02 4.87138405e-02 1.72559191e-02 3.53366919e-02 -1.82316542e-01 -4.99606058e-02 2.38702050e-05 1.82169154e-01 -1.50564462e-01 -5.75458184e-02 9.41585191e-03 1.14830621e-01 -4.23748009e-02 1.46671295e-01 -9.78222396e-03 -1.03286602e-01 4.49963659e-02 -5.06646857e-02 2.88544685e-01 -7.64840469e-02 -9.04731161e-04 -3.06593291e-02 3.41368676e-03 7.70280734e-02 1.23028114e-01 8.15736875e-02 3.06227505e-02 -1.79645240e-01 2.01561660e-01 3.17030922e-02 -1.43934369e-01 -7.85824358e-02 -1.78540573e-02 4.34225500e-02 1.63676903e-01 -4.63658273e-02 3.41391228e-02 2.03098059e-02 -2.30572835e-01 -1.36707917e-01 -7.86870439e-03 9.00710560e-03 3.41596864e-02 7.36119598e-03 -2.85662431e-03 -5.05862497e-02 -5.34105040e-02 -4.12353687e-02 -5.63361682e-02 -6.86535537e-02 5.91345802e-02 -2.35410742e-02 1.20970368e-01 -7.93322735e-03 1.88644856e-01 -5.68193048e-02 -2.47684523e-01 2.29439735e-02 -1.06188379e-01 2.58175675e-02 -8.34026858e-02 -2.62777746e-01 6.84179813e-02 8.20074901e-02 1.33799966e-02 -2.55206525e-02 -7.85814598e-02 -6.29208833e-02 1.47293150e-01 1.53799444e-01 1.44338580e-02 -1.11257702e-01 -5.83964176e-02 -1.33023649e-01 -7.02737719e-02 -2.46326122e-02 -1.23778809e-04 -1.15272887e-01 -8.76579210e-02 -1.27690136e-01 2.86117643e-01 2.75580455e-02 5.86445071e-02 -4.35305014e-02 8.42313692e-02 5.05023263e-03 -2.87395157e-02 -8.44954476e-02 2.15774029e-02 3.98323946e-02 -1.18367471e-01 8.29183161e-02 -7.45247528e-02 -1.40179023e-02 -1.87471107e-01 -8.87842029e-02 6.82753697e-03 -6.37223795e-02 6.19502924e-02 9.03582349e-02 -5.86965606e-02 3.85688990e-02 -1.12048686e-01 9.59851295e-02 -3.11066628e-01 -5.21514341e-02 1.17267845e-02 -3.04679722e-02 9.91032496e-02 1.27808988e-01 -9.35387984e-02 -7.83467740e-02 -1.00019388e-01 -2.40567494e-02 -2.68619582e-02 -2.28253528e-01 1.33643955e-01 -3.82547081e-02 -2.59523541e-02 -1.19826585e-01 -6.50054961e-02 -8.45617205e-02 4.04937305e-02 -9.08489749e-02 4.48407046e-02 9.26638301e-03 1.62483782e-01 -9.49705318e-02 1.08294979e-01 -9.35518146e-02 9.60216671e-02 1.21319361e-01 -8.20061564e-02 4.55589667e-02 -1.48413211e-01 -8.44487697e-02 -3.46493982e-02 1.10805444e-02 -1.49100302e-02 -4.88958433e-02 1.53887104e-02 1.46697862e-02 1.60036758e-01 1.03628673e-02 -5.41003831e-02 4.01976630e-02 -1.15582369e-01 7.65118673e-02 9.52586939e-04 -7.18042701e-02 -2.44341325e-02 1.77743271e-01 -3.54334973e-02 4.56336848e-02 4.15782295e-02 -4.63167503e-02 4.78513315e-02 -5.91358310e-03 8.97473656e-03 3.20689231e-02 -2.60200026e-03 1.82064056e-01 5.06163836e-02 4.86733653e-02 1.29440680e-01 1.42725572e-01 5.15563749e-02 -3.81334424e-02 -1.68189183e-02 -6.59179091e-02 1.00696668e-01 -6.71793846e-03 9.31042060e-02 7.60251358e-02 -5.98709099e-02 4.16367836e-02 -3.60008329e-02 -1.04067251e-02 1.82542294e-01 